genomestart  0
trait 1 0.0 0.0 0.0 0.0 0.0 0.0 0.0 0.0 
node 1 1 1 1
node 2 1 1 1
node 3 1 1 1
node 4 1 1 1
node 5 1 1 1
node 6 1 1 1
node 7 1 1 1
node 8 1 1 3
node 18 1 0 2
node 19 1 0 2
gene  1 1 18 -0.8921634166395929 0 323.0 -0.8921634166395929 1
gene  1 3 18 0.5305207599794486 0 325.0 0.5305207599794486 1
gene  1 4 18 0.599120886360795 0 326.0 0.599120886360795 1
gene  1 5 18 -0.613553796902199 0 327.0 -0.613553796902199 1
gene  1 7 18 0.0491958419201588 0 329.0 0.0491958419201588 1
gene  1 8 18 -0.9158239960895285 0 330.0 -0.9158239960895285 1
gene  1 1 19 0.298034517305386 0 342.0 0.298034517305386 1
gene  1 2 19 -0.22892149526124028 0 343.0 -0.22892149526124028 1
gene  1 3 19 0.11364738751406245 0 344.0 0.11364738751406245 1
gene  1 4 19 -0.5747214040002573 0 345.0 -0.5747214040002573 1
gene  1 5 19 0.08516696124806566 0 346.0 0.08516696124806566 1
gene  1 6 19 -0.13961060005735315 0 347.0 -0.13961060005735315 1
gene  1 7 19 0.930824697971338 0 348.0 0.930824697971338 1
gene  1 8 19 -0.7120076426750976 0 349.0 -0.7120076426750976 1
gene  1 18 19 0.018153991088256882 0 359.0 0.018153991088256882 1
genomeend 0
genomestart  1
trait 1 0.0 0.0 0.0 0.0 0.0 0.0 0.0 0.0 
node 1 1 1 1
node 2 1 1 1
node 3 1 1 1
node 4 1 1 1
node 5 1 1 1
node 6 1 1 1
node 7 1 1 1
node 8 1 1 3
node 18 1 0 2
node 19 1 0 2
gene  1 2 18 -0.19955629208359038 0 324.0 -0.19955629208359038 1
gene  1 4 18 -0.7635211320566216 0 326.0 -0.7635211320566216 1
gene  1 6 18 -0.42821049416524126 0 328.0 -0.42821049416524126 1
gene  1 7 18 0.6915171196087297 0 329.0 0.6915171196087297 1
gene  1 8 18 0.11047413994794475 0 330.0 0.11047413994794475 1
gene  1 1 19 -0.880265674433227 0 342.0 -0.880265674433227 1
gene  1 2 19 0.9146833945841644 0 343.0 0.9146833945841644 1
gene  1 3 19 0.6813287979579404 0 344.0 0.6813287979579404 1
gene  1 4 19 0.20791432749121364 0 345.0 0.20791432749121364 1
gene  1 5 19 0.6493918606987219 0 346.0 0.6493918606987219 1
gene  1 7 19 -0.8704748911523588 0 348.0 -0.8704748911523588 1
gene  1 8 19 0.8246827180213471 0 349.0 0.8246827180213471 1
genomeend 1
genomestart  2
trait 1 0.0 0.0 0.0 0.0 0.0 0.0 0.0 0.0 
node 1 1 1 1
node 2 1 1 1
node 3 1 1 1
node 4 1 1 1
node 5 1 1 1
node 6 1 1 1
node 7 1 1 1
node 8 1 1 3
node 18 1 0 2
node 19 1 0 2
gene  1 1 18 0.6159295505516617 0 323.0 0.6159295505516617 1
gene  1 2 18 -0.17056121917019473 0 324.0 -0.17056121917019473 1
gene  1 3 18 -0.3688180507288701 0 325.0 -0.3688180507288701 1
gene  1 5 18 -0.3976771659290229 0 327.0 -0.3976771659290229 1
gene  1 6 18 0.5710117001311921 0 328.0 0.5710117001311921 1
gene  1 1 19 -0.014161872996829361 0 342.0 -0.014161872996829361 1
gene  1 4 19 -0.03321429805961906 0 345.0 -0.03321429805961906 1
gene  1 6 19 -0.5080988957427468 0 347.0 -0.5080988957427468 1
gene  1 7 19 -0.8277871303936152 0 348.0 -0.8277871303936152 1
gene  1 8 19 -0.7920032538349717 0 349.0 -0.7920032538349717 1
genomeend 2
genomestart  3
trait 1 0.0 0.0 0.0 0.0 0.0 0.0 0.0 0.0 
node 1 1 1 1
node 2 1 1 1
node 3 1 1 1
node 4 1 1 1
node 5 1 1 1
node 6 1 1 1
node 7 1 1 1
node 8 1 1 3
node 18 1 0 2
node 19 1 0 2
gene  1 1 18 0.1819558285468521 0 323.0 0.1819558285468521 1
gene  1 2 18 0.2067269032366048 0 324.0 0.2067269032366048 1
gene  1 3 18 0.22409712402209847 0 325.0 0.22409712402209847 1
gene  1 4 18 -0.9237828701381385 0 326.0 -0.9237828701381385 1
gene  1 5 18 0.29942058356077894 0 327.0 0.29942058356077894 1
gene  1 6 18 0.255443057193654 0 328.0 0.255443057193654 1
gene  1 7 18 0.49591363392231946 0 329.0 0.49591363392231946 1
gene  1 8 18 0.649511924662431 0 330.0 0.649511924662431 1
gene  1 1 19 -0.24800315169050824 0 342.0 -0.24800315169050824 1
gene  1 2 19 0.2449589937994353 0 343.0 0.2449589937994353 1
gene  1 5 19 0.7704983854858142 0 346.0 0.7704983854858142 1
gene  1 8 19 0.4020598336099118 0 349.0 0.4020598336099118 1
genomeend 3
genomestart  4
trait 1 0.0 0.0 0.0 0.0 0.0 0.0 0.0 0.0 
node 1 1 1 1
node 2 1 1 1
node 3 1 1 1
node 4 1 1 1
node 5 1 1 1
node 6 1 1 1
node 7 1 1 1
node 8 1 1 3
node 18 1 0 2
node 19 1 0 2
gene  1 2 18 -0.8891957030208492 0 324.0 -0.8891957030208492 1
gene  1 3 18 0.5910867034106277 0 325.0 0.5910867034106277 1
gene  1 4 18 -0.46903631072736274 0 326.0 -0.46903631072736274 1
gene  1 5 18 0.938246726681027 0 327.0 0.938246726681027 1
gene  1 6 18 0.7032368539864624 0 328.0 0.7032368539864624 1
gene  1 7 18 -0.7242800641841528 0 329.0 -0.7242800641841528 1
gene  1 8 18 0.7908136638126512 0 330.0 0.7908136638126512 1
gene  1 1 19 0.9200928695555287 0 342.0 0.9200928695555287 1
gene  1 3 19 -0.37931259947768414 0 344.0 -0.37931259947768414 1
gene  1 5 19 0.38830508679210096 0 346.0 0.38830508679210096 1
gene  1 6 19 -0.508331374830259 0 347.0 -0.508331374830259 1
gene  1 8 19 -0.11547840373944462 0 349.0 -0.11547840373944462 1
genomeend 4
genomestart  5
trait 1 0.0 0.0 0.0 0.0 0.0 0.0 0.0 0.0 
node 1 1 1 1
node 2 1 1 1
node 3 1 1 1
node 4 1 1 1
node 5 1 1 1
node 6 1 1 1
node 7 1 1 1
node 8 1 1 3
node 18 1 0 2
node 19 1 0 2
gene  1 2 18 0.48211156713658043 0 324.0 0.48211156713658043 1
gene  1 3 18 -0.2582270046639338 0 325.0 -0.2582270046639338 1
gene  1 4 18 -0.010798909241871435 0 326.0 -0.010798909241871435 1
gene  1 5 18 -0.061663796604356835 0 327.0 -0.061663796604356835 1
gene  1 6 18 -0.584999213861279 0 328.0 -0.584999213861279 1
gene  1 1 19 -0.2301271865847776 0 342.0 -0.2301271865847776 1
gene  1 5 19 -0.7744175974022212 0 346.0 -0.7744175974022212 1
gene  1 7 19 0.20377354691070426 0 348.0 0.20377354691070426 1
gene  1 8 19 0.6484884052741751 0 349.0 0.6484884052741751 1
gene  1 18 19 0.28162695034322005 0 359.0 0.28162695034322005 1
genomeend 5
genomestart  6
trait 1 0.0 0.0 0.0 0.0 0.0 0.0 0.0 0.0 
node 1 1 1 1
node 2 1 1 1
node 3 1 1 1
node 4 1 1 1
node 5 1 1 1
node 6 1 1 1
node 7 1 1 1
node 8 1 1 3
node 18 1 0 2
node 19 1 0 2
gene  1 2 18 0.028883007934800475 0 324.0 0.028883007934800475 1
gene  1 3 18 -0.9039446476139323 0 325.0 -0.9039446476139323 1
gene  1 4 18 -0.1773178180647067 0 326.0 -0.1773178180647067 1
gene  1 6 18 -0.28641362888964117 0 328.0 -0.28641362888964117 1
gene  1 7 18 -0.036887860140061735 0 329.0 -0.036887860140061735 1
gene  1 8 18 -0.8919908103757953 0 330.0 -0.8919908103757953 1
gene  1 1 19 0.8893305517240316 0 342.0 0.8893305517240316 1
gene  1 5 19 0.961860068583603 0 346.0 0.961860068583603 1
gene  1 6 19 9.927570182118872E-4 0 347.0 9.927570182118872E-4 1
gene  1 18 19 0.17992943389895943 0 359.0 0.17992943389895943 1
genomeend 6
genomestart  7
trait 1 0.0 0.0 0.0 0.0 0.0 0.0 0.0 0.0 
node 1 1 1 1
node 2 1 1 1
node 3 1 1 1
node 4 1 1 1
node 5 1 1 1
node 6 1 1 1
node 7 1 1 1
node 8 1 1 3
node 18 1 0 2
node 19 1 0 2
gene  1 2 18 0.7580633420777975 0 324.0 0.7580633420777975 1
gene  1 3 18 -0.9071272281059712 0 325.0 -0.9071272281059712 1
gene  1 4 18 -0.2958241934679261 0 326.0 -0.2958241934679261 1
gene  1 7 18 -0.8697951375071064 0 329.0 -0.8697951375071064 1
gene  1 8 18 -0.7047094755846313 0 330.0 -0.7047094755846313 1
gene  1 1 19 -0.6362692277005023 0 342.0 -0.6362692277005023 1
gene  1 2 19 0.9979548215681485 0 343.0 0.9979548215681485 1
gene  1 3 19 0.3986582557955842 0 344.0 0.3986582557955842 1
gene  1 5 19 -0.8922285445591174 0 346.0 -0.8922285445591174 1
gene  1 6 19 0.21597739704411445 0 347.0 0.21597739704411445 1
gene  1 7 19 -0.35902182716591946 0 348.0 -0.35902182716591946 1
gene  1 18 19 -0.5955484523171504 0 359.0 -0.5955484523171504 1
genomeend 7
genomestart  8
trait 1 0.0 0.0 0.0 0.0 0.0 0.0 0.0 0.0 
node 1 1 1 1
node 2 1 1 1
node 3 1 1 1
node 4 1 1 1
node 5 1 1 1
node 6 1 1 1
node 7 1 1 1
node 8 1 1 3
node 18 1 0 2
node 19 1 0 2
gene  1 1 18 -0.6433776733061513 0 323.0 -0.6433776733061513 1
gene  1 2 18 -0.647536845956394 0 324.0 -0.647536845956394 1
gene  1 3 18 0.5526072764872891 0 325.0 0.5526072764872891 1
gene  1 4 18 0.14076398886107777 0 326.0 0.14076398886107777 1
gene  1 7 18 0.7462800357891048 0 329.0 0.7462800357891048 1
gene  1 8 18 -0.9916543700796047 0 330.0 -0.9916543700796047 1
gene  1 3 19 -0.9867457597024112 0 344.0 -0.9867457597024112 1
gene  1 4 19 -0.03873254045821928 0 345.0 -0.03873254045821928 1
gene  1 5 19 0.22576628143282784 0 346.0 0.22576628143282784 1
gene  1 6 19 -0.2553663316850664 0 347.0 -0.2553663316850664 1
gene  1 7 19 -0.43196317329526956 0 348.0 -0.43196317329526956 1
gene  1 8 19 -0.5636490610061825 0 349.0 -0.5636490610061825 1
genomeend 8
genomestart  9
trait 1 0.0 0.0 0.0 0.0 0.0 0.0 0.0 0.0 
node 1 1 1 1
node 2 1 1 1
node 3 1 1 1
node 4 1 1 1
node 5 1 1 1
node 6 1 1 1
node 7 1 1 1
node 8 1 1 3
node 18 1 0 2
node 19 1 0 2
gene  1 1 18 0.4781186525270542 0 323.0 0.4781186525270542 1
gene  1 3 18 -0.532302016710777 0 325.0 -0.532302016710777 1
gene  1 6 18 -0.458897617405852 0 328.0 -0.458897617405852 1
gene  1 7 18 0.7616478378422604 0 329.0 0.7616478378422604 1
gene  1 8 18 0.5271633010497873 0 330.0 0.5271633010497873 1
gene  1 1 19 -0.1750904603891319 0 342.0 -0.1750904603891319 1
gene  1 2 19 -0.15203616196624115 0 343.0 -0.15203616196624115 1
gene  1 4 19 -0.5759260215173954 0 345.0 -0.5759260215173954 1
gene  1 5 19 -0.24951417567990308 0 346.0 -0.24951417567990308 1
gene  1 7 19 0.48494274658409786 0 348.0 0.48494274658409786 1
gene  1 8 19 0.6716938266514585 0 349.0 0.6716938266514585 1
genomeend 9
genomestart  10
trait 1 0.0 0.0 0.0 0.0 0.0 0.0 0.0 0.0 
node 1 1 1 1
node 2 1 1 1
node 3 1 1 1
node 4 1 1 1
node 5 1 1 1
node 6 1 1 1
node 7 1 1 1
node 8 1 1 3
node 18 1 0 2
node 19 1 0 2
gene  1 2 18 0.6224715873813824 0 324.0 0.6224715873813824 1
gene  1 3 18 0.4078444658837298 0 325.0 0.4078444658837298 1
gene  1 4 18 -0.720908587217679 0 326.0 -0.720908587217679 1
gene  1 5 18 0.8402881332691329 0 327.0 0.8402881332691329 1
gene  1 6 18 -0.8072355024049037 0 328.0 -0.8072355024049037 1
gene  1 7 18 -0.7283970047551085 0 329.0 -0.7283970047551085 1
gene  1 1 19 0.8464897454992811 0 342.0 0.8464897454992811 1
gene  1 3 19 0.18226016029244807 0 344.0 0.18226016029244807 1
gene  1 4 19 -0.9555987510649817 0 345.0 -0.9555987510649817 1
gene  1 8 19 0.5760614315811897 0 349.0 0.5760614315811897 1
gene  1 18 19 0.4470720358406546 0 359.0 0.4470720358406546 1
genomeend 10
genomestart  11
trait 1 0.0 0.0 0.0 0.0 0.0 0.0 0.0 0.0 
node 1 1 1 1
node 2 1 1 1
node 3 1 1 1
node 4 1 1 1
node 5 1 1 1
node 6 1 1 1
node 7 1 1 1
node 8 1 1 3
node 18 1 0 2
node 19 1 0 2
gene  1 1 18 -0.6593845506386815 0 323.0 -0.6593845506386815 1
gene  1 2 18 -0.9858855475188766 0 324.0 -0.9858855475188766 1
gene  1 3 18 -0.78071896083628 0 325.0 -0.78071896083628 1
gene  1 4 18 0.4815144342046537 0 326.0 0.4815144342046537 1
gene  1 5 18 0.5133380898330596 0 327.0 0.5133380898330596 1
gene  1 6 18 0.6098710501529568 0 328.0 0.6098710501529568 1
gene  1 1 19 -0.4256630669311269 0 342.0 -0.4256630669311269 1
gene  1 2 19 -0.1607658728785062 0 343.0 -0.1607658728785062 1
gene  1 4 19 0.9567484263678145 0 345.0 0.9567484263678145 1
gene  1 5 19 -0.885382414763639 0 346.0 -0.885382414763639 1
gene  1 6 19 0.2604525739858319 0 347.0 0.2604525739858319 1
gene  1 7 19 -0.8978194896294869 0 348.0 -0.8978194896294869 1
gene  1 8 19 -0.7642516826067294 0 349.0 -0.7642516826067294 1
gene  1 18 19 -0.8753790745931342 0 359.0 -0.8753790745931342 1
genomeend 11
genomestart  12
trait 1 0.0 0.0 0.0 0.0 0.0 0.0 0.0 0.0 
node 1 1 1 1
node 2 1 1 1
node 3 1 1 1
node 4 1 1 1
node 5 1 1 1
node 6 1 1 1
node 7 1 1 1
node 8 1 1 3
node 18 1 0 2
node 19 1 0 2
gene  1 1 18 -0.19330981353697196 0 323.0 -0.19330981353697196 1
gene  1 2 18 -0.5151142562703585 0 324.0 -0.5151142562703585 1
gene  1 7 18 -0.9960758396669547 0 329.0 -0.9960758396669547 1
gene  1 8 18 0.46636851946967384 0 330.0 0.46636851946967384 1
gene  1 1 19 0.7601356904584231 0 342.0 0.7601356904584231 1
gene  1 2 19 -0.7504784872082519 0 343.0 -0.7504784872082519 1
gene  1 3 19 -0.23021606368055614 0 344.0 -0.23021606368055614 1
gene  1 4 19 0.16816872287225682 0 345.0 0.16816872287225682 1
gene  1 5 19 0.19657966570983954 0 346.0 0.19657966570983954 1
gene  1 6 19 -0.1915895421738777 0 347.0 -0.1915895421738777 1
gene  1 8 19 -0.07839424758636915 0 349.0 -0.07839424758636915 1
genomeend 12
genomestart  13
trait 1 0.0 0.0 0.0 0.0 0.0 0.0 0.0 0.0 
node 1 1 1 1
node 2 1 1 1
node 3 1 1 1
node 4 1 1 1
node 5 1 1 1
node 6 1 1 1
node 7 1 1 1
node 8 1 1 3
node 18 1 0 2
node 19 1 0 2
gene  1 2 18 0.4763662272538537 0 324.0 0.4763662272538537 1
gene  1 3 18 0.855606683269845 0 325.0 0.855606683269845 1
gene  1 4 18 0.682740849331891 0 326.0 0.682740849331891 1
gene  1 5 18 -0.2609143685068851 0 327.0 -0.2609143685068851 1
gene  1 6 18 0.21195526145851085 0 328.0 0.21195526145851085 1
gene  1 7 18 0.9444185997704584 0 329.0 0.9444185997704584 1
gene  1 1 19 0.10043615514322357 0 342.0 0.10043615514322357 1
gene  1 3 19 -0.2837372269012317 0 344.0 -0.2837372269012317 1
gene  1 4 19 -0.3976407769855469 0 345.0 -0.3976407769855469 1
gene  1 8 19 -0.9230705680324868 0 349.0 -0.9230705680324868 1
gene  1 18 19 0.14989449473153016 0 359.0 0.14989449473153016 1
genomeend 13
genomestart  14
trait 1 0.0 0.0 0.0 0.0 0.0 0.0 0.0 0.0 
node 1 1 1 1
node 2 1 1 1
node 3 1 1 1
node 4 1 1 1
node 5 1 1 1
node 6 1 1 1
node 7 1 1 1
node 8 1 1 3
node 18 1 0 2
node 19 1 0 2
gene  1 1 18 0.9490335287649975 0 323.0 0.9490335287649975 1
gene  1 4 18 -0.33699125261113205 0 326.0 -0.33699125261113205 1
gene  1 5 18 -0.5123294295504505 0 327.0 -0.5123294295504505 1
gene  1 6 18 -0.5638644279567832 0 328.0 -0.5638644279567832 1
gene  1 7 18 -0.07755264906532189 0 329.0 -0.07755264906532189 1
gene  1 8 18 -0.9981817605573718 0 330.0 -0.9981817605573718 1
gene  1 2 19 0.3653839341915871 0 343.0 0.3653839341915871 1
gene  1 3 19 -0.37875965730532346 0 344.0 -0.37875965730532346 1
gene  1 4 19 -0.5486855180512057 0 345.0 -0.5486855180512057 1
gene  1 6 19 -0.629203008501247 0 347.0 -0.629203008501247 1
gene  1 8 19 -0.7091536307388218 0 349.0 -0.7091536307388218 1
gene  1 18 19 0.496027873982694 0 359.0 0.496027873982694 1
genomeend 14
genomestart  15
trait 1 0.0 0.0 0.0 0.0 0.0 0.0 0.0 0.0 
node 1 1 1 1
node 2 1 1 1
node 3 1 1 1
node 4 1 1 1
node 5 1 1 1
node 6 1 1 1
node 7 1 1 1
node 8 1 1 3
node 18 1 0 2
node 19 1 0 2
gene  1 1 18 -0.933051295912028 0 323.0 -0.933051295912028 1
gene  1 2 18 0.40537499322326687 0 324.0 0.40537499322326687 1
gene  1 4 18 -0.516516499025386 0 326.0 -0.516516499025386 1
gene  1 5 18 0.8086922225919555 0 327.0 0.8086922225919555 1
gene  1 6 18 0.33501508592788065 0 328.0 0.33501508592788065 1
gene  1 8 18 0.05117231226513874 0 330.0 0.05117231226513874 1
gene  1 1 19 0.4969589194740319 0 342.0 0.4969589194740319 1
gene  1 2 19 0.43002618844816864 0 343.0 0.43002618844816864 1
gene  1 3 19 -0.7993431712061128 0 344.0 -0.7993431712061128 1
gene  1 5 19 0.5214395321542313 0 346.0 0.5214395321542313 1
gene  1 7 19 -0.7160822066575586 0 348.0 -0.7160822066575586 1
gene  1 8 19 0.9064982722518172 0 349.0 0.9064982722518172 1
gene  1 18 19 0.6193790780820969 0 359.0 0.6193790780820969 1
genomeend 15
genomestart  16
trait 1 0.0 0.0 0.0 0.0 0.0 0.0 0.0 0.0 
node 1 1 1 1
node 2 1 1 1
node 3 1 1 1
node 4 1 1 1
node 5 1 1 1
node 6 1 1 1
node 7 1 1 1
node 8 1 1 3
node 18 1 0 2
node 19 1 0 2
gene  1 1 18 -0.17243687982105005 0 323.0 -0.17243687982105005 1
gene  1 2 18 0.06018946523460711 0 324.0 0.06018946523460711 1
gene  1 3 18 -0.039725724611752944 0 325.0 -0.039725724611752944 1
gene  1 7 18 -0.12114182491507908 0 329.0 -0.12114182491507908 1
gene  1 8 18 0.2700192926518268 0 330.0 0.2700192926518268 1
gene  1 1 19 -0.9549670749657714 0 342.0 -0.9549670749657714 1
gene  1 4 19 0.6879319341558173 0 345.0 0.6879319341558173 1
gene  1 5 19 -0.145963002201153 0 346.0 -0.145963002201153 1
gene  1 6 19 0.015494205008405926 0 347.0 0.015494205008405926 1
gene  1 18 19 -0.18165117860170787 0 359.0 -0.18165117860170787 1
genomeend 16
genomestart  17
trait 1 0.0 0.0 0.0 0.0 0.0 0.0 0.0 0.0 
node 1 1 1 1
node 2 1 1 1
node 3 1 1 1
node 4 1 1 1
node 5 1 1 1
node 6 1 1 1
node 7 1 1 1
node 8 1 1 3
node 18 1 0 2
node 19 1 0 2
gene  1 2 18 0.2724104815117061 0 324.0 0.2724104815117061 1
gene  1 3 18 -0.24345767069027846 0 325.0 -0.24345767069027846 1
gene  1 5 18 -0.9269876283866921 0 327.0 -0.9269876283866921 1
gene  1 6 18 -0.2298473228038309 0 328.0 -0.2298473228038309 1
gene  1 8 18 -0.7920304458391068 0 330.0 -0.7920304458391068 1
gene  1 1 19 -0.6859882084774581 0 342.0 -0.6859882084774581 1
gene  1 2 19 -0.8816486183823463 0 343.0 -0.8816486183823463 1
gene  1 4 19 0.5933473753608177 0 345.0 0.5933473753608177 1
gene  1 5 19 0.5102415509631419 0 346.0 0.5102415509631419 1
gene  1 6 19 -0.31380315373532464 0 347.0 -0.31380315373532464 1
gene  1 7 19 -0.4583985697832653 0 348.0 -0.4583985697832653 1
genomeend 17
genomestart  18
trait 1 0.0 0.0 0.0 0.0 0.0 0.0 0.0 0.0 
node 1 1 1 1
node 2 1 1 1
node 3 1 1 1
node 4 1 1 1
node 5 1 1 1
node 6 1 1 1
node 7 1 1 1
node 8 1 1 3
node 18 1 0 2
node 19 1 0 2
gene  1 1 18 0.7882453620854024 0 323.0 0.7882453620854024 1
gene  1 2 18 0.5583156864128943 0 324.0 0.5583156864128943 1
gene  1 4 18 -0.936017296397144 0 326.0 -0.936017296397144 1
gene  1 7 18 0.49575358737197617 0 329.0 0.49575358737197617 1
gene  1 2 19 0.7130252892253973 0 343.0 0.7130252892253973 1
gene  1 3 19 -0.5489194706887492 0 344.0 -0.5489194706887492 1
gene  1 4 19 -0.07118251312543922 0 345.0 -0.07118251312543922 1
gene  1 5 19 -0.8178992067559082 0 346.0 -0.8178992067559082 1
gene  1 6 19 -0.4600321741570488 0 347.0 -0.4600321741570488 1
gene  1 8 19 -0.21453243559525548 0 349.0 -0.21453243559525548 1
gene  1 18 19 -0.29363124721294553 0 359.0 -0.29363124721294553 1
genomeend 18
genomestart  19
trait 1 0.0 0.0 0.0 0.0 0.0 0.0 0.0 0.0 
node 1 1 1 1
node 2 1 1 1
node 3 1 1 1
node 4 1 1 1
node 5 1 1 1
node 6 1 1 1
node 7 1 1 1
node 8 1 1 3
node 18 1 0 2
node 19 1 0 2
gene  1 1 18 -0.6037627057295031 0 323.0 -0.6037627057295031 1
gene  1 4 18 0.7474038282807633 0 326.0 0.7474038282807633 1
gene  1 7 18 -0.17303102512536916 0 329.0 -0.17303102512536916 1
gene  1 8 18 0.2649726548492096 0 330.0 0.2649726548492096 1
gene  1 1 19 0.5601831511040934 0 342.0 0.5601831511040934 1
gene  1 2 19 0.10534866026368084 0 343.0 0.10534866026368084 1
gene  1 3 19 0.5057638268067204 0 344.0 0.5057638268067204 1
gene  1 5 19 0.6749750891756195 0 346.0 0.6749750891756195 1
gene  1 6 19 0.7998910172574256 0 347.0 0.7998910172574256 1
gene  1 7 19 0.3195894323042151 0 348.0 0.3195894323042151 1
gene  1 8 19 -0.9526696851266266 0 349.0 -0.9526696851266266 1
gene  1 18 19 -0.996569647235652 0 359.0 -0.996569647235652 1
genomeend 19
genomestart  20
trait 1 0.0 0.0 0.0 0.0 0.0 0.0 0.0 0.0 
node 1 1 1 1
node 2 1 1 1
node 3 1 1 1
node 4 1 1 1
node 5 1 1 1
node 6 1 1 1
node 7 1 1 1
node 8 1 1 3
node 18 1 0 2
node 19 1 0 2
gene  1 1 18 -0.7095350426815691 0 323.0 -0.7095350426815691 1
gene  1 3 18 0.973091574397886 0 325.0 0.973091574397886 1
gene  1 5 18 -0.9208540976306917 0 327.0 -0.9208540976306917 1
gene  1 6 18 -0.433106474851339 0 328.0 -0.433106474851339 1
gene  1 8 18 0.7885441306612021 0 330.0 0.7885441306612021 1
gene  1 2 19 -0.966073373206389 0 343.0 -0.966073373206389 1
gene  1 4 19 0.10635660653446855 0 345.0 0.10635660653446855 1
gene  1 7 19 -0.7984987109035369 0 348.0 -0.7984987109035369 1
gene  1 8 19 0.1225065117738463 0 349.0 0.1225065117738463 1
genomeend 20
genomestart  21
trait 1 0.0 0.0 0.0 0.0 0.0 0.0 0.0 0.0 
node 1 1 1 1
node 2 1 1 1
node 3 1 1 1
node 4 1 1 1
node 5 1 1 1
node 6 1 1 1
node 7 1 1 1
node 8 1 1 3
node 18 1 0 2
node 19 1 0 2
gene  1 2 18 -0.23798526796483388 0 324.0 -0.23798526796483388 1
gene  1 3 18 0.6300534327305055 0 325.0 0.6300534327305055 1
gene  1 5 18 0.5583824207588839 0 327.0 0.5583824207588839 1
gene  1 6 18 -0.9396128804924913 0 328.0 -0.9396128804924913 1
gene  1 7 18 -0.4135649057276679 0 329.0 -0.4135649057276679 1
gene  1 1 19 -0.355327325057754 0 342.0 -0.355327325057754 1
gene  1 4 19 0.7375546612350274 0 345.0 0.7375546612350274 1
gene  1 6 19 0.052368653086960815 0 347.0 0.052368653086960815 1
gene  1 8 19 0.007539553758412976 0 349.0 0.007539553758412976 1
genomeend 21
genomestart  22
trait 1 0.0 0.0 0.0 0.0 0.0 0.0 0.0 0.0 
node 1 1 1 1
node 2 1 1 1
node 3 1 1 1
node 4 1 1 1
node 5 1 1 1
node 6 1 1 1
node 7 1 1 1
node 8 1 1 3
node 18 1 0 2
node 19 1 0 2
gene  1 2 18 0.024974026302610475 0 324.0 0.024974026302610475 1
gene  1 5 18 -0.9854615985051902 0 327.0 -0.9854615985051902 1
gene  1 7 18 0.8345405384985878 0 329.0 0.8345405384985878 1
gene  1 1 19 0.8966848528147531 0 342.0 0.8966848528147531 1
gene  1 3 19 -0.2704696270467494 0 344.0 -0.2704696270467494 1
gene  1 4 19 0.9933058275627955 0 345.0 0.9933058275627955 1
gene  1 6 19 -0.5999660214825705 0 347.0 -0.5999660214825705 1
gene  1 7 19 -0.27047778877423423 0 348.0 -0.27047778877423423 1
gene  1 8 19 -0.043567888201735516 0 349.0 -0.043567888201735516 1
genomeend 22
genomestart  23
trait 1 0.0 0.0 0.0 0.0 0.0 0.0 0.0 0.0 
node 1 1 1 1
node 2 1 1 1
node 3 1 1 1
node 4 1 1 1
node 5 1 1 1
node 6 1 1 1
node 7 1 1 1
node 8 1 1 3
node 18 1 0 2
node 19 1 0 2
gene  1 1 18 -0.0467491568639844 0 323.0 -0.0467491568639844 1
gene  1 2 18 0.06230320762849162 0 324.0 0.06230320762849162 1
gene  1 3 18 0.7180083235634296 0 325.0 0.7180083235634296 1
gene  1 4 18 0.7387325492583279 0 326.0 0.7387325492583279 1
gene  1 5 18 -0.46055142786003456 0 327.0 -0.46055142786003456 1
gene  1 6 18 0.9905654393758152 0 328.0 0.9905654393758152 1
gene  1 1 19 -0.12401294201468205 0 342.0 -0.12401294201468205 1
gene  1 2 19 0.24310816079936604 0 343.0 0.24310816079936604 1
gene  1 3 19 0.14880048144294344 0 344.0 0.14880048144294344 1
gene  1 5 19 -0.5235995840373262 0 346.0 -0.5235995840373262 1
gene  1 6 19 -0.8096582071653768 0 347.0 -0.8096582071653768 1
gene  1 7 19 0.17568026852050556 0 348.0 0.17568026852050556 1
gene  1 8 19 0.7778931705320992 0 349.0 0.7778931705320992 1
gene  1 18 19 -0.6885698665615947 0 359.0 -0.6885698665615947 1
genomeend 23
genomestart  24
trait 1 0.0 0.0 0.0 0.0 0.0 0.0 0.0 0.0 
node 1 1 1 1
node 2 1 1 1
node 3 1 1 1
node 4 1 1 1
node 5 1 1 1
node 6 1 1 1
node 7 1 1 1
node 8 1 1 3
node 18 1 0 2
node 19 1 0 2
gene  1 1 18 0.5838429586156766 0 323.0 0.5838429586156766 1
gene  1 4 18 -0.47433833082653676 0 326.0 -0.47433833082653676 1
gene  1 7 18 -0.4566130322472264 0 329.0 -0.4566130322472264 1
gene  1 8 18 0.3862088506624911 0 330.0 0.3862088506624911 1
gene  1 1 19 -0.3040054454049653 0 342.0 -0.3040054454049653 1
gene  1 2 19 -0.7394586699572953 0 343.0 -0.7394586699572953 1
gene  1 3 19 0.983957590454943 0 344.0 0.983957590454943 1
gene  1 5 19 0.5153310378601961 0 346.0 0.5153310378601961 1
gene  1 6 19 0.542000441408938 0 347.0 0.542000441408938 1
gene  1 8 19 0.967948159836335 0 349.0 0.967948159836335 1
gene  1 18 19 -0.7425481588558999 0 359.0 -0.7425481588558999 1
genomeend 24
genomestart  25
trait 1 0.0 0.0 0.0 0.0 0.0 0.0 0.0 0.0 
node 1 1 1 1
node 2 1 1 1
node 3 1 1 1
node 4 1 1 1
node 5 1 1 1
node 6 1 1 1
node 7 1 1 1
node 8 1 1 3
node 18 1 0 2
node 19 1 0 2
gene  1 1 18 0.4415565556490345 0 323.0 0.4415565556490345 1
gene  1 3 18 0.622278818346958 0 325.0 0.622278818346958 1
gene  1 5 18 0.2018308791573774 0 327.0 0.2018308791573774 1
gene  1 7 18 0.2760291607923189 0 329.0 0.2760291607923189 1
gene  1 8 18 -0.6412256896475022 0 330.0 -0.6412256896475022 1
gene  1 1 19 -0.6565027751150277 0 342.0 -0.6565027751150277 1
gene  1 2 19 -0.1851161951595568 0 343.0 -0.1851161951595568 1
gene  1 3 19 -0.526576302809113 0 344.0 -0.526576302809113 1
gene  1 4 19 0.8325482990406846 0 345.0 0.8325482990406846 1
gene  1 5 19 0.37853287099260013 0 346.0 0.37853287099260013 1
gene  1 6 19 0.40729910197811103 0 347.0 0.40729910197811103 1
gene  1 7 19 -0.4327596531770954 0 348.0 -0.4327596531770954 1
gene  1 8 19 0.6395623838875572 0 349.0 0.6395623838875572 1
gene  1 18 19 -0.556158184576148 0 359.0 -0.556158184576148 1
genomeend 25
genomestart  26
trait 1 0.0 0.0 0.0 0.0 0.0 0.0 0.0 0.0 
node 1 1 1 1
node 2 1 1 1
node 3 1 1 1
node 4 1 1 1
node 5 1 1 1
node 6 1 1 1
node 7 1 1 1
node 8 1 1 3
node 18 1 0 2
node 19 1 0 2
gene  1 1 18 0.0412705838255063 0 323.0 0.0412705838255063 1
gene  1 2 18 0.8099315222079526 0 324.0 0.8099315222079526 1
gene  1 4 18 -0.8507152977419857 0 326.0 -0.8507152977419857 1
gene  1 5 18 -0.9828341382979666 0 327.0 -0.9828341382979666 1
gene  1 6 18 0.8587966468311361 0 328.0 0.8587966468311361 1
gene  1 7 18 0.8391246380307247 0 329.0 0.8391246380307247 1
gene  1 8 18 0.7761054588721868 0 330.0 0.7761054588721868 1
gene  1 2 19 -0.6389258487152788 0 343.0 -0.6389258487152788 1
gene  1 3 19 0.573731768808183 0 344.0 0.573731768808183 1
gene  1 5 19 -0.43886028737942595 0 346.0 -0.43886028737942595 1
gene  1 6 19 0.36200597430314563 0 347.0 0.36200597430314563 1
gene  1 7 19 -0.804380463151959 0 348.0 -0.804380463151959 1
gene  1 18 19 0.21219040034025627 0 359.0 0.21219040034025627 1
genomeend 26
genomestart  27
trait 1 0.0 0.0 0.0 0.0 0.0 0.0 0.0 0.0 
node 1 1 1 1
node 2 1 1 1
node 3 1 1 1
node 4 1 1 1
node 5 1 1 1
node 6 1 1 1
node 7 1 1 1
node 8 1 1 3
node 18 1 0 2
node 19 1 0 2
gene  1 2 18 0.711601431603762 0 324.0 0.711601431603762 1
gene  1 3 18 -0.03414030138702551 0 325.0 -0.03414030138702551 1
gene  1 5 18 -0.10386804837890629 0 327.0 -0.10386804837890629 1
gene  1 6 18 -0.3536924936480985 0 328.0 -0.3536924936480985 1
gene  1 7 18 0.9844080443994198 0 329.0 0.9844080443994198 1
gene  1 8 18 -0.7849889469101442 0 330.0 -0.7849889469101442 1
gene  1 1 19 0.576556227249751 0 342.0 0.576556227249751 1
gene  1 2 19 0.0031095360122277427 0 343.0 0.0031095360122277427 1
gene  1 4 19 -0.7539198316338299 0 345.0 -0.7539198316338299 1
gene  1 7 19 -0.5771558327977393 0 348.0 -0.5771558327977393 1
gene  1 8 19 -0.6381526481751562 0 349.0 -0.6381526481751562 1
genomeend 27
genomestart  28
trait 1 0.0 0.0 0.0 0.0 0.0 0.0 0.0 0.0 
node 1 1 1 1
node 2 1 1 1
node 3 1 1 1
node 4 1 1 1
node 5 1 1 1
node 6 1 1 1
node 7 1 1 1
node 8 1 1 3
node 18 1 0 2
node 19 1 0 2
gene  1 1 18 -0.7055990278393282 0 323.0 -0.7055990278393282 1
gene  1 2 18 0.9095221663588355 0 324.0 0.9095221663588355 1
gene  1 4 18 0.132206153205082 0 326.0 0.132206153205082 1
gene  1 5 18 -0.6249186326059898 0 327.0 -0.6249186326059898 1
gene  1 7 18 -0.7255955381949077 0 329.0 -0.7255955381949077 1
gene  1 8 18 -0.6623394541234547 0 330.0 -0.6623394541234547 1
gene  1 3 19 -0.7568784472875171 0 344.0 -0.7568784472875171 1
gene  1 6 19 0.7840376229999578 0 347.0 0.7840376229999578 1
gene  1 7 19 -0.2651237652892021 0 348.0 -0.2651237652892021 1
genomeend 28
genomestart  29
trait 1 0.0 0.0 0.0 0.0 0.0 0.0 0.0 0.0 
node 1 1 1 1
node 2 1 1 1
node 3 1 1 1
node 4 1 1 1
node 5 1 1 1
node 6 1 1 1
node 7 1 1 1
node 8 1 1 3
node 18 1 0 2
node 19 1 0 2
gene  1 1 18 0.6725217768990859 0 323.0 0.6725217768990859 1
gene  1 3 18 -0.5095360183527192 0 325.0 -0.5095360183527192 1
gene  1 4 18 0.8319102543383937 0 326.0 0.8319102543383937 1
gene  1 5 18 0.9134110104775884 0 327.0 0.9134110104775884 1
gene  1 7 18 -0.7190208985857708 0 329.0 -0.7190208985857708 1
gene  1 8 18 0.8672137672554086 0 330.0 0.8672137672554086 1
gene  1 1 19 -0.4166865283783141 0 342.0 -0.4166865283783141 1
gene  1 2 19 0.22670772344028256 0 343.0 0.22670772344028256 1
gene  1 5 19 0.46039947898673594 0 346.0 0.46039947898673594 1
gene  1 6 19 -0.03338153444438974 0 347.0 -0.03338153444438974 1
genomeend 29
genomestart  30
trait 1 0.0 0.0 0.0 0.0 0.0 0.0 0.0 0.0 
node 1 1 1 1
node 2 1 1 1
node 3 1 1 1
node 4 1 1 1
node 5 1 1 1
node 6 1 1 1
node 7 1 1 1
node 8 1 1 3
node 18 1 0 2
node 19 1 0 2
gene  1 1 18 -0.6914445389977639 0 323.0 -0.6914445389977639 1
gene  1 2 18 0.2523005552991293 0 324.0 0.2523005552991293 1
gene  1 3 18 -0.9414956828716652 0 325.0 -0.9414956828716652 1
gene  1 4 18 -0.9396091162228948 0 326.0 -0.9396091162228948 1
gene  1 5 18 -0.17021722125422134 0 327.0 -0.17021722125422134 1
gene  1 7 18 0.078491302216395 0 329.0 0.078491302216395 1
gene  1 6 19 0.30873718980907994 0 347.0 0.30873718980907994 1
gene  1 8 19 0.08720761331541937 0 349.0 0.08720761331541937 1
genomeend 30
genomestart  31
trait 1 0.0 0.0 0.0 0.0 0.0 0.0 0.0 0.0 
node 1 1 1 1
node 2 1 1 1
node 3 1 1 1
node 4 1 1 1
node 5 1 1 1
node 6 1 1 1
node 7 1 1 1
node 8 1 1 3
node 18 1 0 2
node 19 1 0 2
gene  1 1 18 -0.8129997023467066 0 323.0 -0.8129997023467066 1
gene  1 2 18 -0.8760702506251843 0 324.0 -0.8760702506251843 1
gene  1 3 18 0.6873426825030466 0 325.0 0.6873426825030466 1
gene  1 5 18 0.718725161697152 0 327.0 0.718725161697152 1
gene  1 7 18 0.047811445569697075 0 329.0 0.047811445569697075 1
gene  1 8 18 -0.8130918272232168 0 330.0 -0.8130918272232168 1
gene  1 3 19 0.14559823088864832 0 344.0 0.14559823088864832 1
gene  1 4 19 0.802316809520295 0 345.0 0.802316809520295 1
gene  1 6 19 -0.38315540077414745 0 347.0 -0.38315540077414745 1
gene  1 7 19 -0.5759506786758296 0 348.0 -0.5759506786758296 1
gene  1 8 19 0.4966293257992901 0 349.0 0.4966293257992901 1
gene  1 18 19 0.2715708302602913 0 359.0 0.2715708302602913 1
genomeend 31
genomestart  32
trait 1 0.0 0.0 0.0 0.0 0.0 0.0 0.0 0.0 
node 1 1 1 1
node 2 1 1 1
node 3 1 1 1
node 4 1 1 1
node 5 1 1 1
node 6 1 1 1
node 7 1 1 1
node 8 1 1 3
node 18 1 0 2
node 19 1 0 2
gene  1 3 18 0.05945162787894498 0 325.0 0.05945162787894498 1
gene  1 8 18 -0.1273631843794406 0 330.0 -0.1273631843794406 1
gene  1 1 19 0.6024293719245316 0 342.0 0.6024293719245316 1
gene  1 2 19 -0.4051773355265499 0 343.0 -0.4051773355265499 1
gene  1 4 19 -0.387207989298907 0 345.0 -0.387207989298907 1
gene  1 5 19 0.6879805688561683 0 346.0 0.6879805688561683 1
gene  1 6 19 -0.8224057478907078 0 347.0 -0.8224057478907078 1
gene  1 7 19 -0.9688559782271701 0 348.0 -0.9688559782271701 1
genomeend 32
genomestart  33
trait 1 0.0 0.0 0.0 0.0 0.0 0.0 0.0 0.0 
node 1 1 1 1
node 2 1 1 1
node 3 1 1 1
node 4 1 1 1
node 5 1 1 1
node 6 1 1 1
node 7 1 1 1
node 8 1 1 3
node 18 1 0 2
node 19 1 0 2
gene  1 1 18 -0.41408668719678743 0 323.0 -0.41408668719678743 1
gene  1 3 18 0.8007834214577304 0 325.0 0.8007834214577304 1
gene  1 6 18 0.2119857810605854 0 328.0 0.2119857810605854 1
gene  1 7 18 0.245545260906039 0 329.0 0.245545260906039 1
gene  1 8 18 0.1285749328893666 0 330.0 0.1285749328893666 1
gene  1 2 19 -0.0369479690119322 0 343.0 -0.0369479690119322 1
gene  1 4 19 0.10332234927513329 0 345.0 0.10332234927513329 1
gene  1 5 19 0.680443691019398 0 346.0 0.680443691019398 1
gene  1 18 19 -0.8647433661987348 0 359.0 -0.8647433661987348 1
genomeend 33
genomestart  34
trait 1 0.0 0.0 0.0 0.0 0.0 0.0 0.0 0.0 
node 1 1 1 1
node 2 1 1 1
node 3 1 1 1
node 4 1 1 1
node 5 1 1 1
node 6 1 1 1
node 7 1 1 1
node 8 1 1 3
node 18 1 0 2
node 19 1 0 2
gene  1 2 18 -0.0747336104104015 0 324.0 -0.0747336104104015 1
gene  1 4 18 -0.6672615747739877 0 326.0 -0.6672615747739877 1
gene  1 6 18 -0.5190786840063595 0 328.0 -0.5190786840063595 1
gene  1 7 18 0.05863717253933087 0 329.0 0.05863717253933087 1
gene  1 8 18 0.3047832323626072 0 330.0 0.3047832323626072 1
gene  1 1 19 0.4349728422851633 0 342.0 0.4349728422851633 1
gene  1 3 19 0.9648259293221253 0 344.0 0.9648259293221253 1
gene  1 4 19 -0.33993715217653253 0 345.0 -0.33993715217653253 1
gene  1 5 19 -0.2051933909724878 0 346.0 -0.2051933909724878 1
gene  1 7 19 -0.05492448125758498 0 348.0 -0.05492448125758498 1
genomeend 34
genomestart  35
trait 1 0.0 0.0 0.0 0.0 0.0 0.0 0.0 0.0 
node 1 1 1 1
node 2 1 1 1
node 3 1 1 1
node 4 1 1 1
node 5 1 1 1
node 6 1 1 1
node 7 1 1 1
node 8 1 1 3
node 18 1 0 2
node 19 1 0 2
gene  1 1 18 0.04957080488240684 0 323.0 0.04957080488240684 1
gene  1 2 18 -0.6053217022434205 0 324.0 -0.6053217022434205 1
gene  1 4 18 -0.8644569897807011 0 326.0 -0.8644569897807011 1
gene  1 3 19 -0.2759947873360118 0 344.0 -0.2759947873360118 1
gene  1 4 19 0.3736359400353335 0 345.0 0.3736359400353335 1
gene  1 5 19 0.9755128587612946 0 346.0 0.9755128587612946 1
gene  1 6 19 -0.3004107050238246 0 347.0 -0.3004107050238246 1
gene  1 7 19 0.4063102740272404 0 348.0 0.4063102740272404 1
gene  1 8 19 0.8729509623494799 0 349.0 0.8729509623494799 1
genomeend 35
genomestart  36
trait 1 0.0 0.0 0.0 0.0 0.0 0.0 0.0 0.0 
node 1 1 1 1
node 2 1 1 1
node 3 1 1 1
node 4 1 1 1
node 5 1 1 1
node 6 1 1 1
node 7 1 1 1
node 8 1 1 3
node 18 1 0 2
node 19 1 0 2
gene  1 1 18 0.9802165458365398 0 323.0 0.9802165458365398 1
gene  1 2 18 -0.26562633816297065 0 324.0 -0.26562633816297065 1
gene  1 3 18 0.32982107204427247 0 325.0 0.32982107204427247 1
gene  1 4 18 -0.7198504441847617 0 326.0 -0.7198504441847617 1
gene  1 5 18 -0.9651836879658161 0 327.0 -0.9651836879658161 1
gene  1 8 18 -0.7425683688527704 0 330.0 -0.7425683688527704 1
gene  1 3 19 -0.1827061625080787 0 344.0 -0.1827061625080787 1
gene  1 4 19 -0.9565220968726983 0 345.0 -0.9565220968726983 1
gene  1 6 19 -0.2937141252972728 0 347.0 -0.2937141252972728 1
gene  1 7 19 0.24910109902808575 0 348.0 0.24910109902808575 1
genomeend 36
genomestart  37
trait 1 0.0 0.0 0.0 0.0 0.0 0.0 0.0 0.0 
node 1 1 1 1
node 2 1 1 1
node 3 1 1 1
node 4 1 1 1
node 5 1 1 1
node 6 1 1 1
node 7 1 1 1
node 8 1 1 3
node 18 1 0 2
node 19 1 0 2
gene  1 2 18 0.511096387692832 0 324.0 0.511096387692832 1
gene  1 3 18 0.9504692364852945 0 325.0 0.9504692364852945 1
gene  1 5 18 -0.04121514948699456 0 327.0 -0.04121514948699456 1
gene  1 6 18 -0.4617110456132003 0 328.0 -0.4617110456132003 1
gene  1 1 19 0.8335120572973835 0 342.0 0.8335120572973835 1
gene  1 2 19 0.3563434865297235 0 343.0 0.3563434865297235 1
gene  1 4 19 0.4469954349936942 0 345.0 0.4469954349936942 1
gene  1 5 19 -0.014352335747343736 0 346.0 -0.014352335747343736 1
gene  1 6 19 0.6799504413021149 0 347.0 0.6799504413021149 1
gene  1 7 19 0.7894021895331527 0 348.0 0.7894021895331527 1
gene  1 8 19 0.32156688724400107 0 349.0 0.32156688724400107 1
gene  1 18 19 -0.58111545243795 0 359.0 -0.58111545243795 1
genomeend 37
genomestart  38
trait 1 0.0 0.0 0.0 0.0 0.0 0.0 0.0 0.0 
node 1 1 1 1
node 2 1 1 1
node 3 1 1 1
node 4 1 1 1
node 5 1 1 1
node 6 1 1 1
node 7 1 1 1
node 8 1 1 3
node 18 1 0 2
node 19 1 0 2
gene  1 2 18 -0.5009586454844965 0 324.0 -0.5009586454844965 1
gene  1 4 18 0.3788334580554501 0 326.0 0.3788334580554501 1
gene  1 5 18 0.6989896287706591 0 327.0 0.6989896287706591 1
gene  1 6 18 -0.32955387322861784 0 328.0 -0.32955387322861784 1
gene  1 1 19 0.46038610762145504 0 342.0 0.46038610762145504 1
gene  1 3 19 -0.3793198842401361 0 344.0 -0.3793198842401361 1
gene  1 4 19 0.4914420535437982 0 345.0 0.4914420535437982 1
gene  1 7 19 -0.941608059603386 0 348.0 -0.941608059603386 1
gene  1 8 19 0.9460857705257877 0 349.0 0.9460857705257877 1
genomeend 38
genomestart  39
trait 1 0.0 0.0 0.0 0.0 0.0 0.0 0.0 0.0 
node 1 1 1 1
node 2 1 1 1
node 3 1 1 1
node 4 1 1 1
node 5 1 1 1
node 6 1 1 1
node 7 1 1 1
node 8 1 1 3
node 18 1 0 2
node 19 1 0 2
gene  1 1 18 -0.16900323384238303 0 323.0 -0.16900323384238303 1
gene  1 4 18 0.28084798370886344 0 326.0 0.28084798370886344 1
gene  1 5 18 0.6044117927782606 0 327.0 0.6044117927782606 1
gene  1 6 18 0.2284237208227291 0 328.0 0.2284237208227291 1
gene  1 1 19 0.44916132056881697 0 342.0 0.44916132056881697 1
gene  1 2 19 -0.0318788133323481 0 343.0 -0.0318788133323481 1
gene  1 3 19 -0.7614644200461713 0 344.0 -0.7614644200461713 1
gene  1 4 19 -0.35880571764332914 0 345.0 -0.35880571764332914 1
gene  1 5 19 -0.03373005538810059 0 346.0 -0.03373005538810059 1
gene  1 6 19 0.8681261999096715 0 347.0 0.8681261999096715 1
gene  1 7 19 -0.5559077772754493 0 348.0 -0.5559077772754493 1
gene  1 8 19 -0.8959284012709741 0 349.0 -0.8959284012709741 1
gene  1 18 19 -0.5403607740715098 0 359.0 -0.5403607740715098 1
genomeend 39
genomestart  40
trait 1 0.0 0.0 0.0 0.0 0.0 0.0 0.0 0.0 
node 1 1 1 1
node 2 1 1 1
node 3 1 1 1
node 4 1 1 1
node 5 1 1 1
node 6 1 1 1
node 7 1 1 1
node 8 1 1 3
node 18 1 0 2
node 19 1 0 2
gene  1 1 18 -0.5556951566889452 0 323.0 -0.5556951566889452 1
gene  1 2 18 0.6693725020922329 0 324.0 0.6693725020922329 1
gene  1 3 18 -0.1083924118157562 0 325.0 -0.1083924118157562 1
gene  1 4 18 -0.3095392975180653 0 326.0 -0.3095392975180653 1
gene  1 5 18 -0.8135323447138573 0 327.0 -0.8135323447138573 1
gene  1 6 18 0.43632493566362873 0 328.0 0.43632493566362873 1
gene  1 7 18 -0.09418178835278934 0 329.0 -0.09418178835278934 1
gene  1 8 18 0.686358359896075 0 330.0 0.686358359896075 1
gene  1 1 19 0.7463662219587254 0 342.0 0.7463662219587254 1
gene  1 2 19 0.964060658040618 0 343.0 0.964060658040618 1
gene  1 6 19 -0.3711756861529081 0 347.0 -0.3711756861529081 1
gene  1 7 19 -0.06320553222391323 0 348.0 -0.06320553222391323 1
gene  1 8 19 -0.9172699544707895 0 349.0 -0.9172699544707895 1
genomeend 40
genomestart  41
trait 1 0.0 0.0 0.0 0.0 0.0 0.0 0.0 0.0 
node 1 1 1 1
node 2 1 1 1
node 3 1 1 1
node 4 1 1 1
node 5 1 1 1
node 6 1 1 1
node 7 1 1 1
node 8 1 1 3
node 18 1 0 2
node 19 1 0 2
gene  1 3 18 -0.5721201390065779 0 325.0 -0.5721201390065779 1
gene  1 4 18 0.756962950648308 0 326.0 0.756962950648308 1
gene  1 6 18 -0.3126149088992629 0 328.0 -0.3126149088992629 1
gene  1 7 18 0.3687756184109504 0 329.0 0.3687756184109504 1
gene  1 8 18 0.6926018939676949 0 330.0 0.6926018939676949 1
gene  1 1 19 -0.04396404836700718 0 342.0 -0.04396404836700718 1
gene  1 2 19 0.6690051750775681 0 343.0 0.6690051750775681 1
gene  1 5 19 -0.33342986036422084 0 346.0 -0.33342986036422084 1
gene  1 7 19 -0.7002241410256856 0 348.0 -0.7002241410256856 1
gene  1 18 19 -0.24828561070250565 0 359.0 -0.24828561070250565 1
genomeend 41
genomestart  42
trait 1 0.0 0.0 0.0 0.0 0.0 0.0 0.0 0.0 
node 1 1 1 1
node 2 1 1 1
node 3 1 1 1
node 4 1 1 1
node 5 1 1 1
node 6 1 1 1
node 7 1 1 1
node 8 1 1 3
node 18 1 0 2
node 19 1 0 2
gene  1 2 18 -0.49416686327430226 0 324.0 -0.49416686327430226 1
gene  1 4 18 0.626107829549436 0 326.0 0.626107829549436 1
gene  1 5 18 -0.9891281416801208 0 327.0 -0.9891281416801208 1
gene  1 1 19 -0.33602139479618387 0 342.0 -0.33602139479618387 1
gene  1 2 19 -0.5718439458952465 0 343.0 -0.5718439458952465 1
gene  1 3 19 0.5475782940670437 0 344.0 0.5475782940670437 1
gene  1 4 19 0.020566603475352885 0 345.0 0.020566603475352885 1
gene  1 5 19 0.7204436250674582 0 346.0 0.7204436250674582 1
gene  1 6 19 -0.5365045817781718 0 347.0 -0.5365045817781718 1
gene  1 7 19 -0.4087169249721604 0 348.0 -0.4087169249721604 1
gene  1 8 19 0.6526637153049428 0 349.0 0.6526637153049428 1
gene  1 18 19 0.4311134389356853 0 359.0 0.4311134389356853 1
genomeend 42
genomestart  43
trait 1 0.0 0.0 0.0 0.0 0.0 0.0 0.0 0.0 
node 1 1 1 1
node 2 1 1 1
node 3 1 1 1
node 4 1 1 1
node 5 1 1 1
node 6 1 1 1
node 7 1 1 1
node 8 1 1 3
node 18 1 0 2
node 19 1 0 2
gene  1 1 18 0.331020659895521 0 323.0 0.331020659895521 1
gene  1 2 18 0.5122145667343971 0 324.0 0.5122145667343971 1
gene  1 3 18 0.38308395197118905 0 325.0 0.38308395197118905 1
gene  1 4 18 0.8240860822944872 0 326.0 0.8240860822944872 1
gene  1 5 18 0.36863904023764116 0 327.0 0.36863904023764116 1
gene  1 6 18 0.9634891724391436 0 328.0 0.9634891724391436 1
gene  1 7 18 0.7523186274101538 0 329.0 0.7523186274101538 1
gene  1 8 18 -0.561141611863493 0 330.0 -0.561141611863493 1
gene  1 1 19 0.1213249121897727 0 342.0 0.1213249121897727 1
gene  1 4 19 -0.04937180235308536 0 345.0 -0.04937180235308536 1
gene  1 6 19 -0.17681181686417458 0 347.0 -0.17681181686417458 1
gene  1 7 19 -0.47957961009879546 0 348.0 -0.47957961009879546 1
gene  1 8 19 -0.7841583393448132 0 349.0 -0.7841583393448132 1
gene  1 18 19 -0.08311470363060136 0 359.0 -0.08311470363060136 1
genomeend 43
genomestart  44
trait 1 0.0 0.0 0.0 0.0 0.0 0.0 0.0 0.0 
node 1 1 1 1
node 2 1 1 1
node 3 1 1 1
node 4 1 1 1
node 5 1 1 1
node 6 1 1 1
node 7 1 1 1
node 8 1 1 3
node 18 1 0 2
node 19 1 0 2
gene  1 1 18 -0.27634353058021954 0 323.0 -0.27634353058021954 1
gene  1 2 18 -0.7445018243075046 0 324.0 -0.7445018243075046 1
gene  1 4 18 -0.5226456145101132 0 326.0 -0.5226456145101132 1
gene  1 5 18 0.3639603778611886 0 327.0 0.3639603778611886 1
gene  1 8 18 -0.7889006181213619 0 330.0 -0.7889006181213619 1
gene  1 1 19 0.9788798422285486 0 342.0 0.9788798422285486 1
gene  1 2 19 -0.34621303050178087 0 343.0 -0.34621303050178087 1
gene  1 3 19 0.43885715365900846 0 344.0 0.43885715365900846 1
gene  1 4 19 -0.04908158613040792 0 345.0 -0.04908158613040792 1
gene  1 6 19 0.08174550667430103 0 347.0 0.08174550667430103 1
gene  1 7 19 0.7207611026732237 0 348.0 0.7207611026732237 1
gene  1 8 19 0.2330238181851061 0 349.0 0.2330238181851061 1
genomeend 44
genomestart  45
trait 1 0.0 0.0 0.0 0.0 0.0 0.0 0.0 0.0 
node 1 1 1 1
node 2 1 1 1
node 3 1 1 1
node 4 1 1 1
node 5 1 1 1
node 6 1 1 1
node 7 1 1 1
node 8 1 1 3
node 18 1 0 2
node 19 1 0 2
gene  1 1 18 0.10654175371588337 0 323.0 0.10654175371588337 1
gene  1 2 18 -0.8656049758187441 0 324.0 -0.8656049758187441 1
gene  1 3 18 0.13303728433774686 0 325.0 0.13303728433774686 1
gene  1 7 18 0.41935917437720727 0 329.0 0.41935917437720727 1
gene  1 8 18 -0.7181699987492625 0 330.0 -0.7181699987492625 1
gene  1 1 19 -0.666899767475738 0 342.0 -0.666899767475738 1
gene  1 4 19 0.5656237810268794 0 345.0 0.5656237810268794 1
gene  1 5 19 -0.4686197548380766 0 346.0 -0.4686197548380766 1
gene  1 6 19 -0.9995657971443376 0 347.0 -0.9995657971443376 1
gene  1 7 19 0.5072115581700433 0 348.0 0.5072115581700433 1
gene  1 8 19 -0.6549291803712042 0 349.0 -0.6549291803712042 1
genomeend 45
genomestart  46
trait 1 0.0 0.0 0.0 0.0 0.0 0.0 0.0 0.0 
node 1 1 1 1
node 2 1 1 1
node 3 1 1 1
node 4 1 1 1
node 5 1 1 1
node 6 1 1 1
node 7 1 1 1
node 8 1 1 3
node 18 1 0 2
node 19 1 0 2
gene  1 1 18 -0.7551096357952031 0 323.0 -0.7551096357952031 1
gene  1 2 18 -0.4518163022452668 0 324.0 -0.4518163022452668 1
gene  1 3 18 -0.727264781371651 0 325.0 -0.727264781371651 1
gene  1 4 18 0.4328704122805759 0 326.0 0.4328704122805759 1
gene  1 6 18 -0.3956558121073458 0 328.0 -0.3956558121073458 1
gene  1 7 18 -0.5968167501365349 0 329.0 -0.5968167501365349 1
gene  1 8 18 0.16772487970440275 0 330.0 0.16772487970440275 1
gene  1 1 19 -0.513000657745952 0 342.0 -0.513000657745952 1
gene  1 4 19 -0.21830900299234224 0 345.0 -0.21830900299234224 1
gene  1 5 19 0.5881547607804511 0 346.0 0.5881547607804511 1
genomeend 46
genomestart  47
trait 1 0.0 0.0 0.0 0.0 0.0 0.0 0.0 0.0 
node 1 1 1 1
node 2 1 1 1
node 3 1 1 1
node 4 1 1 1
node 5 1 1 1
node 6 1 1 1
node 7 1 1 1
node 8 1 1 3
node 18 1 0 2
node 19 1 0 2
gene  1 1 18 0.9536998910117078 0 323.0 0.9536998910117078 1
gene  1 2 18 -0.03196157018421031 0 324.0 -0.03196157018421031 1
gene  1 4 18 0.07393477176730068 0 326.0 0.07393477176730068 1
gene  1 6 18 0.5418502183219237 0 328.0 0.5418502183219237 1
gene  1 7 18 0.7929849703236369 0 329.0 0.7929849703236369 1
gene  1 8 18 0.030065763345036634 0 330.0 0.030065763345036634 1
gene  1 2 19 0.8850473608321434 0 343.0 0.8850473608321434 1
gene  1 3 19 -0.9161441430494589 0 344.0 -0.9161441430494589 1
gene  1 4 19 0.8720635749880209 0 345.0 0.8720635749880209 1
gene  1 5 19 0.47584902765792936 0 346.0 0.47584902765792936 1
gene  1 7 19 0.3234659342685007 0 348.0 0.3234659342685007 1
gene  1 8 19 0.09768578799888805 0 349.0 0.09768578799888805 1
genomeend 47
genomestart  48
trait 1 0.0 0.0 0.0 0.0 0.0 0.0 0.0 0.0 
node 1 1 1 1
node 2 1 1 1
node 3 1 1 1
node 4 1 1 1
node 5 1 1 1
node 6 1 1 1
node 7 1 1 1
node 8 1 1 3
node 18 1 0 2
node 19 1 0 2
gene  1 2 18 -0.7497727734067763 0 324.0 -0.7497727734067763 1
gene  1 3 18 -0.7739042870718008 0 325.0 -0.7739042870718008 1
gene  1 5 18 -0.4252896399643039 0 327.0 -0.4252896399643039 1
gene  1 6 18 -0.506340648636486 0 328.0 -0.506340648636486 1
gene  1 7 18 0.25043355326442085 0 329.0 0.25043355326442085 1
gene  1 8 18 0.4342041379722422 0 330.0 0.4342041379722422 1
gene  1 1 19 -0.6699973710159363 0 342.0 -0.6699973710159363 1
gene  1 2 19 -0.3741283301681171 0 343.0 -0.3741283301681171 1
gene  1 3 19 -0.7861955136474006 0 344.0 -0.7861955136474006 1
gene  1 4 19 0.21278318881857106 0 345.0 0.21278318881857106 1
gene  1 5 19 -0.04245641174593695 0 346.0 -0.04245641174593695 1
gene  1 7 19 -0.1593084909466871 0 348.0 -0.1593084909466871 1
gene  1 8 19 0.7677902564286496 0 349.0 0.7677902564286496 1
genomeend 48
genomestart  49
trait 1 0.0 0.0 0.0 0.0 0.0 0.0 0.0 0.0 
node 1 1 1 1
node 2 1 1 1
node 3 1 1 1
node 4 1 1 1
node 5 1 1 1
node 6 1 1 1
node 7 1 1 1
node 8 1 1 3
node 18 1 0 2
node 19 1 0 2
gene  1 4 18 -0.9637673476018351 0 326.0 -0.9637673476018351 1
gene  1 5 18 -0.5840915497304614 0 327.0 -0.5840915497304614 1
gene  1 6 18 0.8900368360086195 0 328.0 0.8900368360086195 1
gene  1 8 18 0.14735929102848666 0 330.0 0.14735929102848666 1
gene  1 1 19 0.6762372131775508 0 342.0 0.6762372131775508 1
gene  1 2 19 0.03260805203006034 0 343.0 0.03260805203006034 1
gene  1 3 19 -0.08842832965427683 0 344.0 -0.08842832965427683 1
gene  1 5 19 0.5081653976287498 0 346.0 0.5081653976287498 1
gene  1 6 19 -0.012280050263376419 0 347.0 -0.012280050263376419 1
gene  1 7 19 0.6042801985257512 0 348.0 0.6042801985257512 1
gene  1 8 19 0.6952805379177058 0 349.0 0.6952805379177058 1
gene  1 18 19 -0.00705996732318992 0 359.0 -0.00705996732318992 1
genomeend 49
genomestart  50
trait 1 0.0 0.0 0.0 0.0 0.0 0.0 0.0 0.0 
node 1 1 1 1
node 2 1 1 1
node 3 1 1 1
node 4 1 1 1
node 5 1 1 1
node 6 1 1 1
node 7 1 1 1
node 8 1 1 3
node 18 1 0 2
node 19 1 0 2
gene  1 1 18 0.6510068235990628 0 323.0 0.6510068235990628 1
gene  1 2 18 -0.5061630783689349 0 324.0 -0.5061630783689349 1
gene  1 3 18 0.6533810215454801 0 325.0 0.6533810215454801 1
gene  1 4 18 -0.3177206031514642 0 326.0 -0.3177206031514642 1
gene  1 5 18 0.35683029425995505 0 327.0 0.35683029425995505 1
gene  1 6 18 0.3991271836139395 0 328.0 0.3991271836139395 1
gene  1 1 19 0.7404133466578782 0 342.0 0.7404133466578782 1
gene  1 2 19 -0.41060921405797446 0 343.0 -0.41060921405797446 1
gene  1 3 19 0.10458761005109707 0 344.0 0.10458761005109707 1
gene  1 4 19 -0.012261406126821361 0 345.0 -0.012261406126821361 1
gene  1 6 19 0.17646474890729003 0 347.0 0.17646474890729003 1
gene  1 7 19 -0.9258798934107971 0 348.0 -0.9258798934107971 1
gene  1 8 19 0.7140386610839567 0 349.0 0.7140386610839567 1
gene  1 18 19 0.6232682815220665 0 359.0 0.6232682815220665 1
genomeend 50
genomestart  51
trait 1 0.0 0.0 0.0 0.0 0.0 0.0 0.0 0.0 
node 1 1 1 1
node 2 1 1 1
node 3 1 1 1
node 4 1 1 1
node 5 1 1 1
node 6 1 1 1
node 7 1 1 1
node 8 1 1 3
node 18 1 0 2
node 19 1 0 2
gene  1 1 18 -0.7222346560178206 0 323.0 -0.7222346560178206 1
gene  1 3 18 -0.514829604443562 0 325.0 -0.514829604443562 1
gene  1 4 18 -0.1724484770565199 0 326.0 -0.1724484770565199 1
gene  1 6 18 -0.21259097449579722 0 328.0 -0.21259097449579722 1
gene  1 8 18 -0.39192968607247947 0 330.0 -0.39192968607247947 1
gene  1 2 19 -0.6818811265166289 0 343.0 -0.6818811265166289 1
gene  1 3 19 -0.12958282823936806 0 344.0 -0.12958282823936806 1
gene  1 4 19 -0.1410777375897183 0 345.0 -0.1410777375897183 1
gene  1 5 19 0.39752964407140046 0 346.0 0.39752964407140046 1
gene  1 7 19 0.2965359489027133 0 348.0 0.2965359489027133 1
gene  1 8 19 0.30840196141541576 0 349.0 0.30840196141541576 1
gene  1 18 19 0.6237321128313648 0 359.0 0.6237321128313648 1
genomeend 51
genomestart  52
trait 1 0.0 0.0 0.0 0.0 0.0 0.0 0.0 0.0 
node 1 1 1 1
node 2 1 1 1
node 3 1 1 1
node 4 1 1 1
node 5 1 1 1
node 6 1 1 1
node 7 1 1 1
node 8 1 1 3
node 18 1 0 2
node 19 1 0 2
gene  1 5 18 -0.6714691408731981 0 327.0 -0.6714691408731981 1
gene  1 6 18 -0.0992022654387299 0 328.0 -0.0992022654387299 1
gene  1 7 18 -0.5314835557997111 0 329.0 -0.5314835557997111 1
gene  1 1 19 -0.4406199222840781 0 342.0 -0.4406199222840781 1
gene  1 2 19 0.41623316387291887 0 343.0 0.41623316387291887 1
gene  1 3 19 -0.12017291925860096 0 344.0 -0.12017291925860096 1
gene  1 4 19 -0.9732969432488771 0 345.0 -0.9732969432488771 1
gene  1 5 19 0.17382949042226914 0 346.0 0.17382949042226914 1
gene  1 6 19 0.2952376610367643 0 347.0 0.2952376610367643 1
gene  1 8 19 -0.4622025341163394 0 349.0 -0.4622025341163394 1
genomeend 52
genomestart  53
trait 1 0.0 0.0 0.0 0.0 0.0 0.0 0.0 0.0 
node 1 1 1 1
node 2 1 1 1
node 3 1 1 1
node 4 1 1 1
node 5 1 1 1
node 6 1 1 1
node 7 1 1 1
node 8 1 1 3
node 18 1 0 2
node 19 1 0 2
gene  1 1 18 0.6944340909945995 0 323.0 0.6944340909945995 1
gene  1 2 18 0.35904215620829305 0 324.0 0.35904215620829305 1
gene  1 3 18 0.2054976545621242 0 325.0 0.2054976545621242 1
gene  1 4 18 0.34932572736875844 0 326.0 0.34932572736875844 1
gene  1 5 18 -0.6338934623703515 0 327.0 -0.6338934623703515 1
gene  1 7 18 -0.9561977087139618 0 329.0 -0.9561977087139618 1
gene  1 8 18 -0.7837273846735227 0 330.0 -0.7837273846735227 1
gene  1 4 19 -0.12227830125353101 0 345.0 -0.12227830125353101 1
gene  1 5 19 -0.4123530330259265 0 346.0 -0.4123530330259265 1
gene  1 6 19 -0.9318885293901457 0 347.0 -0.9318885293901457 1
gene  1 7 19 -0.8119701242827937 0 348.0 -0.8119701242827937 1
genomeend 53
genomestart  54
trait 1 0.0 0.0 0.0 0.0 0.0 0.0 0.0 0.0 
node 1 1 1 1
node 2 1 1 1
node 3 1 1 1
node 4 1 1 1
node 5 1 1 1
node 6 1 1 1
node 7 1 1 1
node 8 1 1 3
node 18 1 0 2
node 19 1 0 2
gene  1 1 18 0.7784451123308611 0 323.0 0.7784451123308611 1
gene  1 2 18 0.9235620192619997 0 324.0 0.9235620192619997 1
gene  1 3 18 0.4852502130604305 0 325.0 0.4852502130604305 1
gene  1 5 18 -0.9169355481174045 0 327.0 -0.9169355481174045 1
gene  1 6 18 0.6637898882072433 0 328.0 0.6637898882072433 1
gene  1 7 18 -0.3965517351907245 0 329.0 -0.3965517351907245 1
gene  1 8 18 0.9848027398621383 0 330.0 0.9848027398621383 1
gene  1 1 19 -0.6201013625273065 0 342.0 -0.6201013625273065 1
gene  1 2 19 -0.9616975394486454 0 343.0 -0.9616975394486454 1
gene  1 3 19 -0.8559301367481089 0 344.0 -0.8559301367481089 1
gene  1 4 19 -0.11039887574118656 0 345.0 -0.11039887574118656 1
gene  1 5 19 -0.7808724256350306 0 346.0 -0.7808724256350306 1
gene  1 6 19 -0.5112874131750746 0 347.0 -0.5112874131750746 1
gene  1 8 19 -0.6552468608102567 0 349.0 -0.6552468608102567 1
gene  1 18 19 -0.3917077261135252 0 359.0 -0.3917077261135252 1
genomeend 54
genomestart  55
trait 1 0.0 0.0 0.0 0.0 0.0 0.0 0.0 0.0 
node 1 1 1 1
node 2 1 1 1
node 3 1 1 1
node 4 1 1 1
node 5 1 1 1
node 6 1 1 1
node 7 1 1 1
node 8 1 1 3
node 18 1 0 2
node 19 1 0 2
gene  1 4 18 -0.585707789286118 0 326.0 -0.585707789286118 1
gene  1 8 18 -0.2234885121934207 0 330.0 -0.2234885121934207 1
gene  1 1 19 -0.07184179040112326 0 342.0 -0.07184179040112326 1
gene  1 2 19 -0.010757641540236618 0 343.0 -0.010757641540236618 1
gene  1 3 19 -0.14711807282979472 0 344.0 -0.14711807282979472 1
gene  1 5 19 0.5826751176512995 0 346.0 0.5826751176512995 1
gene  1 6 19 0.1526895832506886 0 347.0 0.1526895832506886 1
gene  1 7 19 -0.13687874264957067 0 348.0 -0.13687874264957067 1
gene  1 8 19 0.5585727914997134 0 349.0 0.5585727914997134 1
gene  1 18 19 -0.005908894712062129 0 359.0 -0.005908894712062129 1
genomeend 55
genomestart  56
trait 1 0.0 0.0 0.0 0.0 0.0 0.0 0.0 0.0 
node 1 1 1 1
node 2 1 1 1
node 3 1 1 1
node 4 1 1 1
node 5 1 1 1
node 6 1 1 1
node 7 1 1 1
node 8 1 1 3
node 18 1 0 2
node 19 1 0 2
gene  1 1 18 0.5979902937547342 0 323.0 0.5979902937547342 1
gene  1 2 18 -0.491159950124758 0 324.0 -0.491159950124758 1
gene  1 4 18 -0.24255775110123434 0 326.0 -0.24255775110123434 1
gene  1 5 18 0.4212947652072362 0 327.0 0.4212947652072362 1
gene  1 6 18 -0.27409654866772026 0 328.0 -0.27409654866772026 1
gene  1 8 18 0.5118894976366555 0 330.0 0.5118894976366555 1
gene  1 2 19 0.12937753077341896 0 343.0 0.12937753077341896 1
gene  1 3 19 0.3826450346638345 0 344.0 0.3826450346638345 1
gene  1 5 19 0.3545107472025958 0 346.0 0.3545107472025958 1
gene  1 6 19 0.936896115371542 0 347.0 0.936896115371542 1
gene  1 7 19 -0.59548077585772 0 348.0 -0.59548077585772 1
gene  1 18 19 0.2410632134636881 0 359.0 0.2410632134636881 1
genomeend 56
genomestart  57
trait 1 0.0 0.0 0.0 0.0 0.0 0.0 0.0 0.0 
node 1 1 1 1
node 2 1 1 1
node 3 1 1 1
node 4 1 1 1
node 5 1 1 1
node 6 1 1 1
node 7 1 1 1
node 8 1 1 3
node 18 1 0 2
node 19 1 0 2
gene  1 1 18 0.6344964201885223 0 323.0 0.6344964201885223 1
gene  1 2 18 0.6535729930425244 0 324.0 0.6535729930425244 1
gene  1 3 18 0.8191646887880709 0 325.0 0.8191646887880709 1
gene  1 5 18 0.27617207326190507 0 327.0 0.27617207326190507 1
gene  1 6 18 -0.2729115759129024 0 328.0 -0.2729115759129024 1
gene  1 8 18 -0.9172280638219387 0 330.0 -0.9172280638219387 1
gene  1 1 19 -0.22410836858877092 0 342.0 -0.22410836858877092 1
gene  1 2 19 0.4525610422550329 0 343.0 0.4525610422550329 1
gene  1 3 19 0.5445525724521718 0 344.0 0.5445525724521718 1
gene  1 4 19 -0.2143176766999434 0 345.0 -0.2143176766999434 1
gene  1 5 19 0.8660140369385508 0 346.0 0.8660140369385508 1
gene  1 6 19 -0.4830147181033875 0 347.0 -0.4830147181033875 1
gene  1 7 19 0.04120915038874107 0 348.0 0.04120915038874107 1
gene  1 18 19 0.725791738100295 0 359.0 0.725791738100295 1
genomeend 57
genomestart  58
trait 1 0.0 0.0 0.0 0.0 0.0 0.0 0.0 0.0 
node 1 1 1 1
node 2 1 1 1
node 3 1 1 1
node 4 1 1 1
node 5 1 1 1
node 6 1 1 1
node 7 1 1 1
node 8 1 1 3
node 18 1 0 2
node 19 1 0 2
gene  1 1 18 0.8090113274299627 0 323.0 0.8090113274299627 1
gene  1 2 18 -0.5824796300004618 0 324.0 -0.5824796300004618 1
gene  1 3 18 0.6525379828381633 0 325.0 0.6525379828381633 1
gene  1 6 18 0.6653648462638572 0 328.0 0.6653648462638572 1
gene  1 7 18 -0.8756938918622156 0 329.0 -0.8756938918622156 1
gene  1 8 18 0.09526702154095701 0 330.0 0.09526702154095701 1
gene  1 4 19 0.2701300382028484 0 345.0 0.2701300382028484 1
gene  1 5 19 -0.4591761815352049 0 346.0 -0.4591761815352049 1
gene  1 7 19 -0.5769822164714647 0 348.0 -0.5769822164714647 1
gene  1 8 19 -0.0958286862993718 0 349.0 -0.0958286862993718 1
gene  1 18 19 -0.9184908101194263 0 359.0 -0.9184908101194263 1
genomeend 58
genomestart  59
trait 1 0.0 0.0 0.0 0.0 0.0 0.0 0.0 0.0 
node 1 1 1 1
node 2 1 1 1
node 3 1 1 1
node 4 1 1 1
node 5 1 1 1
node 6 1 1 1
node 7 1 1 1
node 8 1 1 3
node 18 1 0 2
node 19 1 0 2
gene  1 1 18 -0.10151701433958538 0 323.0 -0.10151701433958538 1
gene  1 2 18 0.11348249039175318 0 324.0 0.11348249039175318 1
gene  1 3 18 0.39930616780610184 0 325.0 0.39930616780610184 1
gene  1 7 18 -0.47096415071239495 0 329.0 -0.47096415071239495 1
gene  1 8 18 0.7895777902064245 0 330.0 0.7895777902064245 1
gene  1 1 19 -0.09769938694202118 0 342.0 -0.09769938694202118 1
gene  1 2 19 -0.9549039295154714 0 343.0 -0.9549039295154714 1
gene  1 4 19 -0.6100478719416094 0 345.0 -0.6100478719416094 1
gene  1 5 19 0.3493173438480125 0 346.0 0.3493173438480125 1
gene  1 6 19 -0.43616726351174173 0 347.0 -0.43616726351174173 1
gene  1 8 19 -0.6304478911965539 0 349.0 -0.6304478911965539 1
gene  1 18 19 -0.3551685660806323 0 359.0 -0.3551685660806323 1
genomeend 59
genomestart  60
trait 1 0.0 0.0 0.0 0.0 0.0 0.0 0.0 0.0 
node 1 1 1 1
node 2 1 1 1
node 3 1 1 1
node 4 1 1 1
node 5 1 1 1
node 6 1 1 1
node 7 1 1 1
node 8 1 1 3
node 18 1 0 2
node 19 1 0 2
gene  1 1 18 0.06892242971653373 0 323.0 0.06892242971653373 1
gene  1 2 18 -0.1574798663269007 0 324.0 -0.1574798663269007 1
gene  1 3 18 -0.7888430350308471 0 325.0 -0.7888430350308471 1
gene  1 4 18 -0.7348738968628232 0 326.0 -0.7348738968628232 1
gene  1 5 18 -0.49873711974112556 0 327.0 -0.49873711974112556 1
gene  1 6 18 -0.32415828675284286 0 328.0 -0.32415828675284286 1
gene  1 7 18 -0.6866428700649165 0 329.0 -0.6866428700649165 1
gene  1 8 18 -0.7644830905059397 0 330.0 -0.7644830905059397 1
gene  1 1 19 -0.18285141166643826 0 342.0 -0.18285141166643826 1
gene  1 2 19 -0.8112410039726512 0 343.0 -0.8112410039726512 1
gene  1 3 19 -0.9156385270079125 0 344.0 -0.9156385270079125 1
gene  1 5 19 -0.10026144562225459 0 346.0 -0.10026144562225459 1
gene  1 6 19 0.6249109019702874 0 347.0 0.6249109019702874 1
gene  1 7 19 0.13840196486760947 0 348.0 0.13840196486760947 1
gene  1 8 19 0.741066272468671 0 349.0 0.741066272468671 1
gene  1 18 19 0.6017490620882461 0 359.0 0.6017490620882461 1
genomeend 60
genomestart  61
trait 1 0.0 0.0 0.0 0.0 0.0 0.0 0.0 0.0 
node 1 1 1 1
node 2 1 1 1
node 3 1 1 1
node 4 1 1 1
node 5 1 1 1
node 6 1 1 1
node 7 1 1 1
node 8 1 1 3
node 18 1 0 2
node 19 1 0 2
gene  1 4 18 -0.13194635887179906 0 326.0 -0.13194635887179906 1
gene  1 5 18 -0.6391766566979842 0 327.0 -0.6391766566979842 1
gene  1 1 19 -0.08256739965999349 0 342.0 -0.08256739965999349 1
gene  1 2 19 0.5734320823959456 0 343.0 0.5734320823959456 1
gene  1 3 19 -0.9788895140439688 0 344.0 -0.9788895140439688 1
gene  1 5 19 -0.4705511041843313 0 346.0 -0.4705511041843313 1
gene  1 6 19 -0.10031268899161094 0 347.0 -0.10031268899161094 1
gene  1 7 19 0.5359329802521055 0 348.0 0.5359329802521055 1
gene  1 8 19 0.749970137528463 0 349.0 0.749970137528463 1
genomeend 61
genomestart  62
trait 1 0.0 0.0 0.0 0.0 0.0 0.0 0.0 0.0 
node 1 1 1 1
node 2 1 1 1
node 3 1 1 1
node 4 1 1 1
node 5 1 1 1
node 6 1 1 1
node 7 1 1 1
node 8 1 1 3
node 18 1 0 2
node 19 1 0 2
gene  1 4 18 0.11247564592457093 0 326.0 0.11247564592457093 1
gene  1 5 18 -0.7438025718652466 0 327.0 -0.7438025718652466 1
gene  1 6 18 0.4258963520621778 0 328.0 0.4258963520621778 1
gene  1 7 18 -0.5255456577747671 0 329.0 -0.5255456577747671 1
gene  1 8 18 -0.9519724604018333 0 330.0 -0.9519724604018333 1
gene  1 1 19 0.5787623231840513 0 342.0 0.5787623231840513 1
gene  1 2 19 -0.04441148628007374 0 343.0 -0.04441148628007374 1
gene  1 3 19 0.951329392588114 0 344.0 0.951329392588114 1
gene  1 4 19 0.05569908049567984 0 345.0 0.05569908049567984 1
gene  1 5 19 -0.9134563879188677 0 346.0 -0.9134563879188677 1
gene  1 8 19 -0.638011645535322 0 349.0 -0.638011645535322 1
gene  1 18 19 -0.3357563756557207 0 359.0 -0.3357563756557207 1
genomeend 62
genomestart  63
trait 1 0.0 0.0 0.0 0.0 0.0 0.0 0.0 0.0 
node 1 1 1 1
node 2 1 1 1
node 3 1 1 1
node 4 1 1 1
node 5 1 1 1
node 6 1 1 1
node 7 1 1 1
node 8 1 1 3
node 18 1 0 2
node 19 1 0 2
gene  1 1 18 -0.0018884404278083355 0 323.0 -0.0018884404278083355 1
gene  1 3 18 0.26721922431180556 0 325.0 0.26721922431180556 1
gene  1 4 18 0.20109695982596154 0 326.0 0.20109695982596154 1
gene  1 7 18 -0.5907468592964735 0 329.0 -0.5907468592964735 1
gene  1 2 19 0.6690601689061233 0 343.0 0.6690601689061233 1
gene  1 5 19 0.5845050309756799 0 346.0 0.5845050309756799 1
gene  1 6 19 0.6274054029784116 0 347.0 0.6274054029784116 1
gene  1 8 19 -0.9392190476539574 0 349.0 -0.9392190476539574 1
genomeend 63
genomestart  64
trait 1 0.0 0.0 0.0 0.0 0.0 0.0 0.0 0.0 
node 1 1 1 1
node 2 1 1 1
node 3 1 1 1
node 4 1 1 1
node 5 1 1 1
node 6 1 1 1
node 7 1 1 1
node 8 1 1 3
node 18 1 0 2
node 19 1 0 2
gene  1 3 18 -0.8834842206142761 0 325.0 -0.8834842206142761 1
gene  1 6 18 -0.08100424659961847 0 328.0 -0.08100424659961847 1
gene  1 7 18 0.3915660550518185 0 329.0 0.3915660550518185 1
gene  1 8 18 0.6269407105012937 0 330.0 0.6269407105012937 1
gene  1 1 19 0.40428539706279176 0 342.0 0.40428539706279176 1
gene  1 2 19 -0.8027567397069767 0 343.0 -0.8027567397069767 1
gene  1 4 19 0.8198600183391462 0 345.0 0.8198600183391462 1
gene  1 5 19 0.1920317859717724 0 346.0 0.1920317859717724 1
gene  1 6 19 0.39769666351938204 0 347.0 0.39769666351938204 1
gene  1 7 19 -0.2092448653656369 0 348.0 -0.2092448653656369 1
gene  1 18 19 0.058910530691741236 0 359.0 0.058910530691741236 1
genomeend 64
genomestart  65
trait 1 0.0 0.0 0.0 0.0 0.0 0.0 0.0 0.0 
node 1 1 1 1
node 2 1 1 1
node 3 1 1 1
node 4 1 1 1
node 5 1 1 1
node 6 1 1 1
node 7 1 1 1
node 8 1 1 3
node 18 1 0 2
node 19 1 0 2
gene  1 1 18 -0.8319853373006015 0 323.0 -0.8319853373006015 1
gene  1 2 18 0.7150005744831263 0 324.0 0.7150005744831263 1
gene  1 3 18 0.9414071025022522 0 325.0 0.9414071025022522 1
gene  1 4 18 -0.5962490790549474 0 326.0 -0.5962490790549474 1
gene  1 5 18 0.38269547558416506 0 327.0 0.38269547558416506 1
gene  1 8 18 0.8857473256306514 0 330.0 0.8857473256306514 1
gene  1 1 19 -0.5144523883739733 0 342.0 -0.5144523883739733 1
gene  1 2 19 -0.4791891700516776 0 343.0 -0.4791891700516776 1
gene  1 3 19 0.6259796002927164 0 344.0 0.6259796002927164 1
gene  1 4 19 -0.9658087898782954 0 345.0 -0.9658087898782954 1
gene  1 5 19 0.4723708646555035 0 346.0 0.4723708646555035 1
gene  1 6 19 -0.17431355687216044 0 347.0 -0.17431355687216044 1
gene  1 7 19 0.5555496990918566 0 348.0 0.5555496990918566 1
gene  1 8 19 -0.35752088749140354 0 349.0 -0.35752088749140354 1
gene  1 18 19 -0.8988100328373408 0 359.0 -0.8988100328373408 1
genomeend 65
genomestart  66
trait 1 0.0 0.0 0.0 0.0 0.0 0.0 0.0 0.0 
node 1 1 1 1
node 2 1 1 1
node 3 1 1 1
node 4 1 1 1
node 5 1 1 1
node 6 1 1 1
node 7 1 1 1
node 8 1 1 3
node 18 1 0 2
node 19 1 0 2
gene  1 1 18 0.9253859125569961 0 323.0 0.9253859125569961 1
gene  1 3 18 -0.3743168874629407 0 325.0 -0.3743168874629407 1
gene  1 4 18 -0.375553465006471 0 326.0 -0.375553465006471 1
gene  1 5 18 0.1265903999497655 0 327.0 0.1265903999497655 1
gene  1 6 18 0.15434458512609672 0 328.0 0.15434458512609672 1
gene  1 7 18 0.006185498634178499 0 329.0 0.006185498634178499 1
gene  1 8 18 0.3227380462309657 0 330.0 0.3227380462309657 1
gene  1 2 19 -0.7910353925802596 0 343.0 -0.7910353925802596 1
gene  1 7 19 0.10051018937347067 0 348.0 0.10051018937347067 1
gene  1 18 19 -0.5535411708711234 0 359.0 -0.5535411708711234 1
genomeend 66
genomestart  67
trait 1 0.0 0.0 0.0 0.0 0.0 0.0 0.0 0.0 
node 1 1 1 1
node 2 1 1 1
node 3 1 1 1
node 4 1 1 1
node 5 1 1 1
node 6 1 1 1
node 7 1 1 1
node 8 1 1 3
node 18 1 0 2
node 19 1 0 2
gene  1 1 18 0.8972166871337803 0 323.0 0.8972166871337803 1
gene  1 4 18 -0.7476359907077139 0 326.0 -0.7476359907077139 1
gene  1 5 18 -0.499588623184158 0 327.0 -0.499588623184158 1
gene  1 6 18 -0.660075509808127 0 328.0 -0.660075509808127 1
gene  1 7 18 -0.6124945220584547 0 329.0 -0.6124945220584547 1
gene  1 8 18 0.419197895607611 0 330.0 0.419197895607611 1
gene  1 2 19 -0.11481308756353859 0 343.0 -0.11481308756353859 1
gene  1 3 19 0.2821101151268596 0 344.0 0.2821101151268596 1
gene  1 4 19 0.3719247107351583 0 345.0 0.3719247107351583 1
gene  1 5 19 -0.5345472219372295 0 346.0 -0.5345472219372295 1
gene  1 8 19 0.6642402265329264 0 349.0 0.6642402265329264 1
genomeend 67
genomestart  68
trait 1 0.0 0.0 0.0 0.0 0.0 0.0 0.0 0.0 
node 1 1 1 1
node 2 1 1 1
node 3 1 1 1
node 4 1 1 1
node 5 1 1 1
node 6 1 1 1
node 7 1 1 1
node 8 1 1 3
node 18 1 0 2
node 19 1 0 2
gene  1 1 18 0.09975668546010774 0 323.0 0.09975668546010774 1
gene  1 4 18 -0.7609672635969885 0 326.0 -0.7609672635969885 1
gene  1 5 18 0.47735281336263025 0 327.0 0.47735281336263025 1
gene  1 8 18 0.1430029516063328 0 330.0 0.1430029516063328 1
gene  1 2 19 0.2726770105888242 0 343.0 0.2726770105888242 1
gene  1 3 19 0.48779487798066357 0 344.0 0.48779487798066357 1
gene  1 6 19 -0.9012405770387518 0 347.0 -0.9012405770387518 1
gene  1 7 19 0.41914640102209555 0 348.0 0.41914640102209555 1
gene  1 18 19 -0.279804320761496 0 359.0 -0.279804320761496 1
genomeend 68
genomestart  69
trait 1 0.0 0.0 0.0 0.0 0.0 0.0 0.0 0.0 
node 1 1 1 1
node 2 1 1 1
node 3 1 1 1
node 4 1 1 1
node 5 1 1 1
node 6 1 1 1
node 7 1 1 1
node 8 1 1 3
node 18 1 0 2
node 19 1 0 2
gene  1 2 18 0.4608970650712638 0 324.0 0.4608970650712638 1
gene  1 3 18 -0.9022277685242196 0 325.0 -0.9022277685242196 1
gene  1 4 18 -0.4147901059138518 0 326.0 -0.4147901059138518 1
gene  1 5 18 -0.6785629706689714 0 327.0 -0.6785629706689714 1
gene  1 6 18 -0.05477041060671828 0 328.0 -0.05477041060671828 1
gene  1 7 18 0.06158949624469012 0 329.0 0.06158949624469012 1
gene  1 8 18 0.4961409235481693 0 330.0 0.4961409235481693 1
gene  1 1 19 0.6142827104757737 0 342.0 0.6142827104757737 1
gene  1 3 19 0.80008796515774 0 344.0 0.80008796515774 1
gene  1 4 19 -0.7684217232746026 0 345.0 -0.7684217232746026 1
gene  1 5 19 0.0514813896419587 0 346.0 0.0514813896419587 1
gene  1 6 19 0.8425001810324765 0 347.0 0.8425001810324765 1
gene  1 18 19 0.37397825448244815 0 359.0 0.37397825448244815 1
genomeend 69
genomestart  70
trait 1 0.0 0.0 0.0 0.0 0.0 0.0 0.0 0.0 
node 1 1 1 1
node 2 1 1 1
node 3 1 1 1
node 4 1 1 1
node 5 1 1 1
node 6 1 1 1
node 7 1 1 1
node 8 1 1 3
node 18 1 0 2
node 19 1 0 2
gene  1 1 18 0.8081876583366134 0 323.0 0.8081876583366134 1
gene  1 2 18 -0.4857089587658674 0 324.0 -0.4857089587658674 1
gene  1 4 18 -0.7607184380749971 0 326.0 -0.7607184380749971 1
gene  1 5 18 0.06423740835918312 0 327.0 0.06423740835918312 1
gene  1 6 18 0.5756563065867644 0 328.0 0.5756563065867644 1
gene  1 8 18 -0.9286406053851144 0 330.0 -0.9286406053851144 1
gene  1 2 19 0.496931925679463 0 343.0 0.496931925679463 1
gene  1 3 19 0.4711156431275697 0 344.0 0.4711156431275697 1
gene  1 4 19 -0.2416235453673925 0 345.0 -0.2416235453673925 1
gene  1 7 19 -0.09290771834123746 0 348.0 -0.09290771834123746 1
gene  1 18 19 0.7890445573253536 0 359.0 0.7890445573253536 1
genomeend 70
genomestart  71
trait 1 0.0 0.0 0.0 0.0 0.0 0.0 0.0 0.0 
node 1 1 1 1
node 2 1 1 1
node 3 1 1 1
node 4 1 1 1
node 5 1 1 1
node 6 1 1 1
node 7 1 1 1
node 8 1 1 3
node 18 1 0 2
node 19 1 0 2
gene  1 1 18 0.017239071756031454 0 323.0 0.017239071756031454 1
gene  1 2 18 0.3279664380834455 0 324.0 0.3279664380834455 1
gene  1 3 18 0.011938077308394246 0 325.0 0.011938077308394246 1
gene  1 4 18 -0.5858469430053929 0 326.0 -0.5858469430053929 1
gene  1 5 18 -0.14943431860596879 0 327.0 -0.14943431860596879 1
gene  1 6 18 0.8278948116725892 0 328.0 0.8278948116725892 1
gene  1 8 18 0.21119672819727187 0 330.0 0.21119672819727187 1
gene  1 1 19 -0.029838532575373056 0 342.0 -0.029838532575373056 1
gene  1 2 19 0.5707118510424862 0 343.0 0.5707118510424862 1
gene  1 5 19 -0.2844499180042259 0 346.0 -0.2844499180042259 1
gene  1 6 19 0.8039831378615336 0 347.0 0.8039831378615336 1
gene  1 7 19 0.39810394607869015 0 348.0 0.39810394607869015 1
gene  1 8 19 0.08341987018503294 0 349.0 0.08341987018503294 1
genomeend 71
genomestart  72
trait 1 0.0 0.0 0.0 0.0 0.0 0.0 0.0 0.0 
node 1 1 1 1
node 2 1 1 1
node 3 1 1 1
node 4 1 1 1
node 5 1 1 1
node 6 1 1 1
node 7 1 1 1
node 8 1 1 3
node 18 1 0 2
node 19 1 0 2
gene  1 1 18 -0.9606760449276173 0 323.0 -0.9606760449276173 1
gene  1 2 18 0.14195067818010576 0 324.0 0.14195067818010576 1
gene  1 3 18 0.5486405572892129 0 325.0 0.5486405572892129 1
gene  1 4 18 0.28318918704823004 0 326.0 0.28318918704823004 1
gene  1 6 18 0.010212003561099414 0 328.0 0.010212003561099414 1
gene  1 8 18 0.5401044372215057 0 330.0 0.5401044372215057 1
gene  1 1 19 0.9126248105868144 0 342.0 0.9126248105868144 1
gene  1 3 19 0.021036071048632365 0 344.0 0.021036071048632365 1
gene  1 4 19 -0.6890647935988997 0 345.0 -0.6890647935988997 1
gene  1 5 19 0.8865733911982283 0 346.0 0.8865733911982283 1
gene  1 7 19 -0.03556369728659514 0 348.0 -0.03556369728659514 1
gene  1 8 19 0.5312387690315533 0 349.0 0.5312387690315533 1
gene  1 18 19 -0.09182363687827721 0 359.0 -0.09182363687827721 1
genomeend 72
genomestart  73
trait 1 0.0 0.0 0.0 0.0 0.0 0.0 0.0 0.0 
node 1 1 1 1
node 2 1 1 1
node 3 1 1 1
node 4 1 1 1
node 5 1 1 1
node 6 1 1 1
node 7 1 1 1
node 8 1 1 3
node 18 1 0 2
node 19 1 0 2
gene  1 1 18 -0.5087934859859685 0 323.0 -0.5087934859859685 1
gene  1 2 18 0.42852448675132604 0 324.0 0.42852448675132604 1
gene  1 3 18 0.47400200594582 0 325.0 0.47400200594582 1
gene  1 4 18 -0.8496473175388729 0 326.0 -0.8496473175388729 1
gene  1 6 18 -0.21036598980353105 0 328.0 -0.21036598980353105 1
gene  1 7 18 -0.8632403562401456 0 329.0 -0.8632403562401456 1
gene  1 2 19 -0.8306957602546821 0 343.0 -0.8306957602546821 1
gene  1 3 19 0.4000542861753402 0 344.0 0.4000542861753402 1
gene  1 5 19 -0.5744410948963272 0 346.0 -0.5744410948963272 1
gene  1 6 19 -0.3403308736145001 0 347.0 -0.3403308736145001 1
gene  1 8 19 -0.4905511624880572 0 349.0 -0.4905511624880572 1
gene  1 18 19 0.7987223275377712 0 359.0 0.7987223275377712 1
genomeend 73
genomestart  74
trait 1 0.0 0.0 0.0 0.0 0.0 0.0 0.0 0.0 
node 1 1 1 1
node 2 1 1 1
node 3 1 1 1
node 4 1 1 1
node 5 1 1 1
node 6 1 1 1
node 7 1 1 1
node 8 1 1 3
node 18 1 0 2
node 19 1 0 2
gene  1 1 18 -0.768830913267064 0 323.0 -0.768830913267064 1
gene  1 2 18 0.4141941956579235 0 324.0 0.4141941956579235 1
gene  1 3 18 -0.7560835405417323 0 325.0 -0.7560835405417323 1
gene  1 5 18 -0.16867453686178513 0 327.0 -0.16867453686178513 1
gene  1 7 18 0.9350226559167331 0 329.0 0.9350226559167331 1
gene  1 8 18 -0.5233088783680562 0 330.0 -0.5233088783680562 1
gene  1 3 19 0.03992334532269448 0 344.0 0.03992334532269448 1
gene  1 4 19 -0.5012733946401555 0 345.0 -0.5012733946401555 1
gene  1 5 19 -0.3637449512442046 0 346.0 -0.3637449512442046 1
gene  1 6 19 -0.46025327552515083 0 347.0 -0.46025327552515083 1
genomeend 74
genomestart  75
trait 1 0.0 0.0 0.0 0.0 0.0 0.0 0.0 0.0 
node 1 1 1 1
node 2 1 1 1
node 3 1 1 1
node 4 1 1 1
node 5 1 1 1
node 6 1 1 1
node 7 1 1 1
node 8 1 1 3
node 18 1 0 2
node 19 1 0 2
gene  1 1 18 0.5156590067454953 0 323.0 0.5156590067454953 1
gene  1 2 18 -0.1687193376295696 0 324.0 -0.1687193376295696 1
gene  1 3 18 -0.9533661464901791 0 325.0 -0.9533661464901791 1
gene  1 4 18 0.09932169183260064 0 326.0 0.09932169183260064 1
gene  1 5 18 0.14835683216335838 0 327.0 0.14835683216335838 1
gene  1 6 18 -0.9678196735968223 0 328.0 -0.9678196735968223 1
gene  1 4 19 0.1993897466357104 0 345.0 0.1993897466357104 1
gene  1 6 19 0.045188234480328826 0 347.0 0.045188234480328826 1
gene  1 7 19 -0.49745038742477965 0 348.0 -0.49745038742477965 1
gene  1 8 19 0.7066803259767288 0 349.0 0.7066803259767288 1
gene  1 18 19 0.06102145242054591 0 359.0 0.06102145242054591 1
genomeend 75
genomestart  76
trait 1 0.0 0.0 0.0 0.0 0.0 0.0 0.0 0.0 
node 1 1 1 1
node 2 1 1 1
node 3 1 1 1
node 4 1 1 1
node 5 1 1 1
node 6 1 1 1
node 7 1 1 1
node 8 1 1 3
node 18 1 0 2
node 19 1 0 2
gene  1 1 18 0.6864484602252848 0 323.0 0.6864484602252848 1
gene  1 2 18 -0.48091759350026775 0 324.0 -0.48091759350026775 1
gene  1 3 18 0.6393020459106006 0 325.0 0.6393020459106006 1
gene  1 4 18 -0.44310067202866876 0 326.0 -0.44310067202866876 1
gene  1 5 18 0.9222980487087975 0 327.0 0.9222980487087975 1
gene  1 6 18 0.869987699166688 0 328.0 0.869987699166688 1
gene  1 8 18 0.7551911756272146 0 330.0 0.7551911756272146 1
gene  1 2 19 -0.8983593343645216 0 343.0 -0.8983593343645216 1
gene  1 3 19 -0.7267856895922522 0 344.0 -0.7267856895922522 1
gene  1 5 19 -0.8277035080383575 0 346.0 -0.8277035080383575 1
gene  1 6 19 0.9546006934542618 0 347.0 0.9546006934542618 1
gene  1 7 19 -0.44924604184939776 0 348.0 -0.44924604184939776 1
gene  1 18 19 0.09923697376915497 0 359.0 0.09923697376915497 1
genomeend 76
genomestart  77
trait 1 0.0 0.0 0.0 0.0 0.0 0.0 0.0 0.0 
node 1 1 1 1
node 2 1 1 1
node 3 1 1 1
node 4 1 1 1
node 5 1 1 1
node 6 1 1 1
node 7 1 1 1
node 8 1 1 3
node 18 1 0 2
node 19 1 0 2
gene  1 1 18 0.6689953160175045 0 323.0 0.6689953160175045 1
gene  1 2 18 0.17379858146285998 0 324.0 0.17379858146285998 1
gene  1 5 18 -0.364016260851845 0 327.0 -0.364016260851845 1
gene  1 6 18 -0.2839101948332574 0 328.0 -0.2839101948332574 1
gene  1 7 18 -0.6990126252622907 0 329.0 -0.6990126252622907 1
gene  1 8 18 -0.13277076061592852 0 330.0 -0.13277076061592852 1
gene  1 2 19 -0.17835921978678893 0 343.0 -0.17835921978678893 1
gene  1 3 19 -0.9038359849848298 0 344.0 -0.9038359849848298 1
gene  1 4 19 0.8086215234151096 0 345.0 0.8086215234151096 1
gene  1 6 19 -0.6557403378547184 0 347.0 -0.6557403378547184 1
genomeend 77
genomestart  78
trait 1 0.0 0.0 0.0 0.0 0.0 0.0 0.0 0.0 
node 1 1 1 1
node 2 1 1 1
node 3 1 1 1
node 4 1 1 1
node 5 1 1 1
node 6 1 1 1
node 7 1 1 1
node 8 1 1 3
node 18 1 0 2
node 19 1 0 2
gene  1 2 18 0.6138366196056616 0 324.0 0.6138366196056616 1
gene  1 5 18 -0.038835529089818244 0 327.0 -0.038835529089818244 1
gene  1 7 18 -0.5470772612224863 0 329.0 -0.5470772612224863 1
gene  1 8 18 -0.26462657493087627 0 330.0 -0.26462657493087627 1
gene  1 1 19 0.7894184630743756 0 342.0 0.7894184630743756 1
gene  1 2 19 -0.8936763025709284 0 343.0 -0.8936763025709284 1
gene  1 3 19 -0.9624274399540231 0 344.0 -0.9624274399540231 1
gene  1 4 19 0.668934474991084 0 345.0 0.668934474991084 1
gene  1 6 19 0.3642232687471012 0 347.0 0.3642232687471012 1
gene  1 7 19 0.09266544931533516 0 348.0 0.09266544931533516 1
gene  1 18 19 -0.4213887875704434 0 359.0 -0.4213887875704434 1
genomeend 78
genomestart  79
trait 1 0.0 0.0 0.0 0.0 0.0 0.0 0.0 0.0 
node 1 1 1 1
node 2 1 1 1
node 3 1 1 1
node 4 1 1 1
node 5 1 1 1
node 6 1 1 1
node 7 1 1 1
node 8 1 1 3
node 18 1 0 2
node 19 1 0 2
gene  1 1 18 0.04782953971214132 0 323.0 0.04782953971214132 1
gene  1 3 18 -0.9614272470258272 0 325.0 -0.9614272470258272 1
gene  1 4 18 -0.80042359172448 0 326.0 -0.80042359172448 1
gene  1 6 18 0.6520197826628523 0 328.0 0.6520197826628523 1
gene  1 7 18 -0.4004681022522075 0 329.0 -0.4004681022522075 1
gene  1 8 18 0.10163675846285047 0 330.0 0.10163675846285047 1
gene  1 1 19 -0.11901912906441492 0 342.0 -0.11901912906441492 1
gene  1 2 19 -0.998688846651164 0 343.0 -0.998688846651164 1
gene  1 3 19 0.5353798825500667 0 344.0 0.5353798825500667 1
gene  1 5 19 0.1354936348750494 0 346.0 0.1354936348750494 1
gene  1 18 19 -0.2588991039255115 0 359.0 -0.2588991039255115 1
genomeend 79
genomestart  80
trait 1 0.0 0.0 0.0 0.0 0.0 0.0 0.0 0.0 
node 1 1 1 1
node 2 1 1 1
node 3 1 1 1
node 4 1 1 1
node 5 1 1 1
node 6 1 1 1
node 7 1 1 1
node 8 1 1 3
node 18 1 0 2
node 19 1 0 2
gene  1 4 18 -0.675944942467311 0 326.0 -0.675944942467311 1
gene  1 5 18 0.44709636080281634 0 327.0 0.44709636080281634 1
gene  1 1 19 -0.5107807881937759 0 342.0 -0.5107807881937759 1
gene  1 2 19 -0.9871158252070434 0 343.0 -0.9871158252070434 1
gene  1 3 19 0.7526689599753269 0 344.0 0.7526689599753269 1
gene  1 6 19 0.6941145329865778 0 347.0 0.6941145329865778 1
gene  1 7 19 -0.389361943171707 0 348.0 -0.389361943171707 1
gene  1 8 19 -0.5608737450753805 0 349.0 -0.5608737450753805 1
genomeend 80
genomestart  81
trait 1 0.0 0.0 0.0 0.0 0.0 0.0 0.0 0.0 
node 1 1 1 1
node 2 1 1 1
node 3 1 1 1
node 4 1 1 1
node 5 1 1 1
node 6 1 1 1
node 7 1 1 1
node 8 1 1 3
node 18 1 0 2
node 19 1 0 2
gene  1 1 18 -0.7735373359957395 0 323.0 -0.7735373359957395 1
gene  1 2 18 -0.7108028920304891 0 324.0 -0.7108028920304891 1
gene  1 3 18 -0.2863659747795383 0 325.0 -0.2863659747795383 1
gene  1 4 18 0.12387764446169192 0 326.0 0.12387764446169192 1
gene  1 5 18 0.71295571107152 0 327.0 0.71295571107152 1
gene  1 6 18 -0.4667562496518597 0 328.0 -0.4667562496518597 1
gene  1 7 18 0.11124121747132498 0 329.0 0.11124121747132498 1
gene  1 1 19 0.3750977138182585 0 342.0 0.3750977138182585 1
gene  1 3 19 -0.7444688428798454 0 344.0 -0.7444688428798454 1
gene  1 4 19 0.6109961385436845 0 345.0 0.6109961385436845 1
gene  1 8 19 0.2104586615934413 0 349.0 0.2104586615934413 1
genomeend 81
genomestart  82
trait 1 0.0 0.0 0.0 0.0 0.0 0.0 0.0 0.0 
node 1 1 1 1
node 2 1 1 1
node 3 1 1 1
node 4 1 1 1
node 5 1 1 1
node 6 1 1 1
node 7 1 1 1
node 8 1 1 3
node 18 1 0 2
node 19 1 0 2
gene  1 2 18 -0.6167429543320688 0 324.0 -0.6167429543320688 1
gene  1 3 18 0.5563868829039679 0 325.0 0.5563868829039679 1
gene  1 4 18 0.43021283038068825 0 326.0 0.43021283038068825 1
gene  1 5 18 -0.11136457426007185 0 327.0 -0.11136457426007185 1
gene  1 6 18 -0.6424484623850685 0 328.0 -0.6424484623850685 1
gene  1 7 18 -0.7062482003020216 0 329.0 -0.7062482003020216 1
gene  1 8 18 -0.13336383941457586 0 330.0 -0.13336383941457586 1
gene  1 1 19 0.47531563357318374 0 342.0 0.47531563357318374 1
gene  1 2 19 0.45952431203183863 0 343.0 0.45952431203183863 1
gene  1 3 19 -0.8150078405940216 0 344.0 -0.8150078405940216 1
gene  1 5 19 -0.5444652188450988 0 346.0 -0.5444652188450988 1
gene  1 7 19 -0.8910286656564038 0 348.0 -0.8910286656564038 1
gene  1 8 19 -0.03630739945113559 0 349.0 -0.03630739945113559 1
gene  1 18 19 0.7918152848526255 0 359.0 0.7918152848526255 1
genomeend 82
genomestart  83
trait 1 0.0 0.0 0.0 0.0 0.0 0.0 0.0 0.0 
node 1 1 1 1
node 2 1 1 1
node 3 1 1 1
node 4 1 1 1
node 5 1 1 1
node 6 1 1 1
node 7 1 1 1
node 8 1 1 3
node 18 1 0 2
node 19 1 0 2
gene  1 1 18 -0.027802985434569716 0 323.0 -0.027802985434569716 1
gene  1 4 18 0.06857462172554918 0 326.0 0.06857462172554918 1
gene  1 7 18 -0.3549436968175712 0 329.0 -0.3549436968175712 1
gene  1 2 19 0.644466199158022 0 343.0 0.644466199158022 1
gene  1 3 19 -0.9920631258874865 0 344.0 -0.9920631258874865 1
gene  1 5 19 0.19972023076135226 0 346.0 0.19972023076135226 1
gene  1 6 19 0.4390614709705174 0 347.0 0.4390614709705174 1
gene  1 7 19 -0.4047869468296521 0 348.0 -0.4047869468296521 1
gene  1 8 19 -0.11492667669591572 0 349.0 -0.11492667669591572 1
gene  1 18 19 -0.9683616757988979 0 359.0 -0.9683616757988979 1
genomeend 83
genomestart  84
trait 1 0.0 0.0 0.0 0.0 0.0 0.0 0.0 0.0 
node 1 1 1 1
node 2 1 1 1
node 3 1 1 1
node 4 1 1 1
node 5 1 1 1
node 6 1 1 1
node 7 1 1 1
node 8 1 1 3
node 18 1 0 2
node 19 1 0 2
gene  1 1 18 -0.9228638721619761 0 323.0 -0.9228638721619761 1
gene  1 3 18 -0.5434109136641612 0 325.0 -0.5434109136641612 1
gene  1 5 18 0.7564454314324223 0 327.0 0.7564454314324223 1
gene  1 6 18 -0.6142331744988191 0 328.0 -0.6142331744988191 1
gene  1 8 18 -0.7454412887078561 0 330.0 -0.7454412887078561 1
gene  1 2 19 -0.7069882489489504 0 343.0 -0.7069882489489504 1
gene  1 3 19 0.6035026702337449 0 344.0 0.6035026702337449 1
gene  1 4 19 -0.8163904151811444 0 345.0 -0.8163904151811444 1
gene  1 6 19 -0.240805761426111 0 347.0 -0.240805761426111 1
gene  1 7 19 0.32940353703520964 0 348.0 0.32940353703520964 1
genomeend 84
genomestart  85
trait 1 0.0 0.0 0.0 0.0 0.0 0.0 0.0 0.0 
node 1 1 1 1
node 2 1 1 1
node 3 1 1 1
node 4 1 1 1
node 5 1 1 1
node 6 1 1 1
node 7 1 1 1
node 8 1 1 3
node 18 1 0 2
node 19 1 0 2
gene  1 4 18 0.017913835380662935 0 326.0 0.017913835380662935 1
gene  1 5 18 0.6846209094654954 0 327.0 0.6846209094654954 1
gene  1 6 18 0.8283864819603313 0 328.0 0.8283864819603313 1
gene  1 8 18 0.42370968887619265 0 330.0 0.42370968887619265 1
gene  1 1 19 -0.9645406411842518 0 342.0 -0.9645406411842518 1
gene  1 2 19 0.1910956941229447 0 343.0 0.1910956941229447 1
gene  1 3 19 -0.8113070228195848 0 344.0 -0.8113070228195848 1
gene  1 6 19 -0.2842274899018137 0 347.0 -0.2842274899018137 1
gene  1 7 19 -0.40152376386884125 0 348.0 -0.40152376386884125 1
gene  1 8 19 -0.817941555820943 0 349.0 -0.817941555820943 1
gene  1 18 19 0.052811934699458774 0 359.0 0.052811934699458774 1
genomeend 85
genomestart  86
trait 1 0.0 0.0 0.0 0.0 0.0 0.0 0.0 0.0 
node 1 1 1 1
node 2 1 1 1
node 3 1 1 1
node 4 1 1 1
node 5 1 1 1
node 6 1 1 1
node 7 1 1 1
node 8 1 1 3
node 18 1 0 2
node 19 1 0 2
gene  1 1 18 0.19429963148269758 0 323.0 0.19429963148269758 1
gene  1 3 18 -0.4434291793976952 0 325.0 -0.4434291793976952 1
gene  1 4 18 -0.9101775024269884 0 326.0 -0.9101775024269884 1
gene  1 6 18 -0.34749197598028214 0 328.0 -0.34749197598028214 1
gene  1 7 18 -0.9651493131158198 0 329.0 -0.9651493131158198 1
gene  1 8 18 0.9153304823122173 0 330.0 0.9153304823122173 1
gene  1 2 19 0.06623636326030202 0 343.0 0.06623636326030202 1
gene  1 3 19 0.5496288852493375 0 344.0 0.5496288852493375 1
gene  1 4 19 -0.48996581541516404 0 345.0 -0.48996581541516404 1
gene  1 5 19 -0.758715948110454 0 346.0 -0.758715948110454 1
gene  1 6 19 0.5368591898177402 0 347.0 0.5368591898177402 1
gene  1 8 19 -0.06634016053920444 0 349.0 -0.06634016053920444 1
genomeend 86
genomestart  87
trait 1 0.0 0.0 0.0 0.0 0.0 0.0 0.0 0.0 
node 1 1 1 1
node 2 1 1 1
node 3 1 1 1
node 4 1 1 1
node 5 1 1 1
node 6 1 1 1
node 7 1 1 1
node 8 1 1 3
node 18 1 0 2
node 19 1 0 2
gene  1 1 18 0.8506861701715097 0 323.0 0.8506861701715097 1
gene  1 3 18 -0.41819678038730723 0 325.0 -0.41819678038730723 1
gene  1 5 18 -0.12305821139444428 0 327.0 -0.12305821139444428 1
gene  1 6 18 -0.5745482912636145 0 328.0 -0.5745482912636145 1
gene  1 7 18 0.28314667016072936 0 329.0 0.28314667016072936 1
gene  1 2 19 0.6638223077882455 0 343.0 0.6638223077882455 1
gene  1 3 19 0.5513544887805737 0 344.0 0.5513544887805737 1
gene  1 4 19 -0.6225884023992174 0 345.0 -0.6225884023992174 1
gene  1 6 19 -0.7340429319290762 0 347.0 -0.7340429319290762 1
gene  1 8 19 0.5959654833648733 0 349.0 0.5959654833648733 1
gene  1 18 19 -0.03401981370874352 0 359.0 -0.03401981370874352 1
genomeend 87
genomestart  88
trait 1 0.0 0.0 0.0 0.0 0.0 0.0 0.0 0.0 
node 1 1 1 1
node 2 1 1 1
node 3 1 1 1
node 4 1 1 1
node 5 1 1 1
node 6 1 1 1
node 7 1 1 1
node 8 1 1 3
node 18 1 0 2
node 19 1 0 2
gene  1 1 18 0.6732181558190962 0 323.0 0.6732181558190962 1
gene  1 2 18 0.2927245970308081 0 324.0 0.2927245970308081 1
gene  1 4 18 0.5111489171616007 0 326.0 0.5111489171616007 1
gene  1 6 18 0.3532669419867739 0 328.0 0.3532669419867739 1
gene  1 7 18 0.6119090940970281 0 329.0 0.6119090940970281 1
gene  1 8 18 0.14918446660847318 0 330.0 0.14918446660847318 1
gene  1 1 19 0.5629490209558051 0 342.0 0.5629490209558051 1
gene  1 2 19 0.059539706112028745 0 343.0 0.059539706112028745 1
gene  1 3 19 0.9559669390288044 0 344.0 0.9559669390288044 1
gene  1 4 19 -0.3340746568805949 0 345.0 -0.3340746568805949 1
gene  1 5 19 -0.6060082012537567 0 346.0 -0.6060082012537567 1
gene  1 6 19 0.5166232782296754 0 347.0 0.5166232782296754 1
gene  1 7 19 -0.4806127973294759 0 348.0 -0.4806127973294759 1
gene  1 8 19 -0.5616171211932449 0 349.0 -0.5616171211932449 1
gene  1 18 19 0.5871174248980503 0 359.0 0.5871174248980503 1
genomeend 88
genomestart  89
trait 1 0.0 0.0 0.0 0.0 0.0 0.0 0.0 0.0 
node 1 1 1 1
node 2 1 1 1
node 3 1 1 1
node 4 1 1 1
node 5 1 1 1
node 6 1 1 1
node 7 1 1 1
node 8 1 1 3
node 18 1 0 2
node 19 1 0 2
gene  1 1 18 -0.8558858894601462 0 323.0 -0.8558858894601462 1
gene  1 2 18 0.7163354303920231 0 324.0 0.7163354303920231 1
gene  1 3 18 0.7302579605701132 0 325.0 0.7302579605701132 1
gene  1 4 18 0.1943499307871438 0 326.0 0.1943499307871438 1
gene  1 5 18 0.9685255480633078 0 327.0 0.9685255480633078 1
gene  1 6 18 -0.2984266318371189 0 328.0 -0.2984266318371189 1
gene  1 7 18 0.4808795242635714 0 329.0 0.4808795242635714 1
gene  1 8 18 0.46448897768886266 0 330.0 0.46448897768886266 1
gene  1 1 19 -0.5808600922387122 0 342.0 -0.5808600922387122 1
gene  1 2 19 -0.9378579113235238 0 343.0 -0.9378579113235238 1
gene  1 5 19 -0.2538451231538099 0 346.0 -0.2538451231538099 1
gene  1 6 19 0.23010793159260146 0 347.0 0.23010793159260146 1
genomeend 89
genomestart  90
trait 1 0.0 0.0 0.0 0.0 0.0 0.0 0.0 0.0 
node 1 1 1 1
node 2 1 1 1
node 3 1 1 1
node 4 1 1 1
node 5 1 1 1
node 6 1 1 1
node 7 1 1 1
node 8 1 1 3
node 18 1 0 2
node 19 1 0 2
gene  1 1 18 0.9470011545442159 0 323.0 0.9470011545442159 1
gene  1 4 18 -0.597300614726203 0 326.0 -0.597300614726203 1
gene  1 6 18 -0.9173401855922841 0 328.0 -0.9173401855922841 1
gene  1 7 18 0.7278411300600497 0 329.0 0.7278411300600497 1
gene  1 8 18 0.9050575206539305 0 330.0 0.9050575206539305 1
gene  1 1 19 -0.8307644381726345 0 342.0 -0.8307644381726345 1
gene  1 2 19 -0.21758765718158612 0 343.0 -0.21758765718158612 1
gene  1 3 19 -0.9800980613994065 0 344.0 -0.9800980613994065 1
gene  1 4 19 -0.9805798033043936 0 345.0 -0.9805798033043936 1
gene  1 5 19 0.908633086952346 0 346.0 0.908633086952346 1
gene  1 7 19 0.675724103211943 0 348.0 0.675724103211943 1
gene  1 18 19 0.7420041648642698 0 359.0 0.7420041648642698 1
genomeend 90
genomestart  91
trait 1 0.0 0.0 0.0 0.0 0.0 0.0 0.0 0.0 
node 1 1 1 1
node 2 1 1 1
node 3 1 1 1
node 4 1 1 1
node 5 1 1 1
node 6 1 1 1
node 7 1 1 1
node 8 1 1 3
node 18 1 0 2
node 19 1 0 2
gene  1 1 18 -0.3010085723589826 0 323.0 -0.3010085723589826 1
gene  1 2 18 -0.8862765638901546 0 324.0 -0.8862765638901546 1
gene  1 3 18 -0.7544733555282546 0 325.0 -0.7544733555282546 1
gene  1 4 18 0.34870720622590434 0 326.0 0.34870720622590434 1
gene  1 5 18 -0.32501920279069163 0 327.0 -0.32501920279069163 1
gene  1 6 18 -0.28951027942855245 0 328.0 -0.28951027942855245 1
gene  1 7 18 0.5423464697362552 0 329.0 0.5423464697362552 1
gene  1 8 18 0.5859792470805936 0 330.0 0.5859792470805936 1
gene  1 2 19 0.15007553110018246 0 343.0 0.15007553110018246 1
gene  1 3 19 -0.6631551477414375 0 344.0 -0.6631551477414375 1
gene  1 6 19 -0.5566009021038254 0 347.0 -0.5566009021038254 1
gene  1 7 19 0.6375928441957346 0 348.0 0.6375928441957346 1
gene  1 8 19 -0.3229415592707743 0 349.0 -0.3229415592707743 1
gene  1 18 19 -0.4150379164490078 0 359.0 -0.4150379164490078 1
genomeend 91
genomestart  92
trait 1 0.0 0.0 0.0 0.0 0.0 0.0 0.0 0.0 
node 1 1 1 1
node 2 1 1 1
node 3 1 1 1
node 4 1 1 1
node 5 1 1 1
node 6 1 1 1
node 7 1 1 1
node 8 1 1 3
node 18 1 0 2
node 19 1 0 2
gene  1 1 18 -0.7967600508472249 0 323.0 -0.7967600508472249 1
gene  1 4 18 -0.0645044017112153 0 326.0 -0.0645044017112153 1
gene  1 7 18 -0.6035683752683715 0 329.0 -0.6035683752683715 1
gene  1 8 18 -0.9596924613774321 0 330.0 -0.9596924613774321 1
gene  1 2 19 0.3692863041258102 0 343.0 0.3692863041258102 1
gene  1 3 19 -0.23557641955121988 0 344.0 -0.23557641955121988 1
gene  1 5 19 0.11376168502991968 0 346.0 0.11376168502991968 1
gene  1 6 19 -0.9733033548023261 0 347.0 -0.9733033548023261 1
gene  1 7 19 -0.9407570686275671 0 348.0 -0.9407570686275671 1
gene  1 8 19 -0.7903519646402686 0 349.0 -0.7903519646402686 1
gene  1 18 19 -0.572302773019715 0 359.0 -0.572302773019715 1
genomeend 92
genomestart  93
trait 1 0.0 0.0 0.0 0.0 0.0 0.0 0.0 0.0 
node 1 1 1 1
node 2 1 1 1
node 3 1 1 1
node 4 1 1 1
node 5 1 1 1
node 6 1 1 1
node 7 1 1 1
node 8 1 1 3
node 18 1 0 2
node 19 1 0 2
gene  1 1 18 -0.009240551977167555 0 323.0 -0.009240551977167555 1
gene  1 2 18 0.46618617740946133 0 324.0 0.46618617740946133 1
gene  1 4 18 0.9042110283688715 0 326.0 0.9042110283688715 1
gene  1 5 18 -0.5728476236657133 0 327.0 -0.5728476236657133 1
gene  1 6 18 0.46846211761740897 0 328.0 0.46846211761740897 1
gene  1 7 18 0.3166117291221966 0 329.0 0.3166117291221966 1
gene  1 8 18 -0.4829164626066227 0 330.0 -0.4829164626066227 1
gene  1 1 19 -0.05270900902708597 0 342.0 -0.05270900902708597 1
gene  1 2 19 0.6118260881805104 0 343.0 0.6118260881805104 1
gene  1 3 19 0.11829553387797265 0 344.0 0.11829553387797265 1
gene  1 4 19 -0.6511705873730415 0 345.0 -0.6511705873730415 1
gene  1 8 19 0.7057583989373695 0 349.0 0.7057583989373695 1
genomeend 93
genomestart  94
trait 1 0.0 0.0 0.0 0.0 0.0 0.0 0.0 0.0 
node 1 1 1 1
node 2 1 1 1
node 3 1 1 1
node 4 1 1 1
node 5 1 1 1
node 6 1 1 1
node 7 1 1 1
node 8 1 1 3
node 18 1 0 2
node 19 1 0 2
gene  1 1 18 0.7250151861646554 0 323.0 0.7250151861646554 1
gene  1 2 18 -0.2239823071183804 0 324.0 -0.2239823071183804 1
gene  1 3 18 -0.6937954724282052 0 325.0 -0.6937954724282052 1
gene  1 4 18 -0.573200203813312 0 326.0 -0.573200203813312 1
gene  1 5 18 -0.14151518777649463 0 327.0 -0.14151518777649463 1
gene  1 6 18 -0.20979734658056315 0 328.0 -0.20979734658056315 1
gene  1 8 18 0.7974131208010542 0 330.0 0.7974131208010542 1
gene  1 3 19 0.8355609287720762 0 344.0 0.8355609287720762 1
gene  1 4 19 -0.10602538076802814 0 345.0 -0.10602538076802814 1
gene  1 6 19 -0.9620997587697685 0 347.0 -0.9620997587697685 1
gene  1 7 19 0.6929845623735298 0 348.0 0.6929845623735298 1
gene  1 18 19 0.43609134911916225 0 359.0 0.43609134911916225 1
genomeend 94
genomestart  95
trait 1 0.0 0.0 0.0 0.0 0.0 0.0 0.0 0.0 
node 1 1 1 1
node 2 1 1 1
node 3 1 1 1
node 4 1 1 1
node 5 1 1 1
node 6 1 1 1
node 7 1 1 1
node 8 1 1 3
node 18 1 0 2
node 19 1 0 2
gene  1 1 18 -0.5638908503556037 0 323.0 -0.5638908503556037 1
gene  1 2 18 0.2407637059796781 0 324.0 0.2407637059796781 1
gene  1 5 18 0.16066172184126293 0 327.0 0.16066172184126293 1
gene  1 6 18 -0.18454834443984391 0 328.0 -0.18454834443984391 1
gene  1 7 18 -0.20385594606686508 0 329.0 -0.20385594606686508 1
gene  1 2 19 -0.3682668836123888 0 343.0 -0.3682668836123888 1
gene  1 3 19 0.7667191996869183 0 344.0 0.7667191996869183 1
gene  1 4 19 -0.6753157702924605 0 345.0 -0.6753157702924605 1
gene  1 5 19 -0.5813300600697128 0 346.0 -0.5813300600697128 1
gene  1 6 19 -0.9221471965066227 0 347.0 -0.9221471965066227 1
gene  1 7 19 0.5561076453707209 0 348.0 0.5561076453707209 1
gene  1 8 19 -0.5247237022494294 0 349.0 -0.5247237022494294 1
genomeend 95
genomestart  96
trait 1 0.0 0.0 0.0 0.0 0.0 0.0 0.0 0.0 
node 1 1 1 1
node 2 1 1 1
node 3 1 1 1
node 4 1 1 1
node 5 1 1 1
node 6 1 1 1
node 7 1 1 1
node 8 1 1 3
node 18 1 0 2
node 19 1 0 2
gene  1 1 18 -0.5991957332733946 0 323.0 -0.5991957332733946 1
gene  1 3 18 -0.3155370057220538 0 325.0 -0.3155370057220538 1
gene  1 4 18 -0.5902470691332063 0 326.0 -0.5902470691332063 1
gene  1 6 18 -0.058834007810993016 0 328.0 -0.058834007810993016 1
gene  1 7 18 0.8378676491519155 0 329.0 0.8378676491519155 1
gene  1 8 18 -0.8387886713660941 0 330.0 -0.8387886713660941 1
gene  1 1 19 0.6296159619901608 0 342.0 0.6296159619901608 1
gene  1 2 19 0.2185179239164069 0 343.0 0.2185179239164069 1
gene  1 3 19 -0.05017797335943819 0 344.0 -0.05017797335943819 1
gene  1 5 19 -0.2659137829977033 0 346.0 -0.2659137829977033 1
gene  1 6 19 0.12572314772245818 0 347.0 0.12572314772245818 1
gene  1 7 19 -0.9195446803417693 0 348.0 -0.9195446803417693 1
gene  1 8 19 0.4245210727604296 0 349.0 0.4245210727604296 1
genomeend 96
genomestart  97
trait 1 0.0 0.0 0.0 0.0 0.0 0.0 0.0 0.0 
node 1 1 1 1
node 2 1 1 1
node 3 1 1 1
node 4 1 1 1
node 5 1 1 1
node 6 1 1 1
node 7 1 1 1
node 8 1 1 3
node 18 1 0 2
node 19 1 0 2
gene  1 1 18 -0.26364757297689145 0 323.0 -0.26364757297689145 1
gene  1 2 18 0.4536788488162312 0 324.0 0.4536788488162312 1
gene  1 4 18 -0.11816882412168883 0 326.0 -0.11816882412168883 1
gene  1 5 18 0.6704481566994208 0 327.0 0.6704481566994208 1
gene  1 6 18 0.9897183365037587 0 328.0 0.9897183365037587 1
gene  1 7 18 0.9169890070611434 0 329.0 0.9169890070611434 1
gene  1 8 18 0.3323734317190348 0 330.0 0.3323734317190348 1
gene  1 3 19 0.5299418535818229 0 344.0 0.5299418535818229 1
gene  1 4 19 -0.883809918235225 0 345.0 -0.883809918235225 1
gene  1 8 19 0.8044850647524684 0 349.0 0.8044850647524684 1
genomeend 97
genomestart  98
trait 1 0.0 0.0 0.0 0.0 0.0 0.0 0.0 0.0 
node 1 1 1 1
node 2 1 1 1
node 3 1 1 1
node 4 1 1 1
node 5 1 1 1
node 6 1 1 1
node 7 1 1 1
node 8 1 1 3
node 18 1 0 2
node 19 1 0 2
gene  1 1 18 -0.7207917915218288 0 323.0 -0.7207917915218288 1
gene  1 2 18 0.40373376467655664 0 324.0 0.40373376467655664 1
gene  1 3 18 -0.12970942244579253 0 325.0 -0.12970942244579253 1
gene  1 4 18 -0.8708453610430262 0 326.0 -0.8708453610430262 1
gene  1 5 18 -0.11514183837639991 0 327.0 -0.11514183837639991 1
gene  1 7 18 -0.9152074819045948 0 329.0 -0.9152074819045948 1
gene  1 1 19 -0.513286047652339 0 342.0 -0.513286047652339 1
gene  1 3 19 -0.3832907413681248 0 344.0 -0.3832907413681248 1
gene  1 5 19 0.6943122803108098 0 346.0 0.6943122803108098 1
gene  1 6 19 -0.3452012699371356 0 347.0 -0.3452012699371356 1
gene  1 8 19 -0.6217043013867044 0 349.0 -0.6217043013867044 1
genomeend 98
genomestart  99
trait 1 0.0 0.0 0.0 0.0 0.0 0.0 0.0 0.0 
node 1 1 1 1
node 2 1 1 1
node 3 1 1 1
node 4 1 1 1
node 5 1 1 1
node 6 1 1 1
node 7 1 1 1
node 8 1 1 3
node 18 1 0 2
node 19 1 0 2
gene  1 2 18 -0.02251025089206582 0 324.0 -0.02251025089206582 1
gene  1 3 18 0.4444484162554283 0 325.0 0.4444484162554283 1
gene  1 4 18 0.9947750374617388 0 326.0 0.9947750374617388 1
gene  1 6 18 -0.06499545056724332 0 328.0 -0.06499545056724332 1
gene  1 8 18 -0.6116528089728615 0 330.0 -0.6116528089728615 1
gene  1 1 19 0.4776932574945054 0 342.0 0.4776932574945054 1
gene  1 2 19 0.500255899010297 0 343.0 0.500255899010297 1
gene  1 4 19 0.24024768969769905 0 345.0 0.24024768969769905 1
gene  1 5 19 -0.8513656664064339 0 346.0 -0.8513656664064339 1
gene  1 6 19 0.16228526544183053 0 347.0 0.16228526544183053 1
gene  1 7 19 0.38194047092273964 0 348.0 0.38194047092273964 1
gene  1 8 19 0.8744150196063482 0 349.0 0.8744150196063482 1
gene  1 18 19 -0.38757173684907054 0 359.0 -0.38757173684907054 1
genomeend 99
