/* Species # 001         : (size= 013) (AvfFit= 0.000) (Age= 8.000)  */
/*-------------------------------------------------------------------*/
/* Organism # 000 Fitness:  2432.461 Error:  0.000                      */
genomestart  0
trait 1 0.0 0.0 0.0 0.0 0.0 0.0 0.0 0.0 
node 1 1 1 1
node 2 1 1 1
node 3 1 1 1
node 4 1 1 1
node 5 1 1 1
node 6 1 1 1
node 7 1 1 1
node 8 1 1 3
node 18 1 0 2
node 19 1 0 2
gene  1 1 18 -4.791143326511163 0 323.0 -4.791143326511163 1
gene  1 3 18 -1.6564154025726292 0 325.0 -1.6564154025726292 1
gene  1 4 18 -2.3446388169484584 0 326.0 -2.3446388169484584 1
gene  1 5 18 4.185145944657887 0 327.0 4.185145944657887 1
gene  1 8 18 -1.6168938287552188 0 330.0 -1.6168938287552188 1
gene  1 1 19 -2.8665752659871084 0 342.0 -2.8665752659871084 1
gene  1 2 19 2.5443614517553965 0 343.0 2.5443614517553965 1
gene  1 4 19 -3.373690822064239 0 345.0 -3.373690822064239 1
gene  1 6 19 0.9747407053502533 0 347.0 0.9747407053502533 1
gene  1 7 19 3.3983694399949655 0 348.0 3.3983694399949655 1
gene  1 8 19 1.4379199921799122 0 349.0 1.4379199921799122 1
gene  1 18 19 -1.5502320195968127 0 359.0 -1.5502320195968127 1
gene  1 6 18 4.772561707548659 0 433.0 4.772561707548659 1
genomeend 0
/* Organism # 001 Fitness:  32.756 Error:  0.000                      */
genomestart  1
trait 1 0.0 0.0 0.0 0.0 0.0 0.0 0.0 0.0 
node 1 1 1 1
node 2 1 1 1
node 3 1 1 1
node 4 1 1 1
node 5 1 1 1
node 6 1 1 1
node 7 1 1 1
node 8 1 1 3
node 18 1 0 2
node 19 1 0 2
node 35 1 0 0
gene  1 1 18 -2.692216286561754 0 323.0 -2.692216286561754 0
gene  1 3 18 -0.19443879605726355 0 325.0 -0.19443879605726355 1
gene  1 4 18 1.0512698847235358 0 326.0 1.0512698847235358 1
gene  1 5 18 3.3498468722203283 0 327.0 3.3498468722203283 1
gene  1 8 18 -2.4713259056522094 0 330.0 -2.4713259056522094 1
gene  1 1 19 -2.759925044974181 0 342.0 -2.759925044974181 1
gene  1 2 19 -0.28707750355213446 0 343.0 -0.28707750355213446 1
gene  1 4 19 -0.9481559952004477 0 345.0 -0.9481559952004477 1
gene  1 6 19 1.3986497497392136 0 347.0 1.3986497497392136 1
gene  1 7 19 2.9677215109715664 0 348.0 2.9677215109715664 1
gene  1 8 19 1.4784611859974939 0 349.0 1.4784611859974939 1
gene  1 18 19 -1.2546053833073258 0 359.0 -1.2546053833073258 1
gene  1 1 35 0.24846004033448876 0 428.0 0.24846004033448876 1
gene  1 35 18 -5.004113734444741 0 429.0 -5.004113734444741 1
genomeend 1
/* Organism # 002 Fitness:  1671.389 Error:  0.000                      */
genomestart  2
trait 1 0.0 0.0 0.0 0.0 0.0 0.0 0.0 0.0 
node 1 1 1 1
node 2 1 1 1
node 3 1 1 1
node 4 1 1 1
node 5 1 1 1
node 6 1 1 1
node 7 1 1 1
node 8 1 1 3
node 18 1 0 2
node 19 1 0 2
gene  1 1 18 -4.932593311045934 0 323.0 -4.932593311045934 1
gene  1 3 18 1.3988713985185202 0 325.0 1.3988713985185202 1
gene  1 4 18 -1.9908621051209756 0 326.0 -1.9908621051209756 1
gene  1 5 18 2.2203027694893374 0 327.0 2.2203027694893374 1
gene  1 8 18 -1.7948923544374398 0 330.0 -1.7948923544374398 1
gene  1 1 19 -1.3574152039917566 0 342.0 -1.3574152039917566 1
gene  1 2 19 0.2751201483157919 0 343.0 0.2751201483157919 1
gene  1 4 19 -2.0878147488422596 0 345.0 -2.0878147488422596 1
gene  1 6 19 -1.8678270427455599 0 347.0 -1.8678270427455599 1
gene  1 7 19 1.0136858586224227 0 348.0 1.0136858586224227 1
gene  1 8 19 -0.459318083190023 0 349.0 -0.459318083190023 1
gene  1 18 19 1.2422810017413293 0 359.0 1.2422810017413293 1
gene  1 6 18 5.443878164253963 0 433.0 5.443878164253963 1
genomeend 2
/* Organism # 003 Fitness:  552.714 Error:  0.000                      */
genomestart  3
trait 1 0.0 0.0 0.0 0.0 0.0 0.0 0.0 0.0 
node 1 1 1 1
node 2 1 1 1
node 3 1 1 1
node 4 1 1 1
node 5 1 1 1
node 6 1 1 1
node 7 1 1 1
node 8 1 1 3
node 18 1 0 2
node 19 1 0 2
gene  1 1 18 -4.496934558659893 0 323.0 -4.496934558659893 1
gene  1 3 18 -1.4633439009058518 0 325.0 -1.4633439009058518 1
gene  1 4 18 -1.727517791599263 0 326.0 -1.727517791599263 1
gene  1 5 18 5.629359662825541 0 327.0 5.629359662825541 1
gene  1 8 18 -2.741574900104763 0 330.0 -2.741574900104763 1
gene  1 1 19 -1.2327170572148385 0 342.0 -1.2327170572148385 1
gene  1 2 19 1.2110857394646337 0 343.0 1.2110857394646337 1
gene  1 4 19 -5.120871511998876 0 345.0 -5.120871511998876 1
gene  1 6 19 -0.6834357435550751 0 347.0 -0.6834357435550751 1
gene  1 7 19 3.619972427428154 0 348.0 3.619972427428154 1
gene  1 8 19 0.444902575612514 0 349.0 0.444902575612514 1
gene  1 18 19 -1.5502320195968127 0 359.0 -1.5502320195968127 1
gene  1 6 18 4.063899059794946 0 433.0 4.063899059794946 1
genomeend 3
/* Organism # 004 Fitness:  2523.768 Error:  0.000                      */
/*  $  This organism is WINNER with genome_id  004 Species # 001 $   */
genomestart  4
trait 1 0.0 0.0 0.0 0.0 0.0 0.0 0.0 0.0 
node 1 1 1 1
node 2 1 1 1
node 3 1 1 1
node 4 1 1 1
node 5 1 1 1
node 6 1 1 1
node 7 1 1 1
node 8 1 1 3
node 18 1 0 2
node 19 1 0 2
gene  1 1 18 -5.044699114334376 0 323.0 -5.044699114334376 1
gene  1 3 18 -1.854466497926994 0 325.0 -1.854466497926994 1
gene  1 4 18 -1.9356314360013243 0 326.0 -1.9356314360013243 1
gene  1 5 18 6.064075859286953 0 327.0 6.064075859286953 1
gene  1 8 18 -2.2880507103053125 0 330.0 -2.2880507103053125 1
gene  1 1 19 -4.145605228922303 0 342.0 -4.145605228922303 1
gene  1 2 19 3.730893700195435 0 343.0 3.730893700195435 1
gene  1 4 19 -2.180296152457175 0 345.0 -2.180296152457175 1
gene  1 6 19 -0.5218688142086103 0 347.0 -0.5218688142086103 1
gene  1 7 19 4.079376807599253 0 348.0 4.079376807599253 1
gene  1 8 19 3.3416290791019754 0 349.0 3.3416290791019754 1
gene  1 18 19 -3.301320492959843 0 359.0 -3.301320492959843 1
gene  1 6 18 4.772561707548659 0 433.0 4.772561707548659 1
genomeend 4
/* Organism # 005 Fitness:  32.902 Error:  0.000                      */
genomestart  5
trait 1 0.0 0.0 0.0 0.0 0.0 0.0 0.0 0.0 
node 1 1 1 1
node 2 1 1 1
node 3 1 1 1
node 4 1 1 1
node 5 1 1 1
node 6 1 1 1
node 7 1 1 1
node 8 1 1 3
node 18 1 0 2
node 19 1 0 2
node 35 1 0 0
gene  1 1 18 -6.407214358470483 0 323.0 -6.407214358470483 1
gene  1 3 18 -3.3471743264992098 0 325.0 -3.3471743264992098 1
gene  1 4 18 -0.6527948934104997 0 326.0 -0.6527948934104997 1
gene  1 5 18 1.000777016159971 0 327.0 1.000777016159971 1
gene  1 8 18 0.5173910995812778 0 330.0 0.5173910995812778 1
gene  1 1 19 -2.182892140493087 0 342.0 -2.182892140493087 1
gene  1 2 19 1.3781814700284043 0 343.0 1.3781814700284043 1
gene  1 4 19 -1.0832104467614148 0 345.0 -1.0832104467614148 1
gene  1 6 19 0.10724351558948975 0 347.0 0.10724351558948975 1
gene  1 7 19 2.6148899765401845 0 348.0 2.6148899765401845 1
gene  1 8 19 -1.8339351712553602 0 349.0 -1.8339351712553602 1
gene  1 18 19 1.178360103351199 0 359.0 1.178360103351199 1
gene  1 1 35 1.9439402758783788 0 428.0 1.9439402758783788 1
gene  1 35 18 -5.077627337740911 0 429.0 -5.077627337740911 1
genomeend 5
/* Organism # 006 Fitness:  32.920 Error:  0.000                      */
genomestart  6
trait 1 0.0 0.5589890402624241 0.0 0.7646639133881404 0.0 0.9637871904960962 0.9153050483604074 0.3706307771013502 
node 1 1 1 1
node 2 1 1 1
node 3 1 1 1
node 4 1 1 1
node 5 1 1 1
node 6 1 1 1
node 7 1 1 1
node 8 1 1 3
node 18 1 0 2
node 19 1 0 2
node 35 1 0 0
gene  1 1 18 -3.2753358117972198 0 323.0 -3.2753358117972198 0
gene  1 3 18 -0.645656931017011 0 325.0 -0.645656931017011 1
gene  1 4 18 -3.7790642543966797 0 326.0 -3.7790642543966797 1
gene  1 5 18 0.21826081298600997 0 327.0 0.21826081298600997 1
gene  1 8 18 -1.384800233958184 0 330.0 -1.384800233958184 1
gene  1 1 19 -2.4279930258293643 0 342.0 -2.4279930258293643 1
gene  1 2 19 1.5449515520353219 0 343.0 1.5449515520353219 1
gene  1 4 19 -3.3024340220143005 0 345.0 -3.3024340220143005 1
gene  1 6 19 0.24825602535952274 0 347.0 0.24825602535952274 1
gene  1 7 19 1.9675191129782525 0 348.0 1.9675191129782525 1
gene  1 8 19 1.1721915068571511 0 349.0 1.1721915068571511 1
gene  1 18 19 1.124414199943458 0 359.0 1.124414199943458 1
gene  1 1 35 -0.5290367059691055 0 428.0 -0.5290367059691055 1
gene  1 35 18 -3.5074406767149844 0 429.0 -3.5074406767149844 1
genomeend 6
/* Organism # 007 Fitness:  68.346 Error:  0.000                      */
genomestart  7
trait 1 0.0 0.0 0.0 0.0 0.0 0.0 0.0 0.0 
node 1 1 1 1
node 2 1 1 1
node 3 1 1 1
node 4 1 1 1
node 5 1 1 1
node 6 1 1 1
node 7 1 1 1
node 8 1 1 3
node 18 1 0 2
node 19 1 0 2
gene  1 1 18 -5.823879545367747 0 323.0 -5.823879545367747 1
gene  1 3 18 0.8072669032733668 0 325.0 0.8072669032733668 1
gene  1 4 18 -1.5292739896460816 0 326.0 -1.5292739896460816 1
gene  1 5 18 -1.8328057728487759 0 327.0 -1.8328057728487759 1
gene  1 8 18 -2.3006962048419615 0 330.0 -2.3006962048419615 1
gene  1 1 19 -0.9353117779252826 0 342.0 -0.9353117779252826 1
gene  1 2 19 2.5446600360961478 0 343.0 2.5446600360961478 1
gene  1 4 19 -2.0229398205119993 0 345.0 -2.0229398205119993 1
gene  1 6 19 0.8653197692107512 0 347.0 0.8653197692107512 1
gene  1 7 19 5.06766258643824 0 348.0 5.06766258643824 1
gene  1 8 19 -0.4090021868337014 0 349.0 -0.4090021868337014 1
gene  1 18 19 1.221816555604942 0 359.0 1.221816555604942 1
gene  1 6 18 5.064290400151343 0 433.0 5.064290400151343 1
genomeend 7
/* Organism # 008 Fitness:  1508.934 Error:  0.000                      */
genomestart  8
trait 1 0.0 0.0 0.0 0.0 0.0 0.0 0.0 0.0 
node 1 1 1 1
node 2 1 1 1
node 3 1 1 1
node 4 1 1 1
node 5 1 1 1
node 6 1 1 1
node 7 1 1 1
node 8 1 1 3
node 18 1 0 2
node 19 1 0 2
gene  1 1 18 -3.9395206403700413 0 323.0 -3.9395206403700413 1
gene  1 3 18 -1.580814275194817 0 325.0 -1.580814275194817 1
gene  1 4 18 -1.495422851134962 0 326.0 -1.495422851134962 1
gene  1 5 18 4.0634775527889095 0 327.0 4.0634775527889095 1
gene  1 8 18 -1.0426408515844252 0 330.0 -1.0426408515844252 1
gene  1 1 19 -2.2561760110837623 0 342.0 -2.2561760110837623 1
gene  1 2 19 1.9200905172288563 0 343.0 1.9200905172288563 1
gene  1 4 19 -3.0524628109981453 0 345.0 -3.0524628109981453 1
gene  1 6 19 1.1390083383353091 0 347.0 1.1390083383353091 1
gene  1 7 19 2.6020788146527396 0 348.0 2.6020788146527396 1
gene  1 8 19 0.3668635489534937 0 349.0 0.3668635489534937 1
gene  1 18 19 -1.5502320195968127 0 359.0 -1.5502320195968127 1
gene  1 6 18 5.667964210269325 0 433.0 5.667964210269325 1
genomeend 8
/* Organism # 009 Fitness:  270.396 Error:  0.000                      */
genomestart  9
trait 1 0.0 0.0 0.0 0.0 0.0 0.0 0.0 0.0 
node 1 1 1 1
node 2 1 1 1
node 3 1 1 1
node 4 1 1 1
node 5 1 1 1
node 6 1 1 1
node 7 1 1 1
node 8 1 1 3
node 18 1 0 2
node 19 1 0 2
gene  1 1 18 -1.5380946280695436 0 323.0 -1.5380946280695436 1
gene  1 3 18 -3.6047030476270825 0 325.0 -3.6047030476270825 1
gene  1 4 18 -2.0652189462638546 0 326.0 -2.0652189462638546 1
gene  1 5 18 1.6491229117315853 0 327.0 1.6491229117315853 1
gene  1 8 18 1.038191413154164 0 330.0 1.038191413154164 1
gene  1 1 19 -1.1021107863750745 0 342.0 -1.1021107863750745 1
gene  1 2 19 1.439916297943401 0 343.0 1.439916297943401 1
gene  1 4 19 -2.7574881802564986 0 345.0 -2.7574881802564986 1
gene  1 6 19 2.199957596648833 0 347.0 2.199957596648833 1
gene  1 7 19 2.0619243457436394 0 348.0 2.0619243457436394 1
gene  1 8 19 3.3359583192199826 0 349.0 3.3359583192199826 1
gene  1 18 19 0.7230645913702269 0 359.0 0.7230645913702269 1
gene  1 6 18 5.852156032866919 0 433.0 5.852156032866919 1
genomeend 9
/* Organism # 010 Fitness:  1942.310 Error:  0.000                      */
genomestart  10
trait 1 0.0 0.0 0.0 0.0 0.0 0.0 0.0 0.0 
node 1 1 1 1
node 2 1 1 1
node 3 1 1 1
node 4 1 1 1
node 5 1 1 1
node 6 1 1 1
node 7 1 1 1
node 8 1 1 3
node 18 1 0 2
node 19 1 0 2
gene  1 1 18 -4.046607921828127 0 323.0 -4.046607921828127 1
gene  1 3 18 -0.9695707527830637 0 325.0 -0.9695707527830637 1
gene  1 4 18 -2.2556032262634895 0 326.0 -2.2556032262634895 1
gene  1 5 18 3.3467125730928977 0 327.0 3.3467125730928977 1
gene  1 8 18 -1.2497899456131787 0 330.0 -1.2497899456131787 1
gene  1 1 19 -2.6304902752841595 0 342.0 -2.6304902752841595 1
gene  1 2 19 1.794552496777587 0 343.0 1.794552496777587 1
gene  1 4 19 -2.510123242007842 0 345.0 -2.510123242007842 1
gene  1 6 19 0.20297935511547094 0 347.0 0.20297935511547094 1
gene  1 7 19 3.1965964748673246 0 348.0 3.1965964748673246 1
gene  1 8 19 0.7551573478088117 0 349.0 0.7551573478088117 1
gene  1 18 19 -0.41358371411329287 0 359.0 -0.41358371411329287 1
gene  1 6 18 5.312358870207789 0 433.0 5.312358870207789 1
genomeend 10
/* Organism # 011 Fitness:  74.978 Error:  0.000                      */
genomestart  11
trait 1 0.0 0.0 0.0 0.0 0.0 0.0 0.0 0.0 
node 1 1 1 1
node 2 1 1 1
node 3 1 1 1
node 4 1 1 1
node 5 1 1 1
node 6 1 1 1
node 7 1 1 1
node 8 1 1 3
node 18 1 0 2
node 19 1 0 2
gene  1 1 18 -6.068574064399837 0 323.0 -6.068574064399837 1
gene  1 3 18 -1.3041882928182604 0 325.0 -1.3041882928182604 1
gene  1 4 18 -3.6847029964512963 0 326.0 -3.6847029964512963 1
gene  1 5 18 3.3628599940568416 0 327.0 3.3628599940568416 1
gene  1 8 18 0.3393169819652786 0 330.0 0.3393169819652786 1
gene  1 1 19 -1.0227975371557674 0 342.0 -1.0227975371557674 1
gene  1 2 19 1.6106509525916006 0 343.0 1.6106509525916006 1
gene  1 4 19 -0.9585770013552544 0 345.0 -0.9585770013552544 1
gene  1 6 19 -1.2579655261388243 0 347.0 -1.2579655261388243 1
gene  1 7 19 1.8210028443358366 0 348.0 1.8210028443358366 1
gene  1 8 19 1.2257799156191438 0 349.0 1.2257799156191438 1
gene  1 18 19 -1.5502320195968127 0 359.0 -1.5502320195968127 1
gene  1 6 18 -0.0016358566068972458 0 433.0 -0.0016358566068972458 1
genomeend 11
/* Organism # 012 Fitness:  1852.741 Error:  0.000                      */
genomestart  12
trait 1 0.0 0.0 0.0 0.0 0.0 0.0 0.0 0.0 
node 1 1 1 1
node 2 1 1 1
node 3 1 1 1
node 4 1 1 1
node 5 1 1 1
node 6 1 1 1
node 7 1 1 1
node 8 1 1 3
node 18 1 0 2
node 19 1 0 2
gene  1 1 18 -4.791143326511163 0 323.0 -4.791143326511163 1
gene  1 3 18 -1.6564154025726292 0 325.0 -1.6564154025726292 1
gene  1 4 18 -2.3446388169484584 0 326.0 -2.3446388169484584 1
gene  1 5 18 4.185145944657887 0 327.0 4.185145944657887 1
gene  1 8 18 -1.6168938287552188 0 330.0 -1.6168938287552188 1
gene  1 1 19 -2.8665752659871084 0 342.0 -2.8665752659871084 1
gene  1 2 19 2.5443614517553965 0 343.0 2.5443614517553965 1
gene  1 4 19 -3.373690822064239 0 345.0 -3.373690822064239 1
gene  1 6 19 0.9747407053502533 0 347.0 0.9747407053502533 1
gene  1 7 19 3.3983694399949655 0 348.0 3.3983694399949655 1
gene  1 8 19 1.4379199921799122 0 349.0 1.4379199921799122 1
gene  1 18 19 -1.5502320195968127 0 359.0 -1.5502320195968127 1
gene  1 6 18 4.772561707548659 0 433.0 4.772561707548659 1
gene  1 5 19 -2.791253791457977 0 456.0 -2.791253791457977 1
genomeend 12
/*-------------------------------------------------------------------*/
/* Species # 002         : (size= 010) (AvfFit= 0.000) (Age= 8.000)  */
/*-------------------------------------------------------------------*/
/* Organism # 013 Fitness:  944.176 Error:  0.000                      */
genomestart  13
trait 1 0.0 0.0 0.0 0.0 0.0 0.0 0.0 0.0 
node 1 1 1 1
node 2 1 1 1
node 3 1 1 1
node 4 1 1 1
node 5 1 1 1
node 6 1 1 1
node 7 1 1 1
node 8 1 1 3
node 18 1 0 2
node 19 1 0 2
gene  1 1 18 3.0616351839667644 0 323.0 3.0616351839667644 1
gene  1 2 18 -3.1393452840448726 0 324.0 -3.1393452840448726 1
gene  1 3 18 -3.355703975068039 0 325.0 -3.355703975068039 1
gene  1 5 18 3.4402143331501387 0 327.0 3.4402143331501387 1
gene  1 6 18 5.048528044397246 0 328.0 5.048528044397246 1
gene  1 7 18 -2.351027432973797 0 329.0 -2.351027432973797 1
gene  1 3 19 -2.3826919014572088 0 344.0 -2.3826919014572088 1
gene  1 4 19 0.2592691853263134 0 345.0 0.2592691853263134 1
gene  1 5 19 2.1902841003810885 0 346.0 2.1902841003810885 1
gene  1 6 19 -0.7267571562367177 0 347.0 -0.7267571562367177 1
gene  1 8 19 -0.1791752399753328 0 349.0 -0.1791752399753328 1
gene  1 18 19 2.848505329041208 0 359.0 2.848505329041208 1
gene  1 7 19 -3.2791838761657623 0 432.0 -3.2791838761657623 1
genomeend 13
/* Organism # 014 Fitness:  726.473 Error:  0.000                      */
genomestart  14
trait 1 0.0 0.0 0.0 0.0 0.0 0.0 0.0 0.0 
node 1 1 1 1
node 2 1 1 1
node 3 1 1 1
node 4 1 1 1
node 5 1 1 1
node 6 1 1 1
node 7 1 1 1
node 8 1 1 3
node 18 1 0 2
node 19 1 0 2
gene  1 1 18 1.6304033286463746 0 323.0 1.6304033286463746 1
gene  1 2 18 -6.153504561805317 0 324.0 -6.153504561805317 1
gene  1 3 18 -1.846785119495178 0 325.0 -1.846785119495178 1
gene  1 5 18 0.3233238972949035 0 327.0 0.3233238972949035 1
gene  1 6 18 3.9107928922577075 0 328.0 3.9107928922577075 1
gene  1 7 18 1.0020597732916428 0 329.0 1.0020597732916428 1
gene  1 3 19 -2.9524125691906695 0 344.0 -2.9524125691906695 1
gene  1 4 19 2.2033635975495818 0 345.0 2.2033635975495818 1
gene  1 5 19 4.457370256138966 0 346.0 4.457370256138966 1
gene  1 6 19 -0.9475547605829734 0 347.0 -0.9475547605829734 1
gene  1 8 19 1.1409503298371346 0 349.0 1.1409503298371346 1
gene  1 18 19 2.796756902374333 0 359.0 2.796756902374333 1
gene  1 7 19 -4.168955672202742 0 432.0 -4.168955672202742 1
genomeend 14
/* Organism # 015 Fitness:  552.764 Error:  0.000                      */
genomestart  15
trait 1 0.0 0.0 0.0 0.0 0.0 0.0 0.0 0.0 
node 1 1 1 1
node 2 1 1 1
node 3 1 1 1
node 4 1 1 1
node 5 1 1 1
node 6 1 1 1
node 7 1 1 1
node 8 1 1 3
node 18 1 0 2
node 19 1 0 2
gene  1 1 18 4.268446681021016 0 323.0 4.268446681021016 1
gene  1 2 18 -2.7616574569463417 0 324.0 -2.7616574569463417 1
gene  1 3 18 -5.224992205488151 0 325.0 -5.224992205488151 1
gene  1 5 18 5.266443312911056 0 327.0 5.266443312911056 1
gene  1 6 18 3.4878355120508147 0 328.0 3.4878355120508147 1
gene  1 7 18 -1.497920637816619 0 329.0 -1.497920637816619 1
gene  1 3 19 -2.898126318051598 0 344.0 -2.898126318051598 1
gene  1 4 19 0.12488015951681386 0 345.0 0.12488015951681386 1
gene  1 5 19 2.3428488766143483 0 346.0 2.3428488766143483 1
gene  1 6 19 0.29114599417682463 0 347.0 0.29114599417682463 1
gene  1 8 19 -1.1801541194344054 0 349.0 -1.1801541194344054 1
gene  1 18 19 2.848505329041208 0 359.0 2.848505329041208 1
gene  1 7 19 -5.068255948923583 0 432.0 -5.068255948923583 1
genomeend 15
/* Organism # 016 Fitness:  265.787 Error:  0.000                      */
genomestart  16
trait 1 0.0 0.0 0.0 0.0 0.0 0.0 0.0 0.0 
node 1 1 1 1
node 2 1 1 1
node 3 1 1 1
node 4 1 1 1
node 5 1 1 1
node 6 1 1 1
node 7 1 1 1
node 8 1 1 3
node 18 1 0 2
node 19 1 0 2
gene  1 1 18 0.5537483065642865 0 323.0 0.5537483065642865 1
gene  1 2 18 -3.0633576410162062 0 324.0 -3.0633576410162062 1
gene  1 3 18 0.11178918261496729 0 325.0 0.11178918261496729 1
gene  1 5 18 5.266034239750377 0 327.0 5.266034239750377 1
gene  1 6 18 2.587439072779837 0 328.0 2.587439072779837 1
gene  1 7 18 0.9829182375065912 0 329.0 0.9829182375065912 1
gene  1 3 19 -3.3699026646277215 0 344.0 -3.3699026646277215 1
gene  1 4 19 1.4618893439389475 0 345.0 1.4618893439389475 1
gene  1 5 19 3.0583213061535885 0 346.0 3.0583213061535885 1
gene  1 6 19 -0.24155526973725427 0 347.0 -0.24155526973725427 1
gene  1 8 19 -0.2169152656140807 0 349.0 -0.2169152656140807 1
gene  1 18 19 -1.190791991601748 0 359.0 -1.190791991601748 1
gene  1 7 19 -6.020088374394678 0 432.0 -6.020088374394678 1
genomeend 16
/* Organism # 017 Fitness:  205.601 Error:  0.000                      */
genomestart  17
trait 1 0.0 0.0 0.0 0.0 0.0 0.0 0.0 0.0 
node 1 1 1 1
node 2 1 1 1
node 3 1 1 1
node 4 1 1 1
node 5 1 1 1
node 6 1 1 1
node 7 1 1 1
node 8 1 1 3
node 18 1 0 2
node 19 1 0 2
gene  1 1 18 1.2952009211567745 0 323.0 1.2952009211567745 1
gene  1 2 18 -3.044280262656104 0 324.0 -3.044280262656104 1
gene  1 3 18 -4.768623358408021 0 325.0 -4.768623358408021 1
gene  1 5 18 2.2447119188888367 0 327.0 2.2447119188888367 1
gene  1 6 18 5.058805016896882 0 328.0 5.058805016896882 1
gene  1 7 18 -3.127041065940971 0 329.0 -3.127041065940971 1
gene  1 3 19 -4.349408687494615 0 344.0 -4.349408687494615 1
gene  1 4 19 -0.41170515517230566 0 345.0 -0.41170515517230566 1
gene  1 5 19 1.1178839304734645 0 346.0 1.1178839304734645 1
gene  1 6 19 0.4314068093723822 0 347.0 0.4314068093723822 1
gene  1 8 19 1.529224287357951 0 349.0 1.529224287357951 1
gene  1 18 19 2.848505329041208 0 359.0 2.848505329041208 1
gene  1 7 19 -3.995127225843107 0 432.0 -3.995127225843107 1
genomeend 17
/* Organism # 018 Fitness:  67.020 Error:  0.000                      */
genomestart  18
trait 1 0.0 0.0 0.0 0.0 0.0 0.0 0.0 0.0 
node 1 1 1 1
node 2 1 1 1
node 3 1 1 1
node 4 1 1 1
node 5 1 1 1
node 6 1 1 1
node 7 1 1 1
node 8 1 1 3
node 18 1 0 2
node 19 1 0 2
gene  1 1 18 2.1628790189939995 0 323.0 2.1628790189939995 1
gene  1 2 18 -3.1393452840448726 0 324.0 -3.1393452840448726 1
gene  1 3 18 0.5932286479794477 0 325.0 0.5932286479794477 1
gene  1 5 18 3.555636169695857 0 327.0 3.555636169695857 1
gene  1 6 18 2.0500468015401845 0 328.0 2.0500468015401845 1
gene  1 7 18 -2.351027432973797 0 329.0 -2.351027432973797 1
gene  1 3 19 -1.4153236679277454 0 344.0 -1.4153236679277454 1
gene  1 4 19 3.0250643992267583 0 345.0 3.0250643992267583 1
gene  1 5 19 2.1902841003810885 0 346.0 2.1902841003810885 1
gene  1 6 19 -0.7267571562367177 0 347.0 -0.7267571562367177 1
gene  1 8 19 -1.3046095280040597 0 349.0 -1.3046095280040597 1
gene  1 18 19 2.2151329921387046 0 359.0 2.2151329921387046 1
gene  1 7 19 -3.2791838761657623 0 432.0 -3.2791838761657623 1
genomeend 18
/* Organism # 019 Fitness:  174.785 Error:  0.000                      */
genomestart  19
trait 1 0.0 0.0 0.0 0.0 0.0 0.0 0.0 0.0 
node 1 1 1 1
node 2 1 1 1
node 3 1 1 1
node 4 1 1 1
node 5 1 1 1
node 6 1 1 1
node 7 1 1 1
node 8 1 1 3
node 18 1 0 2
node 19 1 0 2
gene  1 1 18 4.050877543850581 0 323.0 4.050877543850581 1
gene  1 2 18 -5.231872877242915 0 324.0 -5.231872877242915 1
gene  1 3 18 0.12796973222947328 0 325.0 0.12796973222947328 1
gene  1 5 18 3.457810448930748 0 327.0 3.457810448930748 1
gene  1 6 18 4.509069141161 0 328.0 4.509069141161 1
gene  1 7 18 1.168265151411587 0 329.0 1.168265151411587 1
gene  1 3 19 -1.8848572334321487 0 344.0 -1.8848572334321487 1
gene  1 4 19 -1.5265724018615312 0 345.0 -1.5265724018615312 1
gene  1 5 19 1.4364198054776451 0 346.0 1.4364198054776451 1
gene  1 6 19 -0.42919700389222726 0 347.0 -0.42919700389222726 1
gene  1 8 19 -1.816839912149588 0 349.0 -1.816839912149588 1
gene  1 18 19 2.443727973858811 0 359.0 2.443727973858811 1
gene  1 7 19 -4.209017672070626 0 432.0 -4.209017672070626 1
genomeend 19
/* Organism # 020 Fitness:  307.396 Error:  0.000                      */
genomestart  20
trait 1 0.0 0.0 0.0 0.0 0.0 0.0 0.0 0.0 
node 1 1 1 1
node 2 1 1 1
node 3 1 1 1
node 4 1 1 1
node 5 1 1 1
node 6 1 1 1
node 7 1 1 1
node 8 1 1 3
node 18 1 0 2
node 19 1 0 2
gene  1 1 18 3.220418356397618 0 323.0 3.220418356397618 1
gene  1 2 18 -6.748644152687481 0 324.0 -6.748644152687481 1
gene  1 3 18 -1.3124131604383225 0 325.0 -1.3124131604383225 1
gene  1 5 18 4.199791258985495 0 327.0 4.199791258985495 1
gene  1 6 18 -0.29873120369628126 0 328.0 -0.29873120369628126 1
gene  1 7 18 0.782428029923538 0 329.0 0.782428029923538 1
gene  1 3 19 1.6657905853044774 0 344.0 1.6657905853044774 1
gene  1 4 19 2.310540914673885 0 345.0 2.310540914673885 1
gene  1 5 19 0.9164158853105324 0 346.0 0.9164158853105324 1
gene  1 6 19 0.4261078593907326 0 347.0 0.4261078593907326 1
gene  1 8 19 -0.7254849236457506 0 349.0 -0.7254849236457506 1
gene  1 18 19 4.147029795961969 0 359.0 4.147029795961969 1
gene  1 7 19 -5.0971750331424035 0 432.0 -5.0971750331424035 1
genomeend 20
/* Organism # 021 Fitness:  525.984 Error:  0.000                      */
genomestart  21
trait 1 0.0 0.0 0.0 0.0 0.0 0.0 0.0 0.0 
node 1 1 1 1
node 2 1 1 1
node 3 1 1 1
node 4 1 1 1
node 5 1 1 1
node 6 1 1 1
node 7 1 1 1
node 8 1 1 3
node 18 1 0 2
node 19 1 0 2
gene  1 1 18 0.27707670125056416 0 323.0 0.27707670125056416 1
gene  1 2 18 -5.4443679651865855 0 324.0 -5.4443679651865855 1
gene  1 3 18 2.330006895095363 0 325.0 2.330006895095363 1
gene  1 5 18 3.668116407947963 0 327.0 3.668116407947963 1
gene  1 6 18 2.0500468015401845 0 328.0 2.0500468015401845 1
gene  1 7 18 -1.9779012324211982 0 329.0 -1.9779012324211982 1
gene  1 3 19 -1.6648872461766668 0 344.0 -1.6648872461766668 1
gene  1 4 19 3.0250643992267583 0 345.0 3.0250643992267583 1
gene  1 5 19 -1.545652679944517 0 346.0 -1.545652679944517 1
gene  1 6 19 0.3677054599723186 0 347.0 0.3677054599723186 1
gene  1 8 19 -3.15912744513158 0 349.0 -3.15912744513158 1
gene  1 18 19 2.4067562485891836 0 359.0 2.4067562485891836 1
gene  1 2 19 -4.096953648067891 0 444.0 -4.096953648067891 1
genomeend 21
/* Organism # 022 Fitness:  113.174 Error:  0.000                      */
genomestart  22
trait 1 0.0 0.0 0.0 0.0 0.0 0.0 0.0 0.0 
node 1 1 1 1
node 2 1 1 1
node 3 1 1 1
node 4 1 1 1
node 5 1 1 1
node 6 1 1 1
node 7 1 1 1
node 8 1 1 3
node 18 1 0 2
node 19 1 0 2
gene  1 1 18 2.695878093783791 0 323.0 2.695878093783791 1
gene  1 2 18 -6.47953735975971 0 324.0 -6.47953735975971 1
gene  1 3 18 2.2514091860079084 0 325.0 2.2514091860079084 1
gene  1 5 18 2.4101317507614324 0 327.0 2.4101317507614324 1
gene  1 6 18 3.083439750264872 0 328.0 3.083439750264872 1
gene  1 7 18 -3.1456434940754194 0 329.0 -3.1456434940754194 1
gene  1 3 19 -2.870735817109366 0 344.0 -2.870735817109366 1
gene  1 4 19 1.4529604012022725 0 345.0 1.4529604012022725 1
gene  1 5 19 5.372313063440986 0 346.0 5.372313063440986 1
gene  1 6 19 -0.26674510610333657 0 347.0 -0.26674510610333657 1
gene  1 8 19 -1.8402839852567254 0 349.0 -1.8402839852567254 1
gene  1 18 19 0.8358926306966341 0 359.0 0.8358926306966341 1
gene  1 2 19 -3.611481235207769 0 444.0 -3.611481235207769 1
genomeend 22
/*-------------------------------------------------------------------*/
/* Species # 003         : (size= 001) (AvfFit= 0.000) (Age= 8.000)  */
/*-------------------------------------------------------------------*/
/* Organism # 023 Fitness:  34.988 Error:  0.000                      */
genomestart  23
trait 1 0.0 0.0 0.0 0.0 0.0 0.0 0.0 0.0 
node 1 1 1 1
node 2 1 1 1
node 3 1 1 1
node 4 1 1 1
node 5 1 1 1
node 6 1 1 1
node 7 1 1 1
node 8 1 1 3
node 18 1 0 2
node 19 1 0 2
node 29 1 0 0
node 41 1 0 0
node 45 1 0 0
gene  1 1 18 -1.5325963316576356 0 323.0 -1.5325963316576356 0
gene  1 2 18 -0.9296103634436779 0 324.0 -0.9296103634436779 0
gene  1 4 18 3.547741475383078 0 326.0 3.547741475383078 1
gene  1 6 18 1.7976300446899678 0 328.0 1.7976300446899678 0
gene  1 7 18 -2.7420911246811475 0 329.0 -2.7420911246811475 1
gene  1 8 18 -0.8646051539355222 0 330.0 -0.8646051539355222 1
gene  1 1 19 -0.9692640710814668 0 342.0 -0.9692640710814668 1
gene  1 3 19 0.17328897735736182 0 344.0 0.17328897735736182 1
gene  1 5 19 -0.6292106850965751 0 346.0 -0.6292106850965751 1
gene  1 6 19 1.334374339362216 0 347.0 1.334374339362216 1
gene  1 7 19 -1.1069984115366336 0 348.0 -1.1069984115366336 1
gene  1 1 29 1.0228390208946216 0 405.0 1.0228390208946216 1
gene  1 29 18 -0.2260329727187751 0 406.0 -0.2260329727187751 1
gene  1 2 41 1.0 0 454.0 0.0 1
gene  1 41 18 -0.9296103634436779 0 455.0 0.0 1
gene  1 6 45 1.0 0 467.0 0.0 1
gene  1 45 18 1.7976300446899678 0 468.0 0.0 1
genomeend 23
/*-------------------------------------------------------------------*/
/* Species # 004         : (size= 002) (AvfFit= 0.000) (Age= 8.000)  */
/*-------------------------------------------------------------------*/
/* Organism # 024 Fitness:  124.670 Error:  0.000                      */
genomestart  24
trait 1 0.0 0.0 0.0 0.0 0.010624957967187765 0.0 0.0 0.35635014540415116 
node 1 1 1 1
node 2 1 1 1
node 3 1 1 1
node 4 1 1 1
node 5 1 1 1
node 6 1 1 1
node 7 1 1 1
node 8 1 1 3
node 18 1 0 2
node 19 1 0 2
node 24 1 0 0
gene  1 1 18 0.9962338226305942 0 323.0 0.9962338226305942 0
gene  1 2 18 -0.18047012545244567 0 324.0 -0.18047012545244567 1
gene  1 3 18 -2.237603111062263 0 325.0 -2.237603111062263 1
gene  1 4 18 3.077490835375077 0 326.0 3.077490835375077 1
gene  1 7 18 -1.492182225451613 0 329.0 -1.492182225451613 1
gene  1 8 18 0.6383493012740897 0 330.0 0.6383493012740897 1
gene  1 1 19 -0.36641516344888636 0 342.0 -0.36641516344888636 1
gene  1 2 19 -1.343009055472944 0 343.0 -1.343009055472944 1
gene  1 3 19 1.8545585300157938 0 344.0 1.8545585300157938 1
gene  1 5 19 0.6077819553113935 0 346.0 0.6077819553113935 1
gene  1 6 19 -1.150736056341469 0 347.0 -1.150736056341469 1
gene  1 7 19 0.7706262314886847 0 348.0 0.7706262314886847 1
gene  1 8 19 1.3534040815728194 0 349.0 1.3534040815728194 1
gene  1 18 19 3.1851509576040025 0 359.0 3.1851509576040025 1
gene  1 1 24 0.7531245682094014 0 380.0 0.7531245682094014 1
gene  1 24 18 0.8400256434468714 0 381.0 0.8400256434468714 1
genomeend 24
/* Organism # 025 Fitness:  128.385 Error:  0.000                      */
genomestart  25
trait 1 0.0 0.0 0.0 0.04702450508230893 0.010624957967187765 0.990858587702808 0.5132016878872345 0.35635014540415116 
node 1 1 1 1
node 2 1 1 1
node 3 1 1 1
node 4 1 1 1
node 5 1 1 1
node 6 1 1 1
node 7 1 1 1
node 8 1 1 3
node 18 1 0 2
node 19 1 0 2
node 24 1 0 0
gene  1 1 18 0.9025137005697779 0 323.0 0.9025137005697779 0
gene  1 2 18 -3.1070791700492517 0 324.0 -3.1070791700492517 1
gene  1 3 18 0.3455594052290982 0 325.0 0.3455594052290982 1
gene  1 4 18 1.656663154572546 0 326.0 1.656663154572546 1
gene  1 7 18 0.3396667931188486 0 329.0 0.3396667931188486 1
gene  1 8 18 2.690061857386257 0 330.0 2.690061857386257 1
gene  1 1 19 4.217687630650956 0 342.0 4.217687630650956 1
gene  1 2 19 -1.4999836821635637 0 343.0 -1.4999836821635637 1
gene  1 3 19 2.4426379186789986 0 344.0 2.4426379186789986 1
gene  1 5 19 1.021045172079509 0 346.0 1.021045172079509 1
gene  1 6 19 0.3114319882971487 0 347.0 0.3114319882971487 1
gene  1 7 19 0.5978170336941682 0 348.0 0.5978170336941682 1
gene  1 8 19 -1.2085992089397684 0 349.0 -1.2085992089397684 1
gene  1 18 19 1.0337136674697731 0 359.0 1.0337136674697731 1
gene  1 1 24 1.6035962452608181 0 380.0 1.6035962452608181 1
gene  1 24 18 0.4048143036138714 0 381.0 0.4048143036138714 1
genomeend 25
/*-------------------------------------------------------------------*/
/* Species # 005         : (size= 004) (AvfFit= 0.000) (Age= 8.000)  */
/*-------------------------------------------------------------------*/
/* Organism # 026 Fitness:  369.691 Error:  0.000                      */
genomestart  26
trait 1 0.0 0.0 0.0 0.0 0.0 0.0 0.0 0.0 
node 1 1 1 1
node 2 1 1 1
node 3 1 1 1
node 4 1 1 1
node 5 1 1 1
node 6 1 1 1
node 7 1 1 1
node 8 1 1 3
node 18 1 0 2
node 19 1 0 2
node 20 1 0 0
node 43 1 0 0
gene  1 1 18 -2.441450113810328 0 323.0 -2.441450113810328 0
gene  1 2 18 -1.6817258883250046 0 324.0 -1.6817258883250046 0
gene  1 3 18 -3.3676416472709425 0 325.0 -3.3676416472709425 1
gene  1 4 18 3.415868807204218 0 326.0 3.415868807204218 1
gene  1 8 18 -0.4956791632512516 0 330.0 -0.4956791632512516 1
gene  1 5 19 -1.667181830398628 0 346.0 -1.667181830398628 1
gene  1 6 19 -0.37310394621076504 0 347.0 -0.37310394621076504 1
gene  1 7 19 1.6017151766146787 0 348.0 1.6017151766146787 1
gene  1 2 20 -0.8628051790452236 0 363.0 -0.8628051790452236 1
gene  1 20 18 0.7084627430231019 0 364.0 0.7084627430231019 1
gene  1 1 43 1.0 0 460.0 0.0 1
gene  1 43 18 -2.441450113810328 0 461.0 0.0 1
genomeend 26
/* Organism # 027 Fitness:  33.020 Error:  0.000                      */
genomestart  27
trait 1 0.0 0.0 0.0 0.0 0.0 0.0 0.0 0.0 
node 1 1 1 1
node 2 1 1 1
node 3 1 1 1
node 4 1 1 1
node 5 1 1 1
node 6 1 1 1
node 7 1 1 1
node 8 1 1 3
node 18 1 0 2
node 19 1 0 2
node 20 1 0 0
gene  1 1 18 -2.441450113810328 0 323.0 -2.441450113810328 1
gene  1 2 18 -0.47807288883648513 0 324.0 -0.47807288883648513 0
gene  1 3 18 -4.3647848138825855 0 325.0 -4.3647848138825855 1
gene  1 4 18 2.324164137144977 0 326.0 2.324164137144977 1
gene  1 8 18 -1.8958997162774918 0 330.0 -1.8958997162774918 1
gene  1 5 19 -2.535655525544853 0 346.0 -2.535655525544853 1
gene  1 6 19 -0.37310394621076504 0 347.0 -0.37310394621076504 1
gene  1 7 19 0.43737198352673157 0 348.0 0.43737198352673157 1
gene  1 2 20 -0.1825392561350252 0 363.0 -0.1825392561350252 1
gene  1 20 18 0.7084627430231019 0 364.0 0.7084627430231019 1
genomeend 27
/* Organism # 028 Fitness:  243.257 Error:  0.000                      */
genomestart  28
trait 1 0.0 0.0 0.0 0.0 0.0 0.0 0.0 0.0 
node 1 1 1 1
node 2 1 1 1
node 3 1 1 1
node 4 1 1 1
node 5 1 1 1
node 6 1 1 1
node 7 1 1 1
node 8 1 1 3
node 18 1 0 2
node 19 1 0 2
node 20 1 0 0
gene  1 1 18 -0.9821541025915173 0 323.0 -0.9821541025915173 1
gene  1 2 18 -1.7451117851861888 0 324.0 -1.7451117851861888 0
gene  1 3 18 -2.3986440074936697 0 325.0 -2.3986440074936697 1
gene  1 4 18 2.404257561620005 0 326.0 2.404257561620005 1
gene  1 8 18 1.0675125249999724 0 330.0 1.0675125249999724 1
gene  1 5 19 -3.259105526125806 0 346.0 -3.259105526125806 1
gene  1 6 19 -0.5875470151991409 0 347.0 -0.5875470151991409 1
gene  1 7 19 2.815329271340831 0 348.0 2.815329271340831 1
gene  1 2 20 -0.5639147003272724 0 363.0 -0.5639147003272724 1
gene  1 20 18 0.39955317104175914 0 364.0 0.39955317104175914 1
genomeend 28
/* Organism # 029 Fitness:  67.955 Error:  0.000                      */
genomestart  29
trait 1 0.0 0.0 0.0 0.0 0.0 0.0 0.0 0.0 
node 1 1 1 1
node 2 1 1 1
node 3 1 1 1
node 4 1 1 1
node 5 1 1 1
node 6 1 1 1
node 7 1 1 1
node 8 1 1 3
node 18 1 0 2
node 19 1 0 2
node 20 1 0 0
gene  1 1 18 2.258743871394327 0 323.0 2.258743871394327 1
gene  1 2 18 -1.4147498927844837 0 324.0 -1.4147498927844837 0
gene  1 3 18 -2.694980551987162 0 325.0 -2.694980551987162 1
gene  1 4 18 3.9211845388358713 0 326.0 3.9211845388358713 1
gene  1 8 18 1.6812260468849973 0 330.0 1.6812260468849973 1
gene  1 5 19 -1.8651340401747363 0 346.0 -1.8651340401747363 1
gene  1 6 19 -2.565375263001507 0 347.0 -2.565375263001507 1
gene  1 7 19 0.9487071981007948 0 348.0 0.9487071981007948 1
gene  1 2 20 -1.51209305233523 0 363.0 -1.51209305233523 1
gene  1 20 18 -0.7368095732271235 0 364.0 -0.7368095732271235 1
genomeend 29
/*-------------------------------------------------------------------*/
/* Species # 006         : (size= 003) (AvfFit= 0.000) (Age= 8.000)  */
/*-------------------------------------------------------------------*/
/* Organism # 030 Fitness:  121.759 Error:  0.000                      */
genomestart  30
trait 1 0.0 0.5428773517450745 0.0 0.0 0.0 0.0 0.23761056596579933 0.0 
node 1 1 1 1
node 2 1 1 1
node 3 1 1 1
node 4 1 1 1
node 5 1 1 1
node 6 1 1 1
node 7 1 1 1
node 8 1 1 3
node 18 1 0 2
node 19 1 0 2
node 21 1 0 0
gene  1 1 18 1.9903684641917998 0 323.0 1.9903684641917998 0
gene  1 3 18 -2.234307493803388 0 325.0 -2.234307493803388 1
gene  1 5 18 0.45740865674029063 0 327.0 0.45740865674029063 1
gene  1 7 18 2.856084610071618 0 329.0 2.856084610071618 1
gene  1 1 19 -2.1935843803206225 0 342.0 -2.1935843803206225 1
gene  1 2 19 -0.36486686264539103 0 343.0 -0.36486686264539103 1
gene  1 3 19 -4.031872397172335 0 344.0 -4.031872397172335 1
gene  1 4 19 1.2053685092017483 0 345.0 1.2053685092017483 1
gene  1 5 19 -2.895601727892571 0 346.0 -2.895601727892571 1
gene  1 6 19 0.3522250410432535 0 347.0 0.3522250410432535 1
gene  1 7 19 -2.315157894420096 0 348.0 -2.315157894420096 1
gene  1 8 19 3.1887898581765626 0 349.0 3.1887898581765626 1
gene  1 1 21 -0.658024646275934 0 365.0 -0.658024646275934 1
gene  1 21 18 -3.09388672305836 0 366.0 -3.09388672305836 1
gene  1 4 21 -0.8717543158796621 0 384.0 -0.8717543158796621 1
genomeend 30
/* Organism # 031 Fitness:  312.528 Error:  0.000                      */
genomestart  31
trait 1 0.0 0.0 0.0 0.0 0.0 0.0 0.0 0.0 
node 1 1 1 1
node 2 1 1 1
node 3 1 1 1
node 4 1 1 1
node 5 1 1 1
node 6 1 1 1
node 7 1 1 1
node 8 1 1 3
node 18 1 0 2
node 19 1 0 2
node 21 1 0 0
gene  1 1 18 1.0624619764204661 0 323.0 1.0624619764204661 0
gene  1 3 18 -3.799614355381019 0 325.0 -3.799614355381019 1
gene  1 5 18 1.383813892028524 0 327.0 1.383813892028524 1
gene  1 7 18 1.726057430479767 0 329.0 1.726057430479767 1
gene  1 1 19 -2.6461256110735407 0 342.0 -2.6461256110735407 1
gene  1 2 19 -1.333524479448783 0 343.0 -1.333524479448783 1
gene  1 3 19 1.1985119949600636 0 344.0 1.1985119949600636 1
gene  1 4 19 1.110461119171081 0 345.0 1.110461119171081 1
gene  1 5 19 2.4921832745721098 0 346.0 2.4921832745721098 1
gene  1 6 19 2.76197945028979 0 347.0 2.76197945028979 1
gene  1 7 19 -0.7662956655154751 0 348.0 -0.7662956655154751 1
gene  1 8 19 0.7862707055523543 0 349.0 0.7862707055523543 1
gene  1 1 21 -0.7860251587322362 0 365.0 -0.7860251587322362 1
gene  1 21 18 1.5841690803086101 0 366.0 1.5841690803086101 1
gene  1 4 21 -1.183767830962258 0 384.0 -1.183767830962258 1
gene  1 6 21 -5.3464339365640745 0 450.0 -5.3464339365640745 1
genomeend 31
/* Organism # 032 Fitness:  311.604 Error:  0.000                      */
genomestart  32
trait 1 0.0 0.0 0.0 0.0 0.0 0.0 0.0 0.0 
node 1 1 1 1
node 2 1 1 1
node 3 1 1 1
node 4 1 1 1
node 5 1 1 1
node 6 1 1 1
node 7 1 1 1
node 8 1 1 3
node 18 1 0 2
node 19 1 0 2
node 21 1 0 0
gene  1 1 18 2.0750772449481967 0 323.0 2.0750772449481967 0
gene  1 3 18 -3.042119245218869 0 325.0 -3.042119245218869 1
gene  1 5 18 1.8054949708759516 0 327.0 1.8054949708759516 1
gene  1 7 18 1.8344542086651403 0 329.0 1.8344542086651403 1
gene  1 1 19 -1.4406173402899565 0 342.0 -1.4406173402899565 1
gene  1 2 19 -0.8281186940118439 0 343.0 -0.8281186940118439 1
gene  1 3 19 -0.5190710339552591 0 344.0 -0.5190710339552591 1
gene  1 4 19 1.2905216627075147 0 345.0 1.2905216627075147 1
gene  1 5 19 1.667274148164213 0 346.0 1.667274148164213 1
gene  1 6 19 2.2091227479598516 0 347.0 2.2091227479598516 1
gene  1 7 19 0.5507124214303643 0 348.0 0.5507124214303643 1
gene  1 8 19 0.7067404588652484 0 349.0 0.7067404588652484 1
gene  1 1 21 1.2108996107735575 0 365.0 1.2108996107735575 1
gene  1 21 18 1.5504063297470256 0 366.0 1.5504063297470256 1
gene  1 4 21 -1.183767830962258 0 384.0 -1.183767830962258 1
gene  1 6 21 -3.4512786103393687 0 450.0 -3.4512786103393687 1
gene  1 6 18 1.4912426494672382 0 465.0 1.4912426494672382 1
genomeend 32
/*-------------------------------------------------------------------*/
/* Species # 007         : (size= 006) (AvfFit= 0.000) (Age= 8.000)  */
/*-------------------------------------------------------------------*/
/* Organism # 033 Fitness:  394.940 Error:  0.000                      */
genomestart  33
trait 1 0.0 0.0 0.0 0.0 0.0 0.0 0.0 0.0 
node 1 1 1 1
node 2 1 1 1
node 3 1 1 1
node 4 1 1 1
node 5 1 1 1
node 6 1 1 1
node 7 1 1 1
node 8 1 1 3
node 18 1 0 2
node 19 1 0 2
gene  1 1 18 1.5642402663912014 0 323.0 1.5642402663912014 1
gene  1 2 18 2.509248003110307 0 324.0 2.509248003110307 1
gene  1 3 18 -5.679455395032664 0 325.0 -5.679455395032664 1
gene  1 4 18 -1.3485090549069765 0 326.0 -1.3485090549069765 1
gene  1 5 18 1.1395815806866896 0 327.0 1.1395815806866896 1
gene  1 6 18 2.1157551456864665 0 328.0 2.1157551456864665 1
gene  1 7 18 -0.2675513333339379 0 329.0 -0.2675513333339379 1
gene  1 8 18 -1.897840832006933 0 330.0 -1.897840832006933 1
gene  1 1 19 0.5519333884305644 0 342.0 0.5519333884305644 1
gene  1 2 19 2.2801447173959577 0 343.0 2.2801447173959577 1
gene  1 4 19 -2.2856419058809934 0 345.0 -2.2856419058809934 1
gene  1 5 19 1.1517310349828787 0 346.0 1.1517310349828787 1
gene  1 8 19 0.4579934773916663 0 349.0 0.4579934773916663 1
gene  1 18 19 -0.654376675803019 0 359.0 -0.654376675803019 1
gene  1 3 19 -1.5799868052782506 0 401.0 -1.5799868052782506 1
gene  1 7 19 4.105735111813184 0 419.0 4.105735111813184 1
genomeend 33
/* Organism # 034 Fitness:  208.501 Error:  0.000                      */
genomestart  34
trait 1 0.0 0.0 0.0 0.0 0.0 0.0 0.0 0.0 
node 1 1 1 1
node 2 1 1 1
node 3 1 1 1
node 4 1 1 1
node 5 1 1 1
node 6 1 1 1
node 7 1 1 1
node 8 1 1 3
node 18 1 0 2
node 19 1 0 2
gene  1 1 18 2.1868774046264923 0 323.0 2.1868774046264923 1
gene  1 2 18 2.8316801312050606 0 324.0 2.8316801312050606 1
gene  1 3 18 -6.165365144552471 0 325.0 -6.165365144552471 1
gene  1 4 18 0.3208141418561328 0 326.0 0.3208141418561328 1
gene  1 5 18 2.2210899468665777 0 327.0 2.2210899468665777 1
gene  1 6 18 0.5549459141725614 0 328.0 0.5549459141725614 1
gene  1 7 18 -0.23862022457256526 0 329.0 -0.23862022457256526 1
gene  1 8 18 -1.6919251137526483 0 330.0 -1.6919251137526483 1
gene  1 1 19 2.2025253114307004 0 342.0 2.2025253114307004 1
gene  1 2 19 3.396770848101519 0 343.0 3.396770848101519 1
gene  1 4 19 -2.947838998928055 0 345.0 -2.947838998928055 1
gene  1 5 19 -0.7824813084754474 0 346.0 -0.7824813084754474 1
gene  1 8 19 2.267269260756576 0 349.0 2.267269260756576 1
gene  1 18 19 -2.3641101381890732 0 359.0 -2.3641101381890732 1
gene  1 3 19 -1.141926028424255 0 401.0 -1.141926028424255 1
gene  1 7 19 5.0798050565175545 0 419.0 5.0798050565175545 1
genomeend 34
/* Organism # 035 Fitness:  64.760 Error:  0.000                      */
genomestart  35
trait 1 0.0 0.0 0.6756810559509634 0.0 0.0 0.0 0.0 0.0 
node 1 1 1 1
node 2 1 1 1
node 3 1 1 1
node 4 1 1 1
node 5 1 1 1
node 6 1 1 1
node 7 1 1 1
node 8 1 1 3
node 18 1 0 2
node 19 1 0 2
gene  1 1 18 1.9598511197803707 0 323.0 1.9598511197803707 1
gene  1 2 18 2.4360653073729726 0 324.0 2.4360653073729726 1
gene  1 3 18 -5.689227006539293 0 325.0 -5.689227006539293 1
gene  1 4 18 -3.1860268607043896 0 326.0 -3.1860268607043896 1
gene  1 5 18 0.6324113111480103 0 327.0 0.6324113111480103 1
gene  1 6 18 0.8280681209985352 0 328.0 0.8280681209985352 1
gene  1 7 18 1.085263357559194 0 329.0 1.085263357559194 1
gene  1 8 18 -2.503291956442225 0 330.0 -2.503291956442225 1
gene  1 1 19 0.4501131400365288 0 342.0 0.4501131400365288 1
gene  1 2 19 2.102277191933948 0 343.0 2.102277191933948 1
gene  1 4 19 -3.994717057516572 0 345.0 -3.994717057516572 1
gene  1 5 19 1.3053404009042264 0 346.0 1.3053404009042264 1
gene  1 8 19 0.19992032306251817 0 349.0 0.19992032306251817 1
gene  1 18 19 -0.654376675803019 0 359.0 -0.654376675803019 1
gene  1 3 19 -1.5799868052782506 0 401.0 -1.5799868052782506 1
gene  1 7 19 4.105735111813184 0 419.0 4.105735111813184 1
genomeend 35
/* Organism # 036 Fitness:  33.598 Error:  0.000                      */
genomestart  36
trait 1 0.0 0.0 0.0 0.0 0.0 0.0 0.0 0.0 
node 1 1 1 1
node 2 1 1 1
node 3 1 1 1
node 4 1 1 1
node 5 1 1 1
node 6 1 1 1
node 7 1 1 1
node 8 1 1 3
node 18 1 0 2
node 19 1 0 2
gene  1 1 18 -1.5085528995816917 0 323.0 -1.5085528995816917 1
gene  1 2 18 1.570924506491594 0 324.0 1.570924506491594 1
gene  1 3 18 -6.850515315062393 0 325.0 -6.850515315062393 1
gene  1 4 18 -0.7477418146842569 0 326.0 -0.7477418146842569 1
gene  1 5 18 1.388155096984778 0 327.0 1.388155096984778 1
gene  1 6 18 -0.8430277165492521 0 328.0 -0.8430277165492521 1
gene  1 7 18 1.7016393298690182 0 329.0 1.7016393298690182 1
gene  1 8 18 -3.5638764515161663 0 330.0 -3.5638764515161663 1
gene  1 1 19 0.25489998428440175 0 342.0 0.25489998428440175 1
gene  1 2 19 2.7915325441600527 0 343.0 2.7915325441600527 1
gene  1 4 19 -2.2856419058809934 0 345.0 -2.2856419058809934 1
gene  1 5 19 1.1949853752043744 0 346.0 1.1949853752043744 1
gene  1 8 19 1.7245629388349595 0 349.0 1.7245629388349595 1
gene  1 18 19 1.2425260261644688 0 359.0 1.2425260261644688 1
gene  1 3 19 -1.5799868052782506 0 401.0 -1.5799868052782506 1
gene  1 7 19 -0.9920822596330796 0 419.0 -0.9920822596330796 1
genomeend 36
/* Organism # 037 Fitness:  112.301 Error:  0.000                      */
genomestart  37
trait 1 0.0 0.0 0.0 0.0 0.0 0.0 0.0 0.0 
node 1 1 1 1
node 2 1 1 1
node 3 1 1 1
node 4 1 1 1
node 5 1 1 1
node 6 1 1 1
node 7 1 1 1
node 8 1 1 3
node 18 1 0 2
node 19 1 0 2
gene  1 1 18 -0.6228709593165145 0 323.0 -0.6228709593165145 1
gene  1 2 18 -1.0765064428875621 0 324.0 -1.0765064428875621 1
gene  1 3 18 -5.924708611276453 0 325.0 -5.924708611276453 1
gene  1 4 18 -1.109222832082605 0 326.0 -1.109222832082605 1
gene  1 5 18 1.9848563965984696 0 327.0 1.9848563965984696 1
gene  1 6 18 0.3160015984696758 0 328.0 0.3160015984696758 1
gene  1 7 18 0.17922558754536233 0 329.0 0.17922558754536233 1
gene  1 8 18 -2.3578672111850154 0 330.0 -2.3578672111850154 1
gene  1 1 19 -0.3535217591617901 0 342.0 -0.3535217591617901 1
gene  1 2 19 -1.6272110209190103 0 343.0 -1.6272110209190103 1
gene  1 4 19 -0.7552490265797656 0 345.0 -0.7552490265797656 1
gene  1 5 19 1.1517310349828787 0 346.0 1.1517310349828787 1
gene  1 8 19 1.6798581964213741 0 349.0 1.6798581964213741 1
gene  1 18 19 -1.593534873112833 0 359.0 -1.593534873112833 1
gene  1 3 19 -0.2316536383493557 0 401.0 -0.2316536383493557 1
gene  1 7 19 3.458047058943317 0 419.0 3.458047058943317 1
genomeend 37
/* Organism # 038 Fitness:  299.292 Error:  0.000                      */
genomestart  38
trait 1 0.0 0.0 0.0 0.0 0.0 0.0 0.0 0.0 
node 1 1 1 1
node 2 1 1 1
node 3 1 1 1
node 4 1 1 1
node 5 1 1 1
node 6 1 1 1
node 7 1 1 1
node 8 1 1 3
node 18 1 0 2
node 19 1 0 2
gene  1 1 18 0.5818231785670069 0 323.0 0.5818231785670069 1
gene  1 2 18 4.238853915136746 0 324.0 4.238853915136746 1
gene  1 3 18 -7.590806279227599 0 325.0 -7.590806279227599 1
gene  1 4 18 0.15974339148649608 0 326.0 0.15974339148649608 1
gene  1 5 18 -0.10148559940606172 0 327.0 -0.10148559940606172 1
gene  1 6 18 2.9375160710139565 0 328.0 2.9375160710139565 1
gene  1 7 18 -1.1668296821614845 0 329.0 -1.1668296821614845 1
gene  1 8 18 -2.002243345933765 0 330.0 -2.002243345933765 1
gene  1 1 19 2.4710595909469806 0 342.0 2.4710595909469806 1
gene  1 2 19 3.0010409622673784 0 343.0 3.0010409622673784 1
gene  1 4 19 -1.9026703175050548 0 345.0 -1.9026703175050548 1
gene  1 5 19 0.9553480223664186 0 346.0 0.9553480223664186 1
gene  1 8 19 0.18542437385102506 0 349.0 0.18542437385102506 1
gene  1 18 19 -0.25440972872956547 0 359.0 -0.25440972872956547 1
gene  1 3 19 -1.5799868052782506 0 401.0 -1.5799868052782506 1
gene  1 7 19 4.5026304614726955 0 419.0 4.5026304614726955 1
genomeend 38
/*-------------------------------------------------------------------*/
/* Species # 009         : (size= 001) (AvfFit= 0.000) (Age= 8.000)  */
/*-------------------------------------------------------------------*/
/* Organism # 039 Fitness:  33.761 Error:  0.000                      */
genomestart  39
trait 1 0.0 0.0 0.0 0.0 0.0 0.0 0.0 0.0 
node 1 1 1 1
node 2 1 1 1
node 3 1 1 1
node 4 1 1 1
node 5 1 1 1
node 6 1 1 1
node 7 1 1 1
node 8 1 1 3
node 18 1 0 2
node 19 1 0 2
gene  1 2 18 2.324638499579053 0 324.0 2.324638499579053 1
gene  1 3 18 0.6229552511984069 0 325.0 0.6229552511984069 1
gene  1 4 18 1.3599157898826941 0 326.0 1.3599157898826941 1
gene  1 5 18 -1.1518171504603263 0 327.0 -1.1518171504603263 1
gene  1 6 18 1.806133292595571 0 328.0 1.806133292595571 1
gene  1 1 19 1.1625946834782996 0 342.0 1.1625946834782996 1
gene  1 5 19 0.49264706118167134 0 346.0 0.49264706118167134 1
gene  1 7 19 0.6231436467475946 0 348.0 0.6231436467475946 1
gene  1 8 19 0.90950318194852 0 349.0 0.90950318194852 1
gene  1 1 18 3.1590068363164407 0 378.0 3.1590068363164407 1
genomeend 39
/*-------------------------------------------------------------------*/
/* Species # 010         : (size= 001) (AvfFit= 0.000) (Age= 8.000)  */
/*-------------------------------------------------------------------*/
/* Organism # 040 Fitness:  34.286 Error:  0.000                      */
genomestart  40
trait 1 0.0 0.0 0.0 0.0 0.0 0.0 0.0 0.0 
node 1 1 1 1
node 2 1 1 1
node 3 1 1 1
node 4 1 1 1
node 5 1 1 1
node 6 1 1 1
node 7 1 1 1
node 8 1 1 3
node 18 1 0 2
node 19 1 0 2
gene  1 1 18 -2.6221083817320356 0 323.0 -2.6221083817320356 1
gene  1 3 18 0.49497342150255785 0 325.0 0.49497342150255785 1
gene  1 4 18 1.7625117136316322 0 326.0 1.7625117136316322 1
gene  1 5 18 -4.820582886297471 0 327.0 -4.820582886297471 1
gene  1 6 18 -0.22921431594943442 0 328.0 -0.22921431594943442 1
gene  1 7 18 -1.9263443882698958 0 329.0 -1.9263443882698958 1
gene  1 1 19 -1.2596257123658172 0 342.0 -1.2596257123658172 1
gene  1 2 19 0.24725901617906887 0 343.0 0.24725901617906887 1
gene  1 6 19 -2.5772637150780366 0 347.0 -2.5772637150780366 1
gene  1 7 19 4.124771448046743 0 348.0 4.124771448046743 1
gene  1 8 19 2.4238772301095013 0 349.0 2.4238772301095013 1
gene  1 18 19 -2.210632783526748 0 359.0 -2.210632783526748 1
gene  1 4 19 4.843855060539053 0 448.0 4.843855060539053 1
genomeend 40
/*-------------------------------------------------------------------*/
/* Species # 013         : (size= 003) (AvfFit= 0.000) (Age= 8.000)  */
/*-------------------------------------------------------------------*/
/* Organism # 041 Fitness:  301.591 Error:  0.000                      */
genomestart  41
trait 1 0.11981861381503554 0.0 0.0 0.0 0.0 0.0 0.0 0.034787405338181504 
node 1 1 1 1
node 2 1 1 1
node 3 1 1 1
node 4 1 1 1
node 5 1 1 1
node 6 1 1 1
node 7 1 1 1
node 8 1 1 3
node 18 1 0 2
node 19 1 0 2
node 35 1 0 0
gene  1 1 18 2.6639425982792315 0 323.0 2.6639425982792315 0
gene  1 3 18 -2.8461138287818413 0 325.0 -2.8461138287818413 1
gene  1 6 18 1.0597223391508692 0 328.0 1.0597223391508692 1
gene  1 1 19 -2.4427908487591377 0 342.0 -2.4427908487591377 1
gene  1 2 19 2.037177421923925 0 343.0 2.037177421923925 1
gene  1 4 19 2.11753987762196 0 345.0 2.11753987762196 1
gene  1 5 19 0.5077420793135078 0 346.0 0.5077420793135078 1
gene  1 6 19 -0.08067303731967979 0 347.0 -0.08067303731967979 1
gene  1 7 19 0.06480297546616853 0 348.0 0.06480297546616853 1
gene  1 8 19 1.166294391462066 0 349.0 1.166294391462066 1
gene  1 18 19 -0.4590280813883644 0 359.0 -0.4590280813883644 1
gene  1 1 35 1.6577425152328755 0 428.0 1.6577425152328755 1
gene  1 35 18 -1.7381050529956867 0 429.0 -1.7381050529956867 1
genomeend 41
/* Organism # 042 Fitness:  42.223 Error:  0.000                      */
genomestart  42
trait 1 0.0 0.0 0.0 0.0 0.0 0.0 0.0 0.0 
node 1 1 1 1
node 2 1 1 1
node 3 1 1 1
node 4 1 1 1
node 5 1 1 1
node 6 1 1 1
node 7 1 1 1
node 8 1 1 3
node 18 1 0 2
node 19 1 0 2
node 35 1 0 0
gene  1 1 18 3.928491359358623 0 323.0 3.928491359358623 1
gene  1 3 18 -2.2629656002766216 0 325.0 -2.2629656002766216 1
gene  1 6 18 -0.6305483847851252 0 328.0 -0.6305483847851252 1
gene  1 1 19 0.9669078905391733 0 342.0 0.9669078905391733 1
gene  1 2 19 0.8748836030249845 0 343.0 0.8748836030249845 1
gene  1 4 19 1.0897911479308882 0 345.0 1.0897911479308882 1
gene  1 5 19 -2.5507065744173145 0 346.0 -2.5507065744173145 1
gene  1 6 19 -0.7909080812736253 0 347.0 -0.7909080812736253 1
gene  1 7 19 -0.020301014597868816 0 348.0 -0.020301014597868816 1
gene  1 8 19 -1.1754210835734271 0 349.0 -1.1754210835734271 1
gene  1 18 19 -0.9347812675534704 0 359.0 -0.9347812675534704 1
gene  1 1 35 1.6576300572892628 0 428.0 1.6576300572892628 1
gene  1 35 18 0.12888864489478102 0 429.0 0.12888864489478102 1
genomeend 42
/* Organism # 043 Fitness:  1090.072 Error:  0.000                      */
genomestart  43
trait 1 0.0 0.0 0.0 0.0 0.0 0.0 0.0 0.0 
node 1 1 1 1
node 2 1 1 1
node 3 1 1 1
node 4 1 1 1
node 5 1 1 1
node 6 1 1 1
node 7 1 1 1
node 8 1 1 3
node 18 1 0 2
node 19 1 0 2
gene  1 1 18 2.5162606387059356 0 323.0 2.5162606387059356 1
gene  1 3 18 -2.8461138287818413 0 325.0 -2.8461138287818413 1
gene  1 6 18 1.087856435851986 0 328.0 1.087856435851986 1
gene  1 1 19 -1.5878822388199265 0 342.0 -1.5878822388199265 1
gene  1 2 19 2.037177421923925 0 343.0 2.037177421923925 1
gene  1 4 19 2.11753987762196 0 345.0 2.11753987762196 1
gene  1 5 19 -0.7538904054720308 0 346.0 -0.7538904054720308 1
gene  1 6 19 -0.6476101288960951 0 347.0 -0.6476101288960951 1
gene  1 7 19 -2.88814793709162 0 348.0 -2.88814793709162 1
gene  1 8 19 -0.4140188191407833 0 349.0 -0.4140188191407833 1
gene  1 18 19 0.4434783250028532 0 359.0 0.4434783250028532 1
genomeend 43
/*-------------------------------------------------------------------*/
/* Species # 014         : (size= 014) (AvfFit= 0.000) (Age= 8.000)  */
/*-------------------------------------------------------------------*/
/* Organism # 044 Fitness:  2247.221 Error:  0.000                      */
genomestart  44
trait 1 0.0 0.0 0.0 0.0 0.0 0.0 0.0 0.0 
node 1 1 1 1
node 2 1 1 1
node 3 1 1 1
node 4 1 1 1
node 5 1 1 1
node 6 1 1 1
node 7 1 1 1
node 8 1 1 3
node 18 1 0 2
node 19 1 0 2
gene  1 1 18 -1.494452539606187 0 323.0 -1.494452539606187 1
gene  1 2 18 -0.5279788705265049 0 324.0 -0.5279788705265049 1
gene  1 3 18 -0.9554477229809866 0 325.0 -0.9554477229809866 1
gene  1 4 18 0.5965737106882418 0 326.0 0.5965737106882418 1
gene  1 6 18 2.6408266118755344 0 328.0 2.6408266118755344 1
gene  1 7 18 -1.6202072065719104 0 329.0 -1.6202072065719104 1
gene  1 1 19 2.7596651880347243 0 342.0 2.7596651880347243 1
gene  1 2 19 3.4939479849443824 0 343.0 3.4939479849443824 1
gene  1 3 19 -3.052024443419596 0 344.0 -3.052024443419596 1
gene  1 4 19 -2.3399534730835745 0 345.0 -2.3399534730835745 1
gene  1 5 19 1.067277757493997 0 346.0 1.067277757493997 1
gene  1 6 19 -1.642796021953512 0 347.0 -1.642796021953512 1
gene  1 7 19 0.7417536848614985 0 348.0 0.7417536848614985 1
gene  1 8 19 0.36427133889418073 0 349.0 0.36427133889418073 1
gene  1 18 19 -0.06636956984834264 0 359.0 -0.06636956984834264 1
genomeend 44
/* Organism # 045 Fitness:  34.286 Error:  0.000                      */
genomestart  45
trait 1 0.0 0.028320811258582546 0.0 0.0 0.571496875627525 0.0 0.0 0.9409901897007739 
node 1 1 1 1
node 2 1 1 1
node 3 1 1 1
node 4 1 1 1
node 5 1 1 1
node 6 1 1 1
node 7 1 1 1
node 8 1 1 3
node 18 1 0 2
node 19 1 0 2
gene  1 1 18 -2.092214841283078 0 323.0 -2.092214841283078 1
gene  1 2 18 -1.321789627794011 0 324.0 -1.321789627794011 1
gene  1 3 18 0.1559019719198278 0 325.0 0.1559019719198278 1
gene  1 4 18 -1.364852029654764 0 326.0 -1.364852029654764 1
gene  1 6 18 1.4377766345295373 0 328.0 1.4377766345295373 1
gene  1 7 18 -1.4728194363631562 0 329.0 -1.4728194363631562 1
gene  1 1 19 4.572812722742004 0 342.0 4.572812722742004 1
gene  1 2 19 6.236044050385223 0 343.0 6.236044050385223 1
gene  1 3 19 -1.2931252148350023 0 344.0 -1.2931252148350023 1
gene  1 4 19 0.8498600676261574 0 345.0 0.8498600676261574 1
gene  1 5 19 0.9622545815983921 0 346.0 0.9622545815983921 1
gene  1 6 19 -1.251992373011851 0 347.0 -1.251992373011851 1
gene  1 7 19 1.3130666291045472 0 348.0 1.3130666291045472 1
gene  1 8 19 1.6331715885189833 0 349.0 1.6331715885189833 1
gene  1 18 19 2.8208538003051755 0 359.0 2.8208538003051755 1
genomeend 45
/* Organism # 046 Fitness:  32.959 Error:  0.000                      */
genomestart  46
trait 1 0.0 0.0 0.0 0.0 0.0 0.0 0.0 0.0 
node 1 1 1 1
node 2 1 1 1
node 3 1 1 1
node 4 1 1 1
node 5 1 1 1
node 6 1 1 1
node 7 1 1 1
node 8 1 1 3
node 18 1 0 2
node 19 1 0 2
gene  1 1 18 -2.43785216762714 0 323.0 -2.43785216762714 1
gene  1 2 18 -2.5603750730346917 0 324.0 -2.5603750730346917 1
gene  1 3 18 0.2096164501416018 0 325.0 0.2096164501416018 1
gene  1 4 18 -0.46250345450807706 0 326.0 -0.46250345450807706 1
gene  1 6 18 1.940351884294959 0 328.0 1.940351884294959 1
gene  1 7 18 -0.01588373422495093 0 329.0 -0.01588373422495093 1
gene  1 1 19 2.7596651880347243 0 342.0 2.7596651880347243 1
gene  1 2 19 5.393513237304459 0 343.0 5.393513237304459 1
gene  1 3 19 -3.548014899155999 0 344.0 -3.548014899155999 1
gene  1 4 19 -1.571270931749418 0 345.0 -1.571270931749418 1
gene  1 5 19 -0.7049909195249509 0 346.0 -0.7049909195249509 1
gene  1 6 19 -2.5003531480600185 0 347.0 -2.5003531480600185 1
gene  1 7 19 0.7417536848614985 0 348.0 0.7417536848614985 1
gene  1 8 19 2.570313277827281 0 349.0 2.570313277827281 1
gene  1 18 19 -0.34650229254894915 0 359.0 -0.34650229254894915 1
gene  1 5 18 -9.36574224224514 0 457.0 -9.36574224224514 1
genomeend 46
/* Organism # 047 Fitness:  32.857 Error:  0.000                      */
genomestart  47
trait 1 0.0 0.014160405629291273 0.0 0.0 0.2857484378137625 0.0 0.0 0.47049509485038693 
node 1 1 1 1
node 2 1 1 1
node 3 1 1 1
node 4 1 1 1
node 5 1 1 1
node 6 1 1 1
node 7 1 1 1
node 8 1 1 3
node 18 1 0 2
node 19 1 0 2
gene  1 1 18 -1.9661523536166636 0 323.0 -1.9661523536166636 1
gene  1 2 18 -1.9928869018279955 0 324.0 -1.9928869018279955 1
gene  1 3 18 0.2096164501416018 0 325.0 0.2096164501416018 1
gene  1 4 18 -0.24936207088389084 0 326.0 -0.24936207088389084 1
gene  1 6 18 1.513860002874941 0 328.0 1.513860002874941 1
gene  1 7 18 0.9141747985691732 0 329.0 0.9141747985691732 1
gene  1 1 19 3.576149291343831 0 342.0 3.576149291343831 1
gene  1 2 19 6.309708723998014 0 343.0 6.309708723998014 1
gene  1 3 19 -3.548014899155999 0 344.0 -3.548014899155999 1
gene  1 4 19 -1.2216238135225217 0 345.0 -1.2216238135225217 1
gene  1 5 19 -0.7049909195249509 0 346.0 -0.7049909195249509 1
gene  1 6 19 -1.6969204094650099 0 347.0 -1.6969204094650099 1
gene  1 7 19 0.9908588018684734 0 348.0 0.9908588018684734 1
gene  1 8 19 3.0447611245765023 0 349.0 3.0447611245765023 1
gene  1 18 19 0.5730586386752279 0 359.0 0.5730586386752279 1
gene  1 5 18 -9.36574224224514 0 457.0 0.0 1
genomeend 47
/* Organism # 048 Fitness:  429.970 Error:  0.000                      */
genomestart  48
trait 1 0.0 0.0 0.0 0.0 0.0 0.0 0.0 0.0 
node 1 1 1 1
node 2 1 1 1
node 3 1 1 1
node 4 1 1 1
node 5 1 1 1
node 6 1 1 1
node 7 1 1 1
node 8 1 1 3
node 18 1 0 2
node 19 1 0 2
gene  1 1 18 -1.0306523855247078 0 323.0 -1.0306523855247078 1
gene  1 2 18 -2.396522921392591 0 324.0 -2.396522921392591 1
gene  1 3 18 -1.0593297609737946 0 325.0 -1.0593297609737946 1
gene  1 4 18 1.8307808112412929 0 326.0 1.8307808112412929 1
gene  1 6 18 1.3602372791261048 0 328.0 1.3602372791261048 1
gene  1 7 18 -0.7645028970789096 0 329.0 -0.7645028970789096 1
gene  1 1 19 1.0404386873976648 0 342.0 1.0404386873976648 1
gene  1 2 19 6.281498140717558 0 343.0 6.281498140717558 1
gene  1 3 19 -1.682021279052804 0 344.0 -1.682021279052804 1
gene  1 4 19 -2.839182449826962 0 345.0 -2.839182449826962 1
gene  1 5 19 -2.47564472355763 0 346.0 -2.47564472355763 1
gene  1 6 19 -4.334986367813427 0 347.0 -4.334986367813427 1
gene  1 7 19 0.8829107082386294 0 348.0 0.8829107082386294 1
gene  1 8 19 -0.40601775759957937 0 349.0 -0.40601775759957937 1
gene  1 18 19 1.492619569899405 0 359.0 1.492619569899405 1
genomeend 48
/* Organism # 049 Fitness:  551.874 Error:  0.000                      */
genomestart  49
trait 1 0.0 0.0 0.0 0.0 0.0 0.0 0.0 0.0 
node 1 1 1 1
node 2 1 1 1
node 3 1 1 1
node 4 1 1 1
node 5 1 1 1
node 6 1 1 1
node 7 1 1 1
node 8 1 1 3
node 18 1 0 2
node 19 1 0 2
gene  1 1 18 -1.494452539606187 0 323.0 -1.494452539606187 1
gene  1 2 18 -2.5603750730346917 0 324.0 -2.5603750730346917 1
gene  1 3 18 0.2096164501416018 0 325.0 0.2096164501416018 1
gene  1 4 18 -0.03622068725970462 0 326.0 -0.03622068725970462 1
gene  1 6 18 1.0873681214549227 0 328.0 1.0873681214549227 1
gene  1 7 18 -0.01588373422495093 0 329.0 -0.01588373422495093 1
gene  1 1 19 2.7596651880347243 0 342.0 2.7596651880347243 1
gene  1 2 19 5.393513237304459 0 343.0 5.393513237304459 1
gene  1 3 19 -3.548014899155999 0 344.0 -3.548014899155999 1
gene  1 4 19 -1.571270931749418 0 345.0 -1.571270931749418 1
gene  1 5 19 -0.7049909195249509 0 346.0 -0.7049909195249509 1
gene  1 6 19 -2.5003531480600185 0 347.0 -2.5003531480600185 1
gene  1 7 19 0.7417536848614985 0 348.0 0.7417536848614985 1
gene  1 8 19 3.519208971325724 0 349.0 3.519208971325724 1
gene  1 18 19 1.492619569899405 0 359.0 1.492619569899405 1
genomeend 49
/* Organism # 050 Fitness:  55.290 Error:  0.000                      */
genomestart  50
trait 1 0.0 0.014160405629291273 0.0 0.0 0.2857484378137625 0.0 0.0 0.47049509485038693 
node 1 1 1 1
node 2 1 1 1
node 3 1 1 1
node 4 1 1 1
node 5 1 1 1
node 6 1 1 1
node 7 1 1 1
node 8 1 1 3
node 18 1 0 2
node 19 1 0 2
gene  1 1 18 -1.4566986128220334 0 323.0 -1.4566986128220334 1
gene  1 2 18 -2.086882574864741 0 324.0 -2.086882574864741 1
gene  1 3 18 1.1959973689783523 0 325.0 1.1959973689783523 1
gene  1 4 18 1.7688631638900003 0 326.0 1.7688631638900003 1
gene  1 6 18 3.536818443680965 0 328.0 3.536818443680965 1
gene  1 7 18 1.0632940509950197 0 329.0 1.0632940509950197 1
gene  1 1 19 2.2998133958837492 0 342.0 2.2998133958837492 1
gene  1 2 19 6.182637440367434 0 343.0 6.182637440367434 1
gene  1 3 19 -3.0478059120562255 0 344.0 -3.0478059120562255 1
gene  1 4 19 -0.020519107121127256 0 345.0 -0.020519107121127256 1
gene  1 5 19 -1.7134135797366175 0 346.0 -1.7134135797366175 1
gene  1 6 19 -1.2339462870563558 0 347.0 -1.2339462870563558 1
gene  1 7 19 -0.32768605481709034 0 348.0 -0.32768605481709034 1
gene  1 8 19 0.5511221870933916 0 349.0 0.5511221870933916 1
gene  1 18 19 -0.9467201645633128 0 359.0 -0.9467201645633128 1
genomeend 50
/* Organism # 051 Fitness:  760.665 Error:  0.000                      */
genomestart  51
trait 1 0.0 0.0 0.0 0.0 0.0 0.0 0.0 0.0 
node 1 1 1 1
node 2 1 1 1
node 3 1 1 1
node 4 1 1 1
node 5 1 1 1
node 6 1 1 1
node 7 1 1 1
node 8 1 1 3
node 18 1 0 2
node 19 1 0 2
node 42 1 0 0
gene  1 1 18 -2.43785216762714 0 323.0 -2.43785216762714 1
gene  1 2 18 -2.5603750730346917 0 324.0 -2.5603750730346917 1
gene  1 3 18 0.2096164501416018 0 325.0 0.2096164501416018 1
gene  1 4 18 -0.46250345450807706 0 326.0 -0.46250345450807706 0
gene  1 6 18 1.0873681214549227 0 328.0 1.0873681214549227 1
gene  1 7 18 1.8442333313632973 0 329.0 1.8442333313632973 1
gene  1 1 19 4.392633394652938 0 342.0 4.392633394652938 1
gene  1 2 19 7.225904210691569 0 343.0 7.225904210691569 1
gene  1 3 19 -3.548014899155999 0 344.0 -3.548014899155999 1
gene  1 4 19 -1.571270931749418 0 345.0 -1.571270931749418 1
gene  1 5 19 -0.7049909195249509 0 346.0 -0.7049909195249509 1
gene  1 6 19 -0.893487670870001 0 347.0 -0.893487670870001 1
gene  1 7 19 1.2399639188754483 0 348.0 1.2399639188754483 1
gene  1 8 19 3.519208971325724 0 349.0 3.519208971325724 1
gene  1 18 19 -0.34650229254894915 0 359.0 -0.34650229254894915 1
gene  1 4 42 1.0 0 458.0 0.0 1
gene  1 42 18 -0.46250345450807706 0 459.0 0.0 1
genomeend 51
/* Organism # 052 Fitness:  1513.180 Error:  0.000                      */
genomestart  52
trait 1 0.0 0.014160405629291273 0.0 0.0 0.2857484378137625 0.0 0.0 0.47049509485038693 
node 1 1 1 1
node 2 1 1 1
node 3 1 1 1
node 4 1 1 1
node 5 1 1 1
node 6 1 1 1
node 7 1 1 1
node 8 1 1 3
node 18 1 0 2
node 19 1 0 2
gene  1 1 18 -1.494452539606187 0 323.0 -1.494452539606187 1
gene  1 2 18 -1.4253987306212994 0 324.0 -1.4253987306212994 1
gene  1 3 18 0.2096164501416018 0 325.0 0.2096164501416018 1
gene  1 4 18 -0.03622068725970462 0 326.0 -0.03622068725970462 1
gene  1 6 18 1.940351884294959 0 328.0 1.940351884294959 1
gene  1 7 18 -0.01588373422495093 0 329.0 -0.01588373422495093 1
gene  1 1 19 2.7596651880347243 0 342.0 2.7596651880347243 1
gene  1 2 19 5.393513237304459 0 343.0 5.393513237304459 1
gene  1 3 19 -3.548014899155999 0 344.0 -3.548014899155999 1
gene  1 4 19 -1.6059650841896 0 345.0 -1.6059650841896 1
gene  1 5 19 1.067277757493997 0 346.0 1.067277757493997 1
gene  1 6 19 -1.642796021953512 0 347.0 -1.642796021953512 1
gene  1 7 19 0.7417536848614985 0 348.0 0.7417536848614985 1
gene  1 8 19 0.36427133889418073 0 349.0 0.36427133889418073 1
gene  1 18 19 -0.06636956984834264 0 359.0 -0.06636956984834264 1
genomeend 52
/* Organism # 053 Fitness:  76.549 Error:  0.000                      */
genomestart  53
trait 1 0.0 0.0 0.7891208476887293 0.033869042394647386 0.0 0.0 0.0 0.0 
node 1 1 1 1
node 2 1 1 1
node 3 1 1 1
node 4 1 1 1
node 5 1 1 1
node 6 1 1 1
node 7 1 1 1
node 8 1 1 3
node 18 1 0 2
node 19 1 0 2
gene  1 1 18 -3.3612005141478214 0 323.0 -3.3612005141478214 1
gene  1 2 18 -1.329275564320857 0 324.0 -1.329275564320857 1
gene  1 3 18 1.0373763613856724 0 325.0 1.0373763613856724 1
gene  1 4 18 -1.3355516399604908 0 326.0 -1.3355516399604908 1
gene  1 6 18 2.861080028634298 0 328.0 2.861080028634298 1
gene  1 7 18 -1.517763586170831 0 329.0 -1.517763586170831 1
gene  1 1 19 -0.11180743818031935 0 342.0 -0.11180743818031935 1
gene  1 2 19 6.0835261540568 0 343.0 6.0835261540568 1
gene  1 3 19 -2.8779669031577417 0 344.0 -2.8779669031577417 1
gene  1 4 19 -1.1338795305254417 0 345.0 -1.1338795305254417 1
gene  1 5 19 -1.6355705181387605 0 346.0 -1.6355705181387605 1
gene  1 6 19 0.17860391572979872 0 347.0 0.17860391572979872 1
gene  1 7 19 2.7776663055545447 0 348.0 2.7776663055545447 1
gene  1 8 19 1.052656745150502 0 349.0 1.052656745150502 1
gene  1 18 19 0.08302179580977875 0 359.0 0.08302179580977875 1
genomeend 53
/* Organism # 054 Fitness:  319.686 Error:  0.000                      */
genomestart  54
trait 1 0.0 0.014160405629291273 0.0 0.0 0.2857484378137625 0.0 0.0 0.47049509485038693 
node 1 1 1 1
node 2 1 1 1
node 3 1 1 1
node 4 1 1 1
node 5 1 1 1
node 6 1 1 1
node 7 1 1 1
node 8 1 1 3
node 18 1 0 2
node 19 1 0 2
node 43 1 0 0
gene  1 1 18 -1.494452539606187 0 323.0 -1.494452539606187 0
gene  1 2 18 -1.4253987306212994 0 324.0 -1.4253987306212994 1
gene  1 3 18 0.2096164501416018 0 325.0 0.2096164501416018 1
gene  1 4 18 -0.03622068725970462 0 326.0 -0.03622068725970462 1
gene  1 6 18 1.940351884294959 0 328.0 1.940351884294959 1
gene  1 7 18 -0.01588373422495093 0 329.0 -0.01588373422495093 1
gene  1 1 19 2.7596651880347243 0 342.0 2.7596651880347243 1
gene  1 2 19 5.393513237304459 0 343.0 5.393513237304459 1
gene  1 3 19 -3.548014899155999 0 344.0 -3.548014899155999 1
gene  1 4 19 -0.8719766952956254 0 345.0 -0.8719766952956254 1
gene  1 5 19 -0.7049909195249509 0 346.0 -0.7049909195249509 1
gene  1 6 19 -2.5003531480600185 0 347.0 -2.5003531480600185 1
gene  1 7 19 0.7417536848614985 0 348.0 0.7417536848614985 1
gene  1 8 19 2.570313277827281 0 349.0 2.570313277827281 1
gene  1 18 19 1.492619569899405 0 359.0 1.492619569899405 1
gene  1 1 43 1.0 0 460.0 0.0 1
gene  1 43 18 -1.494452539606187 0 461.0 0.0 1
genomeend 54
/* Organism # 055 Fitness:  1494.698 Error:  0.000                      */
genomestart  55
trait 1 0.0 0.0 0.0 0.033869042394647386 0.0 0.0 0.0 0.0 
node 1 1 1 1
node 2 1 1 1
node 3 1 1 1
node 4 1 1 1
node 5 1 1 1
node 6 1 1 1
node 7 1 1 1
node 8 1 1 3
node 18 1 0 2
node 19 1 0 2
gene  1 1 18 -1.494452539606187 0 323.0 -1.494452539606187 1
gene  1 2 18 -0.5279788705265049 0 324.0 -0.5279788705265049 1
gene  1 3 18 -0.9554477229809866 0 325.0 -0.9554477229809866 1
gene  1 4 18 0.5965737106882418 0 326.0 0.5965737106882418 1
gene  1 6 18 4.51390782422987 0 328.0 4.51390782422987 1
gene  1 7 18 -1.6202072065719104 0 329.0 -1.6202072065719104 1
gene  1 1 19 0.6097512464117547 0 342.0 0.6097512464117547 1
gene  1 2 19 3.4939479849443824 0 343.0 3.4939479849443824 1
gene  1 3 19 -2.55390464568338 0 344.0 -2.55390464568338 1
gene  1 4 19 -2.3399534730835745 0 345.0 -2.3399534730835745 1
gene  1 5 19 -1.3502038134700887 0 346.0 -1.3502038134700887 1
gene  1 6 19 -1.642796021953512 0 347.0 -1.642796021953512 1
gene  1 7 19 2.990388045756369 0 348.0 2.990388045756369 1
gene  1 8 19 1.052656745150502 0 349.0 1.052656745150502 1
gene  1 18 19 -0.06636956984834264 0 359.0 -0.06636956984834264 1
genomeend 55
/* Organism # 056 Fitness:  559.626 Error:  0.000                      */
genomestart  56
trait 1 0.0 0.014160405629291273 0.0 0.0 0.2857484378137625 0.0 0.0 0.47049509485038693 
node 1 1 1 1
node 2 1 1 1
node 3 1 1 1
node 4 1 1 1
node 5 1 1 1
node 6 1 1 1
node 7 1 1 1
node 8 1 1 3
node 18 1 0 2
node 19 1 0 2
gene  1 1 18 -1.7123814793315983 0 323.0 -1.7123814793315983 1
gene  1 2 18 -3.4584423490121887 0 324.0 -3.4584423490121887 1
gene  1 3 18 1.3204324527723839 0 325.0 1.3204324527723839 1
gene  1 4 18 1.0055312329277004 0 326.0 1.0055312329277004 1
gene  1 6 18 3.0356024358168634 0 328.0 3.0356024358168634 1
gene  1 7 18 2.284932326342988 0 329.0 2.284932326342988 1
gene  1 1 19 1.809871630433467 0 342.0 1.809871630433467 1
gene  1 2 19 5.157860855141608 0 343.0 5.157860855141608 1
gene  1 3 19 -5.0270740649456185 0 344.0 -5.0270740649456185 1
gene  1 4 19 -1.4244392042930947 0 345.0 -1.4244392042930947 1
gene  1 5 19 -1.356843956955375 0 346.0 -1.356843956955375 1
gene  1 6 19 -1.8606381491983695 0 347.0 -1.8606381491983695 1
gene  1 7 19 0.637286214609798 0 348.0 0.637286214609798 1
gene  1 8 19 3.0447611245765023 0 349.0 3.0447611245765023 1
gene  1 18 19 -1.170626195503974 0 359.0 -1.170626195503974 1
genomeend 56
/* Organism # 057 Fitness:  1863.526 Error:  0.000                      */
genomestart  57
trait 1 0.0 0.0 0.0 0.06773808478929477 0.0 0.0 0.0 0.0 
node 1 1 1 1
node 2 1 1 1
node 3 1 1 1
node 4 1 1 1
node 5 1 1 1
node 6 1 1 1
node 7 1 1 1
node 8 1 1 3
node 18 1 0 2
node 19 1 0 2
gene  1 1 18 -3.3816499396727977 0 323.0 -3.3816499396727977 1
gene  1 2 18 -2.8933670714541257 0 324.0 -2.8933670714541257 1
gene  1 3 18 -2.039275361123446 0 325.0 -2.039275361123446 1
gene  1 4 18 2.742565800330799 0 326.0 2.742565800330799 1
gene  1 6 18 5.303398603836922 0 328.0 5.303398603836922 1
gene  1 7 18 1.4446838793876364 0 329.0 1.4446838793876364 1
gene  1 1 19 -0.057708500534137785 0 342.0 -0.057708500534137785 1
gene  1 2 19 4.581346951340512 0 343.0 4.581346951340512 1
gene  1 3 19 -2.825791065836694 0 344.0 -2.825791065836694 1
gene  1 4 19 -3.351700293270751 0 345.0 -3.351700293270751 1
gene  1 5 19 -2.929348243920305 0 346.0 -2.929348243920305 1
gene  1 6 19 1.0099611820808125 0 347.0 1.0099611820808125 1
gene  1 7 19 2.7152979268231245 0 348.0 2.7152979268231245 1
gene  1 8 19 0.5786702874645926 0 349.0 0.5786702874645926 1
gene  1 18 19 0.6699911494172615 0 359.0 0.6699911494172615 1
genomeend 57
/*-------------------------------------------------------------------*/
/* Species # 015         : (size= 001) (AvfFit= 0.000) (Age= 8.000)  */
/*-------------------------------------------------------------------*/
/* Organism # 058 Fitness:  33.907 Error:  0.000                      */
genomestart  58
trait 1 0.0 0.0 0.0 0.0 0.0 0.0 0.0 0.0 
node 1 1 1 1
node 2 1 1 1
node 3 1 1 1
node 4 1 1 1
node 5 1 1 1
node 6 1 1 1
node 7 1 1 1
node 8 1 1 3
node 18 1 0 2
node 19 1 0 2
gene  1 1 18 -1.07793308178089 0 323.0 -1.07793308178089 1
gene  1 3 18 1.6438992218668396 0 325.0 1.6438992218668396 1
gene  1 4 18 -2.267720430372674 0 326.0 -2.267720430372674 1
gene  1 5 18 -3.580312173717422 0 327.0 -3.580312173717422 1
gene  1 6 18 -3.4777490441451357 0 328.0 -3.4777490441451357 1
gene  1 7 18 -0.9953177052377966 0 329.0 -0.9953177052377966 1
gene  1 8 18 1.4711812715690067 0 330.0 1.4711812715690067 1
gene  1 2 19 -2.995381900605552 0 343.0 -2.995381900605552 1
gene  1 4 19 2.4947114134208546 0 345.0 2.4947114134208546 1
gene  1 18 19 1.2173467256498811 0 359.0 1.2173467256498811 1
gene  1 8 19 1.3879830720817667 0 434.0 1.3879830720817667 1
genomeend 58
/*-------------------------------------------------------------------*/
/* Species # 016         : (size= 007) (AvfFit= 0.000) (Age= 8.000)  */
/*-------------------------------------------------------------------*/
/* Organism # 059 Fitness:  557.499 Error:  0.000                      */
genomestart  59
trait 1 0.0 0.0 0.0 0.0 0.0 0.0 0.0 0.0 
node 1 1 1 1
node 2 1 1 1
node 3 1 1 1
node 4 1 1 1
node 5 1 1 1
node 6 1 1 1
node 7 1 1 1
node 8 1 1 3
node 18 1 0 2
node 19 1 0 2
gene  1 2 18 -0.5294264936403004 0 324.0 -0.5294264936403004 1
gene  1 3 18 -3.1335154850046987 0 325.0 -3.1335154850046987 1
gene  1 4 18 3.0802314773807002 0 326.0 3.0802314773807002 1
gene  1 7 18 0.8258597189873582 0 329.0 0.8258597189873582 1
gene  1 1 19 -1.8010109477719212 0 342.0 -1.8010109477719212 1
gene  1 5 19 -0.8159519057886415 0 346.0 -0.8159519057886415 1
gene  1 6 19 1.6206226422521182 0 347.0 1.6206226422521182 1
gene  1 8 19 2.208147212502075 0 349.0 2.208147212502075 1
gene  1 18 19 -1.2866065382710619 0 359.0 -1.2866065382710619 1
genomeend 59
/* Organism # 060 Fitness:  373.927 Error:  0.000                      */
genomestart  60
trait 1 0.0 0.0 0.0 0.0 0.0 0.0 0.0 0.0 
node 1 1 1 1
node 2 1 1 1
node 3 1 1 1
node 4 1 1 1
node 5 1 1 1
node 6 1 1 1
node 7 1 1 1
node 8 1 1 3
node 18 1 0 2
node 19 1 0 2
gene  1 2 18 -0.942496656659173 0 324.0 -0.942496656659173 1
gene  1 3 18 -4.350881072335394 0 325.0 -4.350881072335394 1
gene  1 4 18 4.822952757115177 0 326.0 4.822952757115177 1
gene  1 7 18 2.5139916866108853 0 329.0 2.5139916866108853 1
gene  1 1 19 -0.5603117063326288 0 342.0 -0.5603117063326288 1
gene  1 5 19 -2.0423387867758125 0 346.0 -2.0423387867758125 1
gene  1 6 19 0.42053964719788195 0 347.0 0.42053964719788195 1
gene  1 8 19 1.4544867107129729 0 349.0 1.4544867107129729 1
gene  1 18 19 -2.1738111590461484 0 359.0 -2.1738111590461484 1
genomeend 60
/* Organism # 061 Fitness:  192.282 Error:  0.000                      */
genomestart  61
trait 1 0.0 0.0 0.0 0.0 0.0 0.0 0.0 0.0 
node 1 1 1 1
node 2 1 1 1
node 3 1 1 1
node 4 1 1 1
node 5 1 1 1
node 6 1 1 1
node 7 1 1 1
node 8 1 1 3
node 18 1 0 2
node 19 1 0 2
gene  1 2 18 0.056694985493103145 0 324.0 0.056694985493103145 1
gene  1 3 18 -1.0693208743329676 0 325.0 -1.0693208743329676 1
gene  1 4 18 -1.7006619162946206 0 326.0 -1.7006619162946206 1
gene  1 7 18 3.261783501789548 0 329.0 3.261783501789548 1
gene  1 1 19 -1.806230978163142 0 342.0 -1.806230978163142 1
gene  1 5 19 -1.9199370802307945 0 346.0 -1.9199370802307945 1
gene  1 6 19 0.42053964719788195 0 347.0 0.42053964719788195 1
gene  1 8 19 1.4565584356820236 0 349.0 1.4565584356820236 1
gene  1 18 19 -3.10858029231823 0 359.0 -3.10858029231823 1
genomeend 61
/* Organism # 062 Fitness:  563.789 Error:  0.000                      */
genomestart  62
trait 1 0.12056958985966726 0.0 0.0 0.0 0.6743910144852235 0.0 0.0 0.9392718594777826 
node 1 1 1 1
node 2 1 1 1
node 3 1 1 1
node 4 1 1 1
node 5 1 1 1
node 6 1 1 1
node 7 1 1 1
node 8 1 1 3
node 18 1 0 2
node 19 1 0 2
gene  1 2 18 -1.8170616872410705 0 324.0 -1.8170616872410705 1
gene  1 3 18 -2.718979724556368 0 325.0 -2.718979724556368 1
gene  1 4 18 3.7351588404351386 0 326.0 3.7351588404351386 1
gene  1 7 18 1.6057260243385814 0 329.0 1.6057260243385814 1
gene  1 1 19 -2.7956250302074865 0 342.0 -2.7956250302074865 1
gene  1 5 19 -2.2411546549934434 0 346.0 -2.2411546549934434 1
gene  1 6 19 1.4988191574190213 0 347.0 1.4988191574190213 1
gene  1 8 19 -0.001505805690137807 0 349.0 -0.001505805690137807 1
gene  1 18 19 -1.8776688490420743 0 359.0 -1.8776688490420743 1
gene  1 1 18 -3.739639949935547 0 431.0 -3.739639949935547 1
genomeend 62
/* Organism # 063 Fitness:  88.156 Error:  0.000                      */
genomestart  63
trait 1 0.0 0.0 0.630978856564191 0.0 0.0 0.0 0.2622319139179422 0.0 
node 1 1 1 1
node 2 1 1 1
node 3 1 1 1
node 4 1 1 1
node 5 1 1 1
node 6 1 1 1
node 7 1 1 1
node 8 1 1 3
node 18 1 0 2
node 19 1 0 2
gene  1 2 18 -1.2681692935969548 0 324.0 -1.2681692935969548 1
gene  1 3 18 -3.7799085074417724 0 325.0 -3.7799085074417724 1
gene  1 4 18 6.460817612771445 0 326.0 6.460817612771445 1
gene  1 7 18 1.4889944769250953 0 329.0 1.4889944769250953 1
gene  1 1 19 0.17416891508769994 0 342.0 0.17416891508769994 1
gene  1 5 19 -2.7391839969505836 0 346.0 -2.7391839969505836 1
gene  1 6 19 2.129760017329783 0 347.0 2.129760017329783 1
gene  1 8 19 1.6650554106154025 0 349.0 1.6650554106154025 1
gene  1 18 19 -0.20092999472106587 0 359.0 -0.20092999472106587 1
gene  1 1 18 1.5217337934897985 0 431.0 1.5217337934897985 1
genomeend 63
/* Organism # 064 Fitness:  363.464 Error:  0.000                      */
genomestart  64
trait 1 0.0 0.0 0.0 0.0 0.0 0.0 0.0 0.0 
node 1 1 1 1
node 2 1 1 1
node 3 1 1 1
node 4 1 1 1
node 5 1 1 1
node 6 1 1 1
node 7 1 1 1
node 8 1 1 3
node 18 1 0 2
node 19 1 0 2
gene  1 2 18 -0.942496656659173 0 324.0 -0.942496656659173 1
gene  1 3 18 -4.350881072335394 0 325.0 -4.350881072335394 1
gene  1 4 18 3.954511327393585 0 326.0 3.954511327393585 1
gene  1 7 18 3.358442739123329 0 329.0 3.358442739123329 1
gene  1 1 19 -1.9630079813892216 0 342.0 -1.9630079813892216 1
gene  1 5 19 -0.5803690054058674 0 346.0 -0.5803690054058674 1
gene  1 6 19 2.357800987427815 0 347.0 2.357800987427815 1
gene  1 8 19 1.2544978538092704 0 349.0 1.2544978538092704 1
gene  1 18 19 -0.20092999472106587 0 359.0 -0.20092999472106587 1
gene  1 1 18 -5.70496373448287 0 431.0 -5.70496373448287 1
genomeend 64
/* Organism # 065 Fitness:  353.699 Error:  0.000                      */
genomestart  65
trait 1 0.0 0.0 0.0 0.0 0.0 0.0 0.0 0.0 
node 1 1 1 1
node 2 1 1 1
node 3 1 1 1
node 4 1 1 1
node 5 1 1 1
node 6 1 1 1
node 7 1 1 1
node 8 1 1 3
node 18 1 0 2
node 19 1 0 2
gene  1 2 18 -0.5294264936403004 0 324.0 -0.5294264936403004 1
gene  1 3 18 -2.2378566367342634 0 325.0 -2.2378566367342634 1
gene  1 4 18 3.086069897671993 0 326.0 3.086069897671993 1
gene  1 7 18 3.358442739123329 0 329.0 3.358442739123329 1
gene  1 1 19 -1.9630079813892216 0 342.0 -1.9630079813892216 1
gene  1 5 19 -0.5803690054058674 0 346.0 -0.5803690054058674 1
gene  1 6 19 2.357800987427815 0 347.0 2.357800987427815 1
gene  1 8 19 1.2544978538092704 0 349.0 1.2544978538092704 1
gene  1 18 19 -0.20092999472106587 0 359.0 -0.20092999472106587 1
gene  1 1 18 -5.70496373448287 0 431.0 -5.70496373448287 1
genomeend 65
/*-------------------------------------------------------------------*/
/* Species # 020         : (size= 001) (AvfFit= 0.000) (Age= 8.000)  */
/*-------------------------------------------------------------------*/
/* Organism # 066 Fitness:  33.144 Error:  0.000                      */
genomestart  66
trait 1 0.0 0.0 0.0 0.0 0.0 0.0 0.0 0.0 
node 1 1 1 1
node 2 1 1 1
node 3 1 1 1
node 4 1 1 1
node 5 1 1 1
node 6 1 1 1
node 7 1 1 1
node 8 1 1 3
node 18 1 0 2
node 19 1 0 2
node 22 1 0 0
gene  1 1 18 -0.9765008711298437 0 323.0 -0.9765008711298437 1
gene  1 2 18 2.315154624692135 0 324.0 2.315154624692135 1
gene  1 3 18 -0.7357155926750389 0 325.0 -0.7357155926750389 1
gene  1 4 18 0.39111233154708724 0 326.0 0.39111233154708724 1
gene  1 5 18 -1.316828259907959 0 327.0 -1.316828259907959 1
gene  1 7 18 3.5568148405331073 0 329.0 3.5568148405331073 1
gene  1 8 18 -3.1027163663193282 0 330.0 -3.1027163663193282 1
gene  1 1 19 -1.8884113448678825 0 342.0 -1.8884113448678825 1
gene  1 2 19 0.3237441668440262 0 343.0 0.3237441668440262 1
gene  1 3 19 -2.149082952940164 0 344.0 -2.149082952940164 1
gene  1 4 19 4.317234374609296 0 345.0 4.317234374609296 1
gene  1 5 19 2.849374517070609 0 346.0 2.849374517070609 0
gene  1 6 19 1.0036529041193214 0 347.0 1.0036529041193214 1
gene  1 7 19 1.2015781693353147 0 348.0 1.2015781693353147 1
gene  1 8 19 0.947065988602707 0 349.0 0.947065988602707 1
gene  1 18 19 1.2013317592564363 0 359.0 1.2013317592564363 1
gene  1 5 22 0.45953166390847566 0 367.0 0.45953166390847566 1
gene  1 22 19 0.2800074654869884 0 368.0 0.2800074654869884 1
genomeend 66
/*-------------------------------------------------------------------*/
/* Species # 021         : (size= 001) (AvfFit= 0.000) (Age= 8.000)  */
/*-------------------------------------------------------------------*/
/* Organism # 067 Fitness:  33.761 Error:  0.000                      */
genomestart  67
trait 1 0.0 0.0 0.0 0.0 0.0 0.0 0.0 0.0 
node 1 1 1 1
node 2 1 1 1
node 3 1 1 1
node 4 1 1 1
node 5 1 1 1
node 6 1 1 1
node 7 1 1 1
node 8 1 1 3
node 18 1 0 2
node 19 1 0 2
gene  1 1 18 -1.5826185337676193 0 323.0 -1.5826185337676193 1
gene  1 2 18 4.613775966170262 0 324.0 4.613775966170262 1
gene  1 4 18 -0.30262901235910156 0 326.0 -0.30262901235910156 1
gene  1 5 18 -0.44727048200735053 0 327.0 -0.44727048200735053 1
gene  1 7 18 4.94415531286078 0 329.0 4.94415531286078 1
gene  1 8 18 -2.738851978559973 0 330.0 -2.738851978559973 1
gene  1 2 19 2.491393785983372 0 343.0 2.491393785983372 1
gene  1 3 19 -1.6506862993126785 0 344.0 -1.6506862993126785 1
gene  1 6 19 3.240742548151779 0 347.0 3.240742548151779 1
gene  1 7 19 -1.7910641197802182 0 348.0 -1.7910641197802182 1
gene  1 8 19 2.448900912763209 0 349.0 2.448900912763209 1
gene  1 18 19 2.0254568130059303 0 359.0 2.0254568130059303 1
gene  1 4 19 2.1808824306138 0 390.0 2.1808824306138 1
genomeend 67
/*-------------------------------------------------------------------*/
/* Species # 024         : (size= 002) (AvfFit= 0.000) (Age= 8.000)  */
/*-------------------------------------------------------------------*/
/* Organism # 068 Fitness:  32.955 Error:  0.000                      */
genomestart  68
trait 1 0.0 0.0 0.0 0.0 0.0 0.0 0.0 0.0 
node 1 1 1 1
node 2 1 1 1
node 3 1 1 1
node 4 1 1 1
node 5 1 1 1
node 6 1 1 1
node 7 1 1 1
node 8 1 1 3
node 18 1 0 2
node 19 1 0 2
gene  1 1 18 -3.2381670295937157 0 323.0 -3.2381670295937157 1
gene  1 3 18 -0.05753969603346065 0 325.0 -0.05753969603346065 1
gene  1 6 18 -0.5465368193034559 0 328.0 -0.5465368193034559 1
gene  1 7 18 -0.3079242098644226 0 329.0 -0.3079242098644226 1
gene  1 8 18 -0.022581505808283442 0 330.0 -0.022581505808283442 1
gene  1 2 19 -5.567863444796547 0 343.0 -5.567863444796547 1
gene  1 3 19 -5.932708529582753 0 344.0 -5.932708529582753 1
gene  1 4 19 -1.6941194235395205 0 345.0 -1.6941194235395205 1
gene  1 5 19 -4.145872380844082 0 346.0 -4.145872380844082 1
gene  1 8 19 1.938004855229484 0 349.0 1.938004855229484 1
gene  1 18 19 -0.48384775060169116 0 359.0 -0.48384775060169116 1
genomeend 68
/* Organism # 069 Fitness:  76.883 Error:  0.000                      */
genomestart  69
trait 1 0.0 0.0 0.0 0.0 0.0 0.0 0.0 0.0 
node 1 1 1 1
node 2 1 1 1
node 3 1 1 1
node 4 1 1 1
node 5 1 1 1
node 6 1 1 1
node 7 1 1 1
node 8 1 1 3
node 18 1 0 2
node 19 1 0 2
gene  1 1 18 -2.815630202258796 0 323.0 -2.815630202258796 1
gene  1 3 18 1.072751802818954 0 325.0 1.072751802818954 1
gene  1 6 18 -0.05678178938905876 0 328.0 -0.05678178938905876 1
gene  1 7 18 1.3531685539115976 0 329.0 1.3531685539115976 1
gene  1 8 18 0.44604743036166905 0 330.0 0.44604743036166905 1
gene  1 2 19 -4.416397472084345 0 343.0 -4.416397472084345 1
gene  1 3 19 -6.466150890060064 0 344.0 -6.466150890060064 1
gene  1 4 19 1.8363181000841997 0 345.0 1.8363181000841997 1
gene  1 5 19 -2.235208377651066 0 346.0 -2.235208377651066 1
gene  1 8 19 2.941332624535499 0 349.0 2.941332624535499 1
gene  1 18 19 -1.8065873726737058 0 359.0 -1.8065873726737058 1
gene  1 1 19 -0.34636500665692904 0 466.0 -0.34636500665692904 1
genomeend 69
/*-------------------------------------------------------------------*/
/* Species # 026         : (size= 001) (AvfFit= 0.000) (Age= 8.000)  */
/*-------------------------------------------------------------------*/
/* Organism # 070 Fitness:  64.288 Error:  0.000                      */
genomestart  70
trait 1 0.17970002306871535 0.34881666675339307 0.0 0.0 0.3330335869839961 0.4510793892430931 0.0 0.0 
node 1 1 1 1
node 2 1 1 1
node 3 1 1 1
node 4 1 1 1
node 5 1 1 1
node 6 1 1 1
node 7 1 1 1
node 8 1 1 3
node 18 1 0 2
node 19 1 0 2
gene  1 1 18 3.091254717252562 0 323.0 3.091254717252562 1
gene  1 4 18 -5.659119735999328 0 326.0 -5.659119735999328 1
gene  1 6 18 3.232743971602939 0 328.0 3.232743971602939 1
gene  1 7 18 -0.7051488288452359 0 329.0 -0.7051488288452359 1
gene  1 1 19 6.168628950475799 0 342.0 6.168628950475799 1
gene  1 2 19 4.184307907840544 0 343.0 4.184307907840544 1
gene  1 3 19 0.47990598616388525 0 344.0 0.47990598616388525 1
gene  1 5 19 -5.679276331753504 0 346.0 -5.679276331753504 1
gene  1 6 19 -0.08710412957771574 0 347.0 -0.08710412957771574 1
gene  1 8 19 -0.3456890136791453 0 349.0 -0.3456890136791453 1
genomeend 70
/*-------------------------------------------------------------------*/
/* Species # 027         : (size= 010) (AvfFit= 0.000) (Age= 8.000)  */
/*-------------------------------------------------------------------*/
/* Organism # 071 Fitness:  706.816 Error:  0.000                      */
genomestart  71
trait 1 0.0 0.0 0.16994520455650597 0.04744535446706544 0.0 0.7979875688271327 0.0 0.12631248876208467 
node 1 1 1 1
node 2 1 1 1
node 3 1 1 1
node 4 1 1 1
node 5 1 1 1
node 6 1 1 1
node 7 1 1 1
node 8 1 1 3
node 18 1 0 2
node 19 1 0 2
node 24 1 0 0
node 32 1 0 0
gene  1 1 18 -0.5952845469843567 0 323.0 -0.5952845469843567 0
gene  1 2 18 -0.9854936176154174 0 324.0 -0.9854936176154174 1
gene  1 5 18 0.8450368780991558 0 327.0 0.8450368780991558 1
gene  1 6 18 0.556135169793041 0 328.0 0.556135169793041 0
gene  1 8 18 2.464156045125532 0 330.0 2.464156045125532 1
gene  1 2 19 -1.9134214501252638 0 343.0 -1.9134214501252638 1
gene  1 3 19 1.226664819369633 0 344.0 1.226664819369633 1
gene  1 4 19 -0.6472549693706109 0 345.0 -0.6472549693706109 1
gene  1 5 19 1.1120241699458941 0 346.0 1.1120241699458941 1
gene  1 7 19 0.9315229607508151 0 348.0 0.9315229607508151 1
gene  1 8 19 -0.5863377572451798 0 349.0 -0.5863377572451798 1
gene  1 18 19 2.171723993129232 0 359.0 2.171723993129232 1
gene  1 1 24 4.25831756931249 0 380.0 4.25831756931249 1
gene  1 24 18 -1.6766375785793115 0 381.0 -1.6766375785793115 1
gene  1 6 32 3.0602749720718307 0 417.0 3.0602749720718307 1
gene  1 32 18 0.2326094870011579 0 418.0 0.2326094870011579 1
genomeend 71
/* Organism # 072 Fitness:  494.306 Error:  0.000                      */
genomestart  72
trait 1 0.0 0.0 0.16994520455650597 0.04744535446706544 0.0 0.7979875688271327 0.0 0.12631248876208467 
node 1 1 1 1
node 2 1 1 1
node 3 1 1 1
node 4 1 1 1
node 5 1 1 1
node 6 1 1 1
node 7 1 1 1
node 8 1 1 3
node 18 1 0 2
node 19 1 0 2
node 24 1 0 0
node 32 1 0 0
gene  1 1 18 -1.980454723179603 0 323.0 -1.980454723179603 1
gene  1 2 18 -1.7276485572345313 0 324.0 -1.7276485572345313 1
gene  1 5 18 1.1521998250005154 0 327.0 1.1521998250005154 1
gene  1 6 18 -0.6190225876072967 0 328.0 -0.6190225876072967 0
gene  1 8 18 1.050784863613658 0 330.0 1.050784863613658 1
gene  1 2 19 -0.01696083318405739 0 343.0 -0.01696083318405739 1
gene  1 3 19 0.4539565975095281 0 344.0 0.4539565975095281 1
gene  1 4 19 -1.8848836942797036 0 345.0 -1.8848836942797036 1
gene  1 5 19 -0.5936991884285847 0 346.0 -0.5936991884285847 1
gene  1 7 19 1.502766526722665 0 348.0 1.502766526722665 1
gene  1 8 19 0.5845142196526201 0 349.0 0.5845142196526201 1
gene  1 18 19 3.4041933585916464 0 359.0 3.4041933585916464 1
gene  1 1 24 3.263360078964563 0 380.0 3.263360078964563 1
gene  1 24 18 1.830800793471495 0 381.0 1.830800793471495 1
gene  1 6 32 2.589181662979074 0 417.0 2.589181662979074 1
gene  1 32 18 -1.708168185818326 0 418.0 -1.708168185818326 1
genomeend 72
/* Organism # 073 Fitness:  550.053 Error:  0.000                      */
genomestart  73
trait 1 0.0 0.0 0.16994520455650597 0.04744535446706544 0.0 0.7979875688271327 0.0 0.12631248876208467 
node 1 1 1 1
node 2 1 1 1
node 3 1 1 1
node 4 1 1 1
node 5 1 1 1
node 6 1 1 1
node 7 1 1 1
node 8 1 1 3
node 18 1 0 2
node 19 1 0 2
node 24 1 0 0
node 32 1 0 0
gene  1 1 18 0.6559794268294793 0 323.0 0.6559794268294793 0
gene  1 2 18 -1.8011550014108044 0 324.0 -1.8011550014108044 1
gene  1 5 18 1.500175169230016 0 327.0 1.500175169230016 1
gene  1 6 18 2.8607060301018277 0 328.0 2.8607060301018277 0
gene  1 8 18 -0.43108341678583084 0 330.0 -0.43108341678583084 1
gene  1 2 19 -1.3629558880059522 0 343.0 -1.3629558880059522 1
gene  1 3 19 0.6785799335870162 0 344.0 0.6785799335870162 1
gene  1 4 19 -0.6370573129467263 0 345.0 -0.6370573129467263 1
gene  1 5 19 -0.3196319215548171 0 346.0 -0.3196319215548171 1
gene  1 7 19 -0.33699826397512234 0 348.0 -0.33699826397512234 1
gene  1 8 19 1.5356066522140592 0 349.0 1.5356066522140592 1
gene  1 18 19 1.4660417790149076 0 359.0 1.4660417790149076 1
gene  1 1 24 4.503973903685913 0 380.0 4.503973903685913 1
gene  1 24 18 -1.279760019939093 0 381.0 -1.279760019939093 1
gene  1 6 32 3.362268381483606 0 417.0 3.362268381483606 1
gene  1 32 18 0.34345116591662106 0 418.0 0.34345116591662106 1
genomeend 73
/* Organism # 074 Fitness:  547.921 Error:  0.000                      */
genomestart  74
trait 1 0.0 0.0 0.16994520455650597 0.04744535446706544 0.0 0.7979875688271327 0.0 0.12631248876208467 
node 1 1 1 1
node 2 1 1 1
node 3 1 1 1
node 4 1 1 1
node 5 1 1 1
node 6 1 1 1
node 7 1 1 1
node 8 1 1 3
node 18 1 0 2
node 19 1 0 2
node 24 1 0 0
node 32 1 0 0
gene  1 1 18 -0.7158224451739548 0 323.0 -0.7158224451739548 0
gene  1 2 18 -1.6346078681039657 0 324.0 -1.6346078681039657 1
gene  1 5 18 1.378096130927884 0 327.0 1.378096130927884 1
gene  1 6 18 1.3376798138096824 0 328.0 1.3376798138096824 0
gene  1 8 18 2.6289895720139977 0 330.0 2.6289895720139977 1
gene  1 2 19 -1.0372379089505952 0 343.0 -1.0372379089505952 1
gene  1 3 19 -1.2758384212332714 0 344.0 -1.2758384212332714 1
gene  1 4 19 -1.499293020827596 0 345.0 -1.499293020827596 1
gene  1 5 19 -1.0727169612086846 0 346.0 -1.0727169612086846 1
gene  1 7 19 0.882527892364876 0 348.0 0.882527892364876 1
gene  1 8 19 1.4285385812788771 0 349.0 1.4285385812788771 1
gene  1 18 19 1.9121746069454444 0 359.0 1.9121746069454444 1
gene  1 1 24 3.8058667066746312 0 380.0 3.8058667066746312 1
gene  1 24 18 0.47006756776678765 0 381.0 0.47006756776678765 1
gene  1 6 32 1.3478840069650648 0 417.0 1.3478840069650648 1
gene  1 32 18 0.8190213793624195 0 418.0 0.8190213793624195 1
genomeend 74
/* Organism # 075 Fitness:  79.924 Error:  0.000                      */
genomestart  75
trait 1 0.0 0.0 0.16994520455650597 0.04744535446706544 0.0 0.7979875688271327 0.0 0.12631248876208467 
node 1 1 1 1
node 2 1 1 1
node 3 1 1 1
node 4 1 1 1
node 5 1 1 1
node 6 1 1 1
node 7 1 1 1
node 8 1 1 3
node 18 1 0 2
node 19 1 0 2
node 24 1 0 0
node 32 1 0 0
gene  1 1 18 -0.18188720285676852 0 323.0 -0.18188720285676852 0
gene  1 2 18 -0.5015483221435424 0 324.0 -0.5015483221435424 1
gene  1 5 18 2.228794595521749 0 327.0 2.228794595521749 1
gene  1 6 18 -0.5637311406012471 0 328.0 -0.5637311406012471 0
gene  1 8 18 1.592515007021269 0 330.0 1.592515007021269 1
gene  1 2 19 -0.13044806645728702 0 343.0 -0.13044806645728702 1
gene  1 3 19 0.35384767325769495 0 344.0 0.35384767325769495 1
gene  1 4 19 -3.845043850544882 0 345.0 -3.845043850544882 1
gene  1 5 19 -1.7122251219985472 0 346.0 -1.7122251219985472 1
gene  1 7 19 -0.1913781024331802 0 348.0 -0.1913781024331802 1
gene  1 8 19 0.9879681557625555 0 349.0 0.9879681557625555 1
gene  1 18 19 2.6931476226900193 0 359.0 2.6931476226900193 1
gene  1 1 24 3.8521331301074753 0 380.0 3.8521331301074753 1
gene  1 24 18 0.30480757849963136 0 381.0 0.30480757849963136 1
gene  1 6 32 0.7890365903273311 0 417.0 0.7890365903273311 1
gene  1 32 18 -0.9428965767232524 0 418.0 -0.9428965767232524 1
genomeend 75
/* Organism # 076 Fitness:  42.994 Error:  0.000                      */
genomestart  76
trait 1 0.0 0.0 0.16994520455650597 0.04744535446706544 0.0 0.7979875688271327 0.0 0.12631248876208467 
node 1 1 1 1
node 2 1 1 1
node 3 1 1 1
node 4 1 1 1
node 5 1 1 1
node 6 1 1 1
node 7 1 1 1
node 8 1 1 3
node 18 1 0 2
node 19 1 0 2
node 24 1 0 0
node 32 1 0 0
gene  1 1 18 1.1007672171951972 0 323.0 1.1007672171951972 0
gene  1 2 18 -0.5625314600237965 0 324.0 -0.5625314600237965 1
gene  1 5 18 2.4751623679962336 0 327.0 2.4751623679962336 1
gene  1 6 18 0.024068300673380616 0 328.0 0.024068300673380616 0
gene  1 8 18 2.5671049453940364 0 330.0 2.5671049453940364 1
gene  1 2 19 0.337703309726451 0 343.0 0.337703309726451 1
gene  1 3 19 0.8507885934405098 0 344.0 0.8507885934405098 1
gene  1 4 19 -1.3887113038958643 0 345.0 -1.3887113038958643 1
gene  1 5 19 2.404329930495573 0 346.0 2.404329930495573 1
gene  1 7 19 2.792393357034641 0 348.0 2.792393357034641 1
gene  1 8 19 -1.1084442187939239 0 349.0 -1.1084442187939239 1
gene  1 18 19 3.1390518490854205 0 359.0 3.1390518490854205 1
gene  1 1 24 2.2239062687206466 0 380.0 2.2239062687206466 1
gene  1 24 18 1.3785836046374498 0 381.0 1.3785836046374498 1
gene  1 6 32 1.190652578710118 0 417.0 1.190652578710118 1
gene  1 32 18 -1.6520810956599188 0 418.0 -1.6520810956599188 1
genomeend 76
/* Organism # 077 Fitness:  546.156 Error:  0.000                      */
genomestart  77
trait 1 0.0 0.0 0.16994520455650597 0.04744535446706544 0.0 0.7979875688271327 0.0 0.12631248876208467 
node 1 1 1 1
node 2 1 1 1
node 3 1 1 1
node 4 1 1 1
node 5 1 1 1
node 6 1 1 1
node 7 1 1 1
node 8 1 1 3
node 18 1 0 2
node 19 1 0 2
node 24 1 0 0
node 32 1 0 0
gene  1 1 18 -0.6707684098824287 0 323.0 -0.6707684098824287 1
gene  1 2 18 -1.3164783413635315 0 324.0 -1.3164783413635315 1
gene  1 5 18 0.6715344762083766 0 327.0 0.6715344762083766 1
gene  1 6 18 0.09549486821578312 0 328.0 0.09549486821578312 1
gene  1 8 18 2.535300377255065 0 330.0 2.535300377255065 1
gene  1 2 19 -1.5877034710699067 0 343.0 -1.5877034710699067 1
gene  1 3 19 0.32161232072613793 0 344.0 0.32161232072613793 1
gene  1 4 19 -0.15783545869345966 0 345.0 -0.15783545869345966 1
gene  1 5 19 1.1326476894755693 0 346.0 1.1326476894755693 1
gene  1 7 19 1.3438315215340852 0 348.0 1.3438315215340852 1
gene  1 8 19 -0.9651166248940045 0 349.0 -0.9651166248940045 1
gene  1 18 19 2.171723993129232 0 359.0 2.171723993129232 1
gene  1 1 24 3.424362539868139 0 380.0 3.424362539868139 1
gene  1 24 18 -0.8061203304072659 0 381.0 -0.8061203304072659 1
gene  1 6 32 2.1254637753909744 0 417.0 2.1254637753909744 1
gene  1 32 18 0.2326094870011579 0 418.0 0.2326094870011579 1
genomeend 77
/* Organism # 078 Fitness:  33.085 Error:  0.000                      */
genomestart  78
trait 1 0.8401894790191402 0.8758313324061437 0.0 0.0 0.0 0.7979875688271327 0.0 0.12631248876208467 
node 1 1 1 1
node 2 1 1 1
node 3 1 1 1
node 4 1 1 1
node 5 1 1 1
node 6 1 1 1
node 7 1 1 1
node 8 1 1 3
node 18 1 0 2
node 19 1 0 2
node 24 1 0 0
node 32 1 0 0
gene  1 1 18 0.9635480141943235 0 323.0 0.9635480141943235 0
gene  1 2 18 -3.3361916893169767 0 324.0 -3.3361916893169767 1
gene  1 5 18 -0.5663933551519437 0 327.0 -0.5663933551519437 1
gene  1 6 18 1.3693007971842994 0 328.0 1.3693007971842994 0
gene  1 8 18 1.6927285431385166 0 330.0 1.6927285431385166 1
gene  1 2 19 -2.371905198362061 0 343.0 -2.371905198362061 1
gene  1 3 19 -2.3664544367227003 0 344.0 -2.3664544367227003 1
gene  1 4 19 1.0206187911626992 0 345.0 1.0206187911626992 1
gene  1 5 19 -0.7871040122424151 0 346.0 -0.7871040122424151 1
gene  1 7 19 3.042558967499133 0 348.0 3.042558967499133 1
gene  1 8 19 -3.2736030038179225 0 349.0 -3.2736030038179225 1
gene  1 18 19 3.884370552633254 0 359.0 3.884370552633254 1
gene  1 1 24 3.132469821503361 0 380.0 3.132469821503361 1
gene  1 24 18 0.8007465739306504 0 381.0 0.8007465739306504 1
gene  1 6 32 1.7192177836743778 0 417.0 1.7192177836743778 1
gene  1 32 18 0.7085845515691429 0 418.0 0.7085845515691429 1
genomeend 78
/* Organism # 079 Fitness:  33.966 Error:  0.000                      */
genomestart  79
trait 1 0.0 0.0 0.16994520455650597 0.693978020843717 0.0 0.9272551592145882 0.0 0.3392149114275488 
node 1 1 1 1
node 2 1 1 1
node 3 1 1 1
node 4 1 1 1
node 5 1 1 1
node 6 1 1 1
node 7 1 1 1
node 8 1 1 3
node 18 1 0 2
node 19 1 0 2
node 24 1 0 0
node 32 1 0 0
gene  1 1 18 -1.8038859686562145 0 323.0 -1.8038859686562145 0
gene  1 2 18 -0.9956142070609344 0 324.0 -0.9956142070609344 1
gene  1 5 18 -0.7726052867355834 0 327.0 -0.7726052867355834 1
gene  1 6 18 1.4267103755826251 0 328.0 1.4267103755826251 0
gene  1 8 18 2.8268164145640093 0 330.0 2.8268164145640093 1
gene  1 2 19 -1.6945249252224515 0 343.0 -1.6945249252224515 1
gene  1 3 19 2.7556677026185805 0 344.0 2.7556677026185805 1
gene  1 4 19 1.5958660697154647 0 345.0 1.5958660697154647 1
gene  1 5 19 -1.676155893785812 0 346.0 -1.676155893785812 1
gene  1 7 19 2.039601041917302 0 348.0 2.039601041917302 1
gene  1 8 19 -1.9794648548579254 0 349.0 -1.9794648548579254 1
gene  1 18 19 -1.170348638122058 0 359.0 -1.170348638122058 1
gene  1 1 24 -0.5181095349706157 0 380.0 -0.5181095349706157 1
gene  1 24 18 -0.9055863564432134 0 381.0 -0.9055863564432134 1
gene  1 6 32 2.949991020471852 0 417.0 2.949991020471852 1
gene  1 32 18 -1.6428714503518533 0 418.0 -1.6428714503518533 1
genomeend 79
/* Organism # 080 Fitness:  34.286 Error:  0.000                      */
genomestart  80
trait 1 0.0 0.0 0.16994520455650597 0.04744535446706544 0.0 0.7979875688271327 0.0 0.12631248876208467 
node 1 1 1 1
node 2 1 1 1
node 3 1 1 1
node 4 1 1 1
node 5 1 1 1
node 6 1 1 1
node 7 1 1 1
node 8 1 1 3
node 18 1 0 2
node 19 1 0 2
node 24 1 0 0
node 32 1 0 0
gene  1 1 18 -1.2685411384543968 0 323.0 -1.2685411384543968 0
gene  1 2 18 -1.6474630651116455 0 324.0 -1.6474630651116455 1
gene  1 5 18 -0.8962735988095457 0 327.0 -0.8962735988095457 1
gene  1 6 18 0.7269816773449014 0 328.0 0.7269816773449014 0
gene  1 8 18 0.8282933198647975 0 330.0 0.8282933198647975 1
gene  1 2 19 -0.8230084117474268 0 343.0 -0.8230084117474268 1
gene  1 3 19 -0.13886048664722384 0 344.0 -0.13886048664722384 1
gene  1 4 19 2.2601954031386096 0 345.0 2.2601954031386096 1
gene  1 5 19 -0.29017292270841 0 346.0 -0.29017292270841 1
gene  1 7 19 1.940632630784955 0 348.0 1.940632630784955 1
gene  1 8 19 1.3178349991981169 0 349.0 1.3178349991981169 1
gene  1 18 19 2.355522990453241 0 359.0 2.355522990453241 1
gene  1 1 24 3.059778419385874 0 380.0 3.059778419385874 1
gene  1 24 18 1.0221144637996757 0 381.0 1.0221144637996757 1
gene  1 6 32 0.6762138652115419 0 417.0 0.6762138652115419 1
gene  1 32 18 1.6478997897495269 0 418.0 1.6478997897495269 1
genomeend 80
/*-------------------------------------------------------------------*/
/* Species # 029         : (size= 001) (AvfFit= 0.000) (Age= 8.000)  */
/*-------------------------------------------------------------------*/
/* Organism # 081 Fitness:  32.955 Error:  0.000                      */
genomestart  81
trait 1 0.0 0.0 0.0 0.0 0.0 0.0 0.0 0.0 
node 1 1 1 1
node 2 1 1 1
node 3 1 1 1
node 4 1 1 1
node 5 1 1 1
node 6 1 1 1
node 7 1 1 1
node 8 1 1 3
node 18 1 0 2
node 19 1 0 2
gene  1 1 18 -0.9259413458014412 0 323.0 -0.9259413458014412 1
gene  1 2 18 0.8320083876872209 0 324.0 0.8320083876872209 1
gene  1 3 18 -2.0339970685390067 0 325.0 -2.0339970685390067 1
gene  1 5 18 0.8893383669852293 0 327.0 0.8893383669852293 1
gene  1 6 18 -1.7799188630928768 0 328.0 -1.7799188630928768 1
gene  1 8 18 0.0026242308069004405 0 330.0 0.0026242308069004405 1
gene  1 2 19 2.0335076545499775 0 343.0 2.0335076545499775 1
gene  1 4 19 -1.7448708370658108 0 345.0 -1.7448708370658108 1
